0.109822428122734
-0.153523899536496
-0.00188404207692042
0.122846632128008
-0.11037622957058
0.00036591798701747
-0.389490440916823
-0.14982073063901
-0.0130227998904874
-0.0987738749929384
0.119876877044259
0.00561072154993237
0.222796418569468
-0.210021118492215
-4.04842121231532e-05
0.190048247162775
-0.186095443897994
-0.000447533451238143
0.320080782326787
-0.318583489145134
0.000162473052525593
0.276954708883271
-0.271105425423276
3.87440556325531e-05
0.386063656542183
0.449400373925687
-0.00357661087739456
-0.0442861921957546
-0.00727459604726239
0.00215686981048362
-0.118913875316406
0.276008446874727
-0.102049313448279
-0.357512142459879
-0.0237466139201706
-0.017625826750032
0.083052159350582
0.10976541551053
-0.0121729098105848
0.0333046826135062
0.0503605280044655
-0.000961243895546763
0.102251375896728
-0.165655536997565
0.00512710820339422
0.121613485814564
-0.11574993028254
-0.00582911009196692
0.266325146021802
0.318809287496514
0.0111139357356029
-0.0722771328187011
-0.0403329329501008
0.00127963635284206
0.151198837737412
0.146387253351658
0.118584815755469
-0.34469815646176
-0.353332481048206
0.0102907264505037
-0.246323821873365
-0.214757760655196
-0.0804959325196496
0.397127617033616
0.433331521518018
0.0016609292862889
-0.00248884762163076
0.00147963013084206
0.00241255173784438
-0.00140424797093448
0.0015286299235409
-0.000640535889716366
-0.415833001488673
-0.439807394750274
-0.00191087488133312
0.0546699426447397
0.0512462553639999
-0.0061312877623562
0.229655399221237
0.0867479041410441
0.00777153130101925
0.0555988401515427
-0.0698696773484261
-0.00308019133111651
0.610062587618479
0.613313279483301
0.0808426110833745
-0.545156095644383
-0.569011824449729
0.000759389131679538
-0.138710269749018
-0.139848785862008
0.00207588942882162
0.249611367331075
0.255074435009573
0.00890758639135966
0.340940479401046
0.30496957708491
0.0516826534417749
-0.336894581194876
-0.382964946944341
-0.000940357101100652
-0.240199292347556
-0.286584381671058
-0.00381095469264915
0.0226738984593644
-0.0102581027297059
0.000936557543797416
0.141390286782078
0.123313212466517
0.0863522145019387
-0.312156292807523
-0.332537292484269
-0.00326752313836188
0.572126208540912
0.598299119826822
0.0115850511698652
-0.102233143728229
-0.0870428828602014
-0.00580073412174686
-0.204423205161748
-0.203241012577222
-0.161832510153624
0.465309985327686
0.483784646357272
-0.0140175457473257
0.246938744645359
-0.0387057081916981
-0.0939818083811476
-0.237209458446799
-0.489236313013702
0.00295382352218991
-0.0329602108337587
-0.0321843584196404
-0.521001922741089
0.0755632945738809
0.0685177578298501
0.00100612220669313
0.0990081298561605
-0.0673156494474563
-0.00176722742555028
0.0762521976718784
-0.071358575546114
0.00220336774825112
0.784734569363524
0.825950369805018
-0.294668419193534
-0.66304020593761
-0.669061257593741
0.00156771791703276
0.0340267054353326
0.0330324324626965
0.102218452244112
-0.0857611979062394
-0.0862961320856247
-0.00414381314356266
0.0167434777360668
0.0218857952560409
0.00468434985847754
-0.053378087781248
-0.0500059577225799
-0.00316013917252478
-0.00312202941792774
0.00248243681625244
0.000385373497252879
-0.00137823646969814
0.00159101761920895
0.00160588801436655
-0.631054621512771
-0.626619312042363
-0.0573051675179134
0.50980219831338
0.54711218117321
-0.00218893494116466
-0.0376427914788618
-0.012149720546281
-0.31109793113997
0.111928631972061
0.131062659802344
0.00668197570037759
-0.118794430263021
0.398028229138597
-0.188201206679146
-0.254823847408646
-0.0154272977542617
0.254838820467452
0.145136171855132
-0.178713633547596
-0.0994436280556641
-0.432646577436623
0.254940072787725
-0.00284573771064862
0.0340804308490201
-0.607281158638685
0.0640232484869991
0.308625183865345
-0.0976382476064635
0.0574464816087581
0.2168662939217
-0.00608323952941933
0.339148535862997
-0.0719445756896645
0.302081025289681
-0.316240649997258
0.573292365816024
0.225592971615214
0.140394597828579
-0.00028972999490195
-0.192394650815439
0.228210854083324
-0.121875320277573
0.17226363800485
-0.0225640637716007
-0.0258241140519429
0.307838560971556
-0.0752625765934575
0.543152297974493
-0.218447944470031
-0.154691233575929
0.0389628305829335
-0.490900508888313
0.00265174019520687
-0.677638639968702
-0.428810216948292
0.456119820124369
-0.255189628702308
0.902336255823448
-0.306409181091801
-0.434235234291473
0.852337145502386
-0.553249411730049
0.285380131487991
-0.156791313492573
-0.100518322295762
0.368467953154061
-0.247879502117987
-0.120010502299078
-0.00111898990404258
1.34843513459006
0.00795267250002044
0.00286926541667188
-0.0121936102133043
-0.0355467470997415
-0.0361982257703429
0.0518107596531614
-0.501107016752093
-0.255794057351641
0.0746396155405756
0.239800647131104
-0.114965833147196
-0.25323741299499
0.000248944807514047
-0.0581113110870927
-0.0299437558366356
-0.908449776686559
-0.150134423930526
0.201706638496283
-0.00774609958052621
-0.00920739297565771
0.0257790243410002
0.0831419616542249
0.0532487858554681
0.197455042709599
0.0871442369406602
-0.940455887707072
0.154129695693785
0.506753163648718
-0.00203487005061688
0.102156379156302
0.0643466549521024
0.0491994957806405
0.125012674494346
0.0484709461708544
0.0174830835029888
-0.14058864523073
-0.117166085010179
0.0395304273814585
-0.127470942190724
-0.337693740459455
-0.407991128405846
0.334086945739051
0.0024320476075448
-0.0494895874987646
-0.197109375879907
-1.09658268982502
0.49464254223921
0.0010587873068514
-0.144215108836802
0.411726431027368
-0.0143173980662836
0.32243584075493
0.056259779743486
0.568814538877002
-0.0803693448350291
0.361710358309222
0.231975803731778
-0.16082643804345
0.00158577319160646
0.0533089300274385
0.353660628105329
0.380518482962699
-0.484292999262858
0.521180996061755
0.633012140290475
-0.356733127318573
-0.226133513135602
-0.300265328889446
0.121578040841934
-0.67700734539378
-0.198699687692659
0.467445650936978
0.000350639108548984
-0.125123103109861
0.77789361482188
0.330017181443576
0.54893641253968
-0.157623843198668
-0.518570769602515
0.343394983436792
-0.091130066254161
0.172910752744262
0.351045957214589
0.52203647073263
0.38874714357675
1.21659506498183
0.436991241134828
-0.00187311474344194
-0.00121551104464103
0.366998262758864
0.411739044613647
-1.07627036843646
-1.28796865277176
0.593424111562582
-0.326563852356912
1.19904032883013
-1.00848033766203
-0.211406868887962
0.4943920822893
0.0202261196489409
-0.392152979527251
-0.483728483640808
0.785056049416155
0.170707772155404
0.928164476874318
-0.212783159357509
-0.0720011318336818
0.66311986758983
0.933080323636356
-0.722420969042773
-0.61929203082296
-0.0946859024586418
-1.90859561608394
1.01917768327248
-0.638626663556258
1.18344752558841
1.08019534352226
-0.865468256804888
0.0146723140884335
0.815748681644482
-0.600141199653595
1.88692010080771
0.470994327263712
1.87211647648475
0.910807162065982
-2.61782590125035
