0.0420757479189443
0.0453567048888016
0.384770302204746
-0.123294365335849
-0.129405203379677
-0.00552095526385998
-0.413582235099328
-0.428328409303281
-0.0325010645181149
0.292782144124504
0.282879514578969
-0.00623333622324789
0.74378681509643
0.77348093653706
0.229379536963332
-0.8738863290048
-0.863175075883981
-0.00700095982585498
-0.156533669338567
-0.178451632993021
0.000854270328719247
0.0209553628005924
0.00203239052359706
-1.94880885996973e-07
0.0497020509309053
0.0445720154539215
-0.530367237255771
-0.0290792182130276
-0.0234299077683936
0.00159789154018697
0.274949672408731
0.161273851280425
0.0144508845787511
-0.323709472758954
-0.429340211439983
0.0113591308878913
-0.502668101364807
-0.505182192619696
-0.217626026732495
0.939214204132196
0.952885744933918
0.0302796694472953
-0.00614491122807015
0.396785850022587
-0.00751602683282373
-0.131270335048058
0.191366524977279
9.31403891558464e-06
-0.0916230395225955
-0.514373400808359
-0.248717514567014
0.180251684584944
-0.183432524741097
-0.0152801799467103
0.156566135056582
-0.150146864733062
0.000991340165247999
0.130885606006152
-0.127165428027724
0.000210405170896671
0.107884291340631
-0.152146510409828
-0.00200958753279968
0.112224014836189
-0.104045784170783
-0.00148760830232087
-0.288236618765224
-0.274497476820759
0.0707603310932172
0.84885805608171
0.86862473915605
0.0352702985603003
0.445673555691648
0.488802164535388
0.0335731878405497
-0.184581243886847
-0.153984897268857
-0.00257951299093415
0.749278893652912
0.778114339623002
0.059559560524682
-0.621297601053556
-0.601341682604495
0.00356140655161392
0.248950139803018
-0.248638878002612
0.00068221624269418
0.212513059735797
-0.210815214738441
-0.000361373268774839
-0.185337630180064
-0.188476110624367
0.000131951383291312
0.0215494107836052
0.0225087208653656
0.00172140135070424
-0.132095996332123
-0.162196645055574
0.0241471515620741
-0.107530213051192
-0.134073047846847
-0.00374597328656057
0.145178607602345
-0.132905241032188
-0.000386732716761755
0.116810295440035
-0.118879042192229
8.72427784404848e-05
0.0256779597114646
0.0213182875482959
0.197885599302396
-0.0799876692279208
-0.087409400194331
-0.00204822951606407
-0.116156259542254
-0.0578978857761291
-0.0198267019983695
0.0621184463016986
0.112524883603007
-0.0130340862167824
-0.421308782757213
0.165601559995204
1.39314045912775
-0.158802933300068
-0.230555145152294
0.398274958534523
-1.38092081187705
0.45144183460784
0.378077506509919
-0.00602866430076936
0.0035961516805232
1.16666485119512
-0.0669924873873967
-0.111816699023613
-0.0598474787112363
0.0225410755068077
-0.202442695931887
0.0230946098553189
-0.449257878292748
-0.0325031715405867
-4.25993831112383e-06
1.73476324814591e-05
-4.73956441820548e-06
-2.83318252170859e-07
7.39609780392112e-06
-9.56560055085063e-06
-1.05803828645388e-05
-1.19400139252757e-05
4.71260611273115e-06
3.09875624991617e-06
-9.2325010570674e-06
8.96898294811236e-06
7.44488307054032e-06
4.77648520870297e-06
-2.10640509068361e-06
1.15705346833112e-06
1.62835948176283e-05
-1.92766148404744e-05
1.35057344129326e-05
1.34740981445292e-05
-0.214279896313234
0.264680515954608
-0.0202961056827662
0.233584944352951
-0.647488213849528
0.513967275811276
-0.146827544335564
-0.61343670923713
-0.644296738810188
-0.00530748358646055
-0.0581966571008344
-0.0375106966488373
0.337824031545735
0.226821265944391
-0.0193305466072234
0.194547516575538
-0.335411475775749
0.0164794958711745
-0.333567316316355
0.309473538728028
-0.274774630920827
-0.748510899784937
0.849720979410508
-0.560140917763234
-0.225997212780026
-0.171457576474268
-0.837769593072968
0.189403178548261
0.228686560601782
-0.0812057961797138
-0.0600295845429041
0.660525655348949
-0.816140338314457
-1.56631197147028
0.00224776227157588
-0.114878605078958
-0.335877110721946
0.0606603244074007
-0.154487737187797
0.227866070816148
0.00667793526835902
-0.0697120784145057
0.00703887843483381
-0.729582980380192
0.016736590968334
-0.053145550104239
0.0037415202861217
-0.55565908050183
0.00821895400907235
0.324934474670111
0.342102496599576
-0.00894918352533283
-0.182503513818577
-0.0363218355991409
0.660761752996135
-0.245943695811866
-0.245525209165435
0.613766567277575
0.00150488813402375
0.0232539662631658
0.0174579224349565
-5.31368632455651e-06
0.0375750367389568
-0.0452270701546517
1.30843921346217
2.26529801746947
0.000107706802780532
0.963937159060862
-2.88187808401559
-0.000383947367595306
