0.868116538626831
0.9513634961874
0.0318909295225974
-0.278529201801486
-0.209825347779323
0.00490420011384418
0.0271880651353135
-0.101729002234806
-0.0079572961826369
0.0986413581166344
-0.00718739824863763
0.00477658130744641
-0.220606850554654
0.0883096548325978
-0.0111361443489172
-0.0639690476071824
0.202257247014492
0.00731134084569323
-0.567368984792957
-0.610218925557313
-0.0365588607189242
0.228706122406719
0.197678773319514
-0.0152552975657263
-0.132997185391468
-0.125459517486641
-0.737428272742225
0.428563808904002
0.453781987698942
8.96443246924063e-05
-0.592292528364982
-0.635909859144777
-0.00871171706220088
0.0917972069733642
0.0570630203596516
0.012701706297271
0.831581134127899
0.947045722460539
0.193494042514707
-1.35900782870203
-1.28499772235156
0.00936485659555806
0.322744021969403
0.331930766021126
0.101698079876756
-0.726139823347189
-0.731360989849407
-0.0219925299748786
0.0834333673952402
-0.228470770855918
-0.0106369533034621
0.2059035296606
-0.0613976678729243
-0.00319244431384197
-0.488234682206759
-0.553786163206896
-0.117894484492009
0.799284059561521
0.756715841490282
-0.00465269547697938
0.0314012009796441
0.407577381397422
0.272754612106237
-0.0534855929645226
0.00756075107159022
-0.0163704685631909
0.0790750060815169
-0.0146369026917858
1.18072393608715
-0.124872913570547
0.0316681085444467
0.367032572482051
-0.0670036727725767
0.43138796383209
0.993809213177707
-0.0913624154851911
0.323845056093018
-0.541950628693728
-0.0160697824407822
-0.756676007826656
0.974830032751623
-0.405912979809207
0.127652960686268
0.938826429574546
-0.50595753766988
-0.365466172964611
0.463844124552706
-0.62848689072583
0.20368525917201
-0.716133944281421
-0.0699849403961182
0.0260016585160816
0.488610409471764
-0.0521083327406506
-0.00126479521724986
0.0269290736085774
-0.00307734450606863
0.023086151746855
0.276805982640605
0.00362402273058314
0.215761161476266
-0.719197292345603
0.342688922647048
0.0844962977716861
-0.114988211752682
-0.199886069049369
-2.34252093113964
-0.210535800260789
0.173752466919442
0.240031683215503
0.000465292509672283
-0.00243258704665979
-0.00266982323031583
0.00199821983596943
4.32455190824531e-05
0.000184443310867525
0.000390567222276206
-0.00152856972175247
-0.000493744038299621
-0.000895550666919617
0.27831001487662
0.386211849095372
-0.120774042141685
0.0385675442214999
-0.275226490699322
-0.0319359478632569
0.264372854839038
-0.440128852930546
-0.0262245783629132
-0.517403104615621
0.177541729045293
0.00660844957343567
-0.364856121831584
-0.658326534204596
0.289316230308752
1.03429027881565
-0.56481731218046
0.95877097983794
-0.293362825075698
0.982655649286583
-0.927982404743517
-0.32344110728776
0.236133924556375
-0.484461894928697
0.383519100365332
0.236967747275593
-0.36987981969302
0.518207680210228
-0.0423155638854942
0.65753392903096
0.869985648936424
-0.764418213903454
-0.45312152437571
0.267706895768056
-0.00235131906975879
0.488734619804194
0.0421909688383673
-0.0130726651686844
-0.403835548081707
-0.0358637742889871
0.574134102196997
-0.0848495095880155
0.523656803038097
0.114428015333875
-1.52824856840753
-0.00187844686390101
-0.219039120835286
-0.812936035896558
-0.58577608241313
0.91028202764668
-0.300876529649734
0.353577605556341
0.736200594199715
0.374564241304442
0.369953636278575
-0.00144745528311677
0.736983838033942
0.851971114095995
0.802276778561917
-1.07781145622197
0.0490204564900938
-0.474610398841277
0.113653876894472
0.105319259741101
-1.42265749060356
-0.000762272830503929
0.650664752079392
-0.0137884587263937
0.286251951828923
0.107607971781437
0.299507471856341
0.52619107802441
-0.652350846370761
0.557839953314423
-0.870316408436748
-0.00226321733978032
-0.766108286076569
-0.08897272303465
-0.216666146571737
0.114397200481224
-1.34336534991007
0.685188063980192
0.32957373975676
-0.324845700852384
-0.0682691839512308
0.00212672738947719
0.218836486992715
0.817728877672288
0.647096298585243
-0.828821086179783
-0.0292327179600979
1.76622763427245
0.0542889658068412
1.14246381403891
-1.79780054837533
1.66288082976055
0.0205608529435828
1.54622961846674
-0.714563507805242
-0.176984106372576
