0.642274154940055
-0.631682390254012
-0.00206360061429049
0.556488571297931
-0.546134861156461
-1.84837994042128e-05
-0.277656326234891
-0.289382965657739
-0.00939528539424141
0.48569651727005
0.484181995445503
0.00757580992080536
-0.508427405115836
0.546789930868651
0.00321476896463323
-0.484703162124193
0.436005224091712
0.00182050320447008
-0.828204463372154
-0.794267456638028
-0.00165361755436145
0.0173746769095139
0.0781428754679174
-0.00273087757539568
0.210434361384734
0.229985473556398
0.00382257797819365
-0.00186023480652631
0.00876969582848238
-0.000622208182384123
-0.316020163220162
-0.803880931803724
-0.0096228204720533
0.243088862559011
-0.158002923552136
0.00304806850643362
-0.0651972177503547
-0.0620224734798467
-0.00125659455342043
0.00481739963451284
0.00901420623739564
0.000441712659143995
0.235777222617201
0.229021315444859
0.0574658840067648
-0.327101964957105
-0.340082005080343
0.00527859100381382
0.0219011829993164
0.0234342138668575
-0.227305573019554
-0.0155527155857689
-0.0185149236362418
0.00090790681141732
0.457417666639726
0.448270561691218
0.0496746373323655
-0.357353577604532
-0.385644995528439
-0.00244654385367019
0.055038415742681
0.061381192277287
0.101247385453448
-0.142616650879565
-0.138522796572205
0.00111937866771305
0.111888073952036
-0.157981705596468
-0.00199698618078277
0.135038730182134
-0.101391645538764
-4.98149672918873e-05
0.479104520980823
1.26242571665315
0.00876854956005907
-0.358730767521418
0.286333201904361
-0.000148574803973079
-0.519939923357172
-0.188189822026331
-0.117412235436058
-0.111250230962849
0.196028204608142
0.00372522753757598
-0.172394278485914
-0.166739403377425
-0.0286827648200412
0.15493375373153
0.165627765355719
-0.00233371627026322
-0.196015719377159
-0.204685899054319
-0.024822998631084
0.365015889574085
0.364433692685984
0.00548534653066898
0.040665757178184
0.021611588887096
0.219242928657233
-0.183894878523962
-0.197991140932534
-0.0118931576872536
0.44173812136979
0.163647433334096
0.0390942759434908
-0.161857162628351
-0.415558671096931
0.00520829798907752
-0.0558615687648985
-0.492880330861086
-0.408226908760661
0.432159258194922
0.073574051167049
-0.00401801619553362
-0.00922277936776293
-0.0137686414077518
0.389457002104907
-0.00680391593607764
-0.003658313103209
-0.000346143032383269
0.281766265490676
0.0757159877525528
0.479508876278569
0.341503645810274
0.130139777245978
-0.437802087124606
-0.0364430944927607
-0.0764985103311247
-0.0251638798073968
0.228037084471063
0.0465934929246615
-0.38628700395974
-0.305194027781808
-0.0458618257795487
-0.0806112523705324
-0.0250408166768904
-0.0486110575999354
0.0782528847349788
-0.0259352468904715
-0.0208377992215377
-1.97128451595102e-33
-8.44716291371056e-33
-7.55488897920705e-33
-1.33352804410152e-32
-8.02729415827961e-33
8.52924848625549e-34
-7.29932943291097e-34
-1.86826266392704e-33
-1.40477130723932e-33
-6.81053517421678e-33
-1.9861471159503e-33
-4.16076720359735e-33
-7.08018136281426e-33
-2.88638221149023e-34
-1.59183703644348e-33
-1.88387545263107e-33
-1.09253929727965e-32
1.60257298766373e-33
-1.44844044818623e-33
-2.81897289968994e-33
0.106706903659876
0.862654869553163
-0.0951049050206451
0.294023348620868
-0.907962915069186
-0.411481891412418
0.0640884262531303
1.49691800423232
-0.455070519667396
0.630887616471299
-0.783578085759039
0.0100252179831587
0.546708804709888
-0.298619726848808
-0.0107594182209951
-1.17769334486879
-0.269255771551369
-0.827149484624407
0.455223584223664
0.596408256750942
-0.158523824264152
0.596104055961748
0.614320899660183
-0.284569178707892
0.122819648715235
0.0572929779223184
0.223900831270488
0.43771587639344
-1.13323888070655
0.462424438741525
-0.455822395695111
1.10220788991487
-0.280644422885314
-1.12066536590217
0.539925001561086
-0.660596541254708
-0.26967180170948
0.682033253300807
-0.0196205287899953
-0.147824365742342
-0.00636137049113464
-0.104779459170692
0.0226366733163403
-0.0261096798414014
0.150238015223656
-0.0963472534989544
-0.0681185665865651
-0.121135094244638
0.308230107616917
-0.217918501275908
0.754483028037146
-0.000832182668444527
0.115710813186906
0.182685428135635
-0.153508358666438
-0.280638249961394
-0.312527223629976
0.0556725596616629
0.307540252592255
0.32987780994309
-1.23221622607359
0.0975566871447924
-0.298399041568044
-1.0168420572764
0.0808717263237507
-0.50730466969248
-0.144318103982042
0.727554652613339
0.240113677985282
-0.804897929478515
-0.202940235940145
-0.106969389720322
-1.81231235306443
1.48060678713113
-0.382223343284888
-0.397612117406218
0.511960672015475
-0.775397623133223
0.838471112815873
1.04727511806583
-0.0247993531706774
-0.336528914498158
0.027057358498426
0.0730687392839012
-0.272367382168436
0.30847238096769
-0.272373651886007
-0.0757319070736222
-0.146522779248901
0.841193924039013
-0.259928341738682
0.10715534395115
-0.18247123194706
-0.651516190367936
0.991460817218511
-0.225449528749504
-0.332638655414725
-0.0633466195804704
-0.717044435708563
-0.658831191960739
-0.291543246117283
-0.0294466472151699
0.78134726448258
-0.042912014063209
0.271196118214535
0.390605214909496
0.454007491019788
0.0452739036307526
-0.00221387327644416
-0.000499768274501337
0.00926949815512759
-0.0759501536294313
0.0938275872225383
-0.413150931196464
-0.0284646703482596
-0.0102124959805388
-0.00897057165382582
0.00664786004615977
0.0928276714052799
-0.0244073329288926
-0.00508249721509429
-0.264703182292251
0.0125663456643411
-0.0349793523514904
0.132405392825457
-0.270782450347866
0.150063928137853
0.194020453273887
0.569473889423555
0.381145606937053
-0.112352695906584
0.0160844202793628
0.193986829921828
0.423373767229453
-0.528325507475354
0.303846866822463
-0.251137014023377
0.0209572063946229
0.64767853521068
0.866135880765723
-2.05551994427577e-29
2.66306702141114e-31
-3.78585526681003e-32
-4.76813297676156e-30
-3.30654635126897e-29
-1.01497300108905e-29
-2.26212948965039e-30
7.30539925259545e-33
-1.73434581624395e-33
-4.21901995631743e-32
-4.42412173835595e-29
-2.54432079955451e-34
-3.30453810361488e-32
-3.5263236374434e-29
-6.71228333498205e-33
-6.38974517728192e-33
-5.06010572044805e-30
3.64036263953792e-30
-4.61173327020684e-29
-9.29536298412636e-33
0.483395275390852
-0.0108332009110056
0.786577217554412
-0.0840606390516248
-0.0541698016383989
0.445393454213659
0.0467888447476716
0.0116253031291687
0.0132945461392996
-0.0513788452845021
-0.00229264521508448
0.179505517526437
-0.201727678136757
-0.558948405920407
-0.00998488902844997
0.0213318847313171
0.00833144962860013
-0.0172412549241152
0.130437196822236
-0.0342230687284274
0.00847372703187854
-0.942184838232856
-0.0675151793886617
0.0803573782893769
0.190168196730686
0.518769277730068
-0.532626654917206
-0.0393461450148427
-0.283505802365158
1.11459036294398
-0.203956777529223
-0.011096144936191
-0.271884803112825
-0.588114561216819
0.119398577039822
-0.230204756577797
-0.357724528231674
-0.19154998003076
-0.99525644126927
-0.911479744885586
-1.67638775289524e-28
-4.80108925810961e-27
-3.43661396337163e-28
1.04853247144968e-33
-7.30859921491789e-28
-1.46379290341585e-32
7.42178759797551e-32
-9.26801025031829e-27
-2.72166641608525e-27
-2.91803257464419e-32
-7.36034241133546e-32
-3.55672943445366e-27
-1.81199023832904e-26
-2.32582555554242e-29
-1.31804243426438e-32
-1.53841185873858e-27
-6.42565435424424e-27
6.75511315094414e-34
-4.14761118848914e-32
-2.01426513325153e-27
0.1338838933383
-0.329378136055844
0.0730421777429675
-0.439184574233703
0.299702027128467
0.190515899697214
0.253293263153363
0.373536617021875
0.191343096825402
0.162999694543849
-0.0958857719486414
0.230103126040656
0.409710830244963
0.0600363345278314
0.12023709049641
-0.278578831582319
-0.431447783038679
0.460896512899786
-0.183156678010993
0.131439372322063
0.236442854085161
0.0730222065689452
-0.299622556149547
1.13056492218783
-0.474295877192566
-0.420335284649362
0.628747473703102
-0.00166660569967932
0.235662719842136
0.173814998655936
-0.00677645008907813
-0.72022839745292
0.682992015135153
0.124974269318234
0.34909735806463
0.0850172478352587
-0.250211213038126
-0.105671854237874
-0.344815230817993
-0.161708457900762
3.19691399890458e-09
3.44192677650909e-10
-1.56515525671793e-08
-3.57091330886315e-09
-3.70479641950507e-08
-2.01798796811892e-08
-3.70975814751997e-10
-1.61093419853832e-08
-6.37696100754724e-10
-2.01941690758502e-08
1.11790280134657e-10
8.39287961607733e-11
-1.88579672940259e-08
-3.50422076565255e-08
-1.66322345894882e-10
-7.73836314646566e-09
8.44558288806107e-09
-3.40685886803294e-09
-3.13992632274717e-09
1.5980885217443e-09
-9.571123171792e-34
-3.40944705815806e-34
-1.30710257477878e-33
-1.82915668961668e-33
5.75905749845531e-34
-1.55534025599103e-33
2.83890367472372e-34
-2.09330587020236e-34
-9.7694798574593e-34
-4.76050762680253e-34
6.83700485207992e-35
-1.71302547324788e-33
-1.62166406284047e-33
1.3209196978483e-33
1.35602829875404e-33
-1.58585654741725e-33
1.19217350415348e-33
7.39293720947552e-35
6.31286370565653e-34
6.3133039722361e-34
0.0253324249163699
-0.054966483026339
-0.00665717328278424
-0.0517357704068351
0.00937912643983586
-0.147479750317423
0.0678777102834039
-0.23327214165899
0.0013256161331732
-0.0839400991316151
-0.6065091760935
-0.0758265743838839
0.12711324208622
0.0628836216124909
0.0460185180458683
-0.207467871783316
1.02879633728149
0.000705808238939704
0.140660320788472
-0.228412421612416
0.0145835761764981
0.178465415561052
-0.0193491764946883
-0.0240544754588052
-0.122912625555379
0.130937267424462
-0.162268434740261
-0.266115331995446
-0.603405563921819
0.345495916330684
0.950510996508852
0.00729711242719028
-0.0873275688503045
-0.180317568627755
0.198757509104884
0.137025907312741
0.327360605879668
-0.00363894046075366
-0.367590039953784
-0.650000826051737
-0.0102355656219671
-0.208789199911934
0.0040469752319165
0.0528340785567245
0.0722721629658511
0.379838408668329
0.10361902433004
0.0358642955040689
-0.598416038148619
0.463486424702519
0.250778479474944
-0.0236098923807564
-0.220222220878975
-0.422099896315269
0.178848255263971
-0.0367454418755996
-0.270228726492045
-0.0577518262476424
-0.70053803958329
-0.627648987782614
-0.263352781493133
1.27588684956765e-32
-0.00970079270743326
0.0106622390963434
0.0158948121428908
-0.0116353413553347
0.0180221786176075
-0.852207798539003
-0.0234419348478757
1.0218059968731e-29
0.937989502558532
0.00284086340622517
3.30737984888923e-28
0.0858888633454137
-0.0915375977776176
-7.09754468265125e-08
-1.74626783535531e-33
-0.00713162784931593
0.00729021908642786
-0.00555952502283651
0.0121496092293482
6.42570636254126e-33
2.34076193501157
1.05159579424117
-0.65893019589492
0.00730003588506472
1.56958245637568
0.00696478173670048
-0.628467016927987
-9.02302734169829e-30
-0.0292578996685066
2.30685667636592
5.42513713926863e-28
0.160211339665422
0.046310348726028
-4.0092982033762e-08
-1.43085234328509e-34
-0.457043127713489
-0.858261600661821
0.990316878625541
