-0.427053841366874
-0.535206897441907
0.0586365404028834
-0.192777093600715
-0.270033806126744
-0.00853525508737445
-0.0216645933573019
-0.0497688553654802
0.0802608825856242
-0.344542879068052
-0.36437050277312
-0.0117037692483143
0.807031833102012
0.830718391440391
0.0641022755058858
-0.608375143477888
-0.626053394565034
0.00259502006516664
0.104956214085173
0.0557722436251972
0.113492224921001
-0.497989561694044
-0.530746227177933
-0.00377013216378314
0.5856132421923
-0.590287834020829
0.0011290982047209
0.517139830362687
-0.498323741186228
-0.00165325404987185
0.398848486464797
0.431788026694618
0.0256609369945548
-0.187304893085031
-0.174096087716335
0.0042203746127339
0.699683212211025
0.768572547482142
0.0616871858163007
-0.352311777451454
-0.323992165101181
0.00453141827881204
0.192267840473052
0.214421186845873
-0.548028495900623
-0.150405143037289
-0.14655671193258
0.000474294824044036
0.208207697635901
-0.577242145305952
0.277579593683385
0.299967907510012
-0.017147260267581
-0.680076382981157
0.842078075127301
-0.0463115819565008
-0.587336316632441
-0.311473279051491
0.189952796883126
1.24841190540937
0.000734658516613576
0.0121398914999775
1.05124810287919
-0.892025696365294
-0.644545258049082
0.433225428671349
-1.61412912905033
0.731067662396778
0.0042086255612344
-0.121415818432661
0.598018497729708
-0.875455530528603
-0.0404824068701044
0.135752352467127
0.233309758236079
-0.0838301164731955
0.751936246191517
0.225452953995162
-0.180534047386988
0.0242020604595274
0.366096946240513
-0.645782072004292
0.451065359664733
-0.340631181294984
0.00623303925697236
-0.557681236058368
-0.170694102615213
0.494263390403791
-0.162061290546135
-0.353850220360821
0.674681596074868
0.283988202913801
0.796506424534117
-0.467922914991748
-0.248188318435019
0.0340748688277154
0.0914171384197941
-0.150352745471875
0.716303989360383
0.0738901469119018
0.781886337708984
0.3391927847864
-0.721373432474715
-0.0516084211279976
-0.827645137992856
0.158481479833261
-0.122123015359692
0.328129419687973
0.00377782529513723
0.719521050643181
0.190471234815033
0.89525911079623
1.84951526863954
-1.88654311659115
0.00890781249612984
-0.687795016518393
-0.0153723703822121
-0.00552393017896366
