-0.457451655389982
0.829903633595548
-0.157945053952407
-0.765770992080602
0.37980357973087
-0.0160306177005434
0.0763417918429973
0.0671990613226658
0.558298170330347
-0.198068092301155
-0.198040049342279
-0.00399451878199281
0.24135605596614
0.272942710783861
0.133359701645535
-0.590757623360291
-0.573184855017192
-0.0153341016956533
2.10586565740265
2.1160465664893
0.278417789487993
-1.61047175724644
-1.69742948046718
-0.00793778785889906
-0.654677584626315
-0.336862273109939
-0.475533413579275
0.511479492043434
0.825793561045803
0.00212552439984799
-0.284951533637717
0.303342467931683
0.386902985860332
-0.563981968386171
-0.0397151625540545
0.00743958497344163
0.818950062498364
-0.766982818376474
0.000718839854512467
0.701063639843055
-0.66863798252721
9.31704369124845e-06
0.936869767388807
0.926627954511163
0.0611384641976973
-0.301679102035455
-0.342475025456635
-0.0083915868470559
-0.0938542131104226
-0.699304416736362
-0.0934896045115278
0.273200120451056
0.209851960715041
1.27826535765824
-0.444722437343798
0.860135890170413
-0.541471147167474
0.00447106457785714
0.441050619364008
0.219262466132489
0.140241420195055
-0.215033269730826
0.115787656505171
0.658690182250639
-0.0210325282523624
-1.07180641847692
-1.01399684319201
0.852645844530494
-1.02889151607946
0.577999065497956
-0.0904820072546138
0.516737711822196
0.144196133865599
0.551907178505613
0.760514067641924
-0.221639764099807
0.976744290978249
0.192470109876776
-0.440009500278606
0.348010916712643
0.408090752606397
0.756271909363879
-0.0383507123738311
-0.599229118549411
0.670156440376763
-0.468999658756432
0.492319446234989
0.614524039173367
0.406644845852537
-0.00888744549025718
1.22162364085099
-0.426994348575478
1.29947294715953
-0.506129302752443
0.146744839980997
-0.146118624669437
-0.0019513169044687
1.3462959756378
