0.322291447113519
0.386573662703223
0.0175717081178371
-0.0259985522555981
0.0158602424020603
-0.00274083969441597
-0.874559243079084
-0.957744138265222
0.412258339483808
0.661536453756303
0.641370751782053
-0.00879253486148662
0.292433098937584
-0.272161017512266
0.000452414103287692
0.244354386776874
-0.244447062891743
-0.000385733828652759
-0.143066792075453
-0.149996730703352
-0.220246509230542
0.365672391892163
0.368450412460335
0.0150344378971572
1.07821118643919
1.15320415238338
0.087093912811433
-0.884010374793933
-0.874332038313505
0.00600125340838424
0.0869422175452834
-0.201725125980607
-0.00186290219606803
0.147802127041453
-0.103571950037943
-0.00389307378197374
0.368144788599178
-0.418028448095218
-0.00252641320972722
0.374986040602454
-0.301707117138579
-0.000575490531003184
-0.797297318754763
-0.879206603289005
0.409943577646588
0.632102166746614
0.614337408392788
-0.00074045031901349
0.196951776223454
-0.177659653620432
-0.00148496214720658
0.162917907273361
-0.163431210238959
0.00353029151503296
-0.350746804200513
-0.370180050766269
-0.00211260077018608
0.0597930636618031
0.0545273580629203
7.69937085676778e-05
-0.595353059887343
-0.0420011725998183
0.541964519689647
-0.0430619011553255
0.0197779984684294
0.384666429800852
0.733633631364999
0.0427423662235722
0.409760342126172
-0.438750972025388
0.126532246666429
-1.88087015465322
0.000264917646362222
-0.634709405691007
2.08124823129348
-0.071979030279759
-0.00588489255993329
1.90434952998659
0.0260482578831997
0.298566254359027
