-0.689478122373068
0.0435729419160109
0.0212249453145929
-0.936651846844166
-0.00550344873047586
1.4997979711226
0.00950207186641095
-1.55910801100699
1.03833724996751
-0.000377318547304396
0.182069825419262
-0.922515126229783
-0.101210769649976
0.245696394572782
0.000932914241840008
-0.487002841496875
-0.133995933538641
0.542353746652022
-0.902810900061572
-0.0084853724451555
-0.703726402022588
-0.010517670744998
0.502053751243596
-0.203127817197526
0.00300100815927647
-1.1688946540909
0.0123572237022272
0.992448720333903
-1.40676249170574
0.00010928190099613
-0.0767629740551097
-0.00175566417751025
-0.999189913029717
0.839886399365511
-0.00132842781173442
-0.118326089240123
-0.43768269127538
0.211999026584076
-0.00217407875414647
0.00258957989489169
0.973129550958167
-0.0221436483236133
-0.958158515046439
1.4397133039397
0.00191001217282576
0.51646033295486
0.0908264711290011
-0.749440744486426
0.590371857371705
-7.82645128571422e-05
0.691765071282403
0.0267485501248864
-0.986211432221218
0.539386464461752
-0.0017626040981113
0.49111093846789
0.00269127446194545
-1.1749231382915
0.853254693133674
0.000323445009741854
-1.13033527945623
2.70073532138026
-1.25110892906233
-1.13046005265866
-0.97267014393128
2.24273780865109
1.16145159113223
-0.685126062466968
-2.08626872317223
-1.26035902904915
-1.47477598476712
-1.60822880769303
