0.657461795550534
-0.299446300435117
-0.46865360764636
0.852972442502387
-0.000863847645808767
-0.682356931410961
0.281472977487952
0.504003758358327
-0.864623851025142
0.00129896796829182
-0.463692129385447
0.028219441329312
0.0653849647637515
-0.862317587653707
-0.00246056093203514
0.965207061607219
-0.150960667814321
-0.738455972843575
0.806949715106705
-0.000368256274906731
-0.988457500282475
0.215451351925975
0.54592553280676
-0.734608595539084
0.00109668571099632
-0.499109478124141
0.0297914355961686
-0.904036647959876
-1.21263377462649
0.00404335755946607
-0.196604319696654
0.00752723636992809
-0.63441716240822
0.868299032032308
6.30520876937815e-05
0.0897977055769457
0.504001561480619
-0.195185608827393
0.0259497863132273
-0.000892881646514191
0.812886631983492
0.0479884053279108
-1.44349762556821
-0.203681513823349
0.00357827924422836
-0.325749666842957
-0.00687396275619795
0.884397264973175
-0.857589244932631
-8.10120919721637e-05
-1.08268183387758
1.08676888533308
-0.337099508267282
-0.423057877462155
0.364238049975197
-1.11863595726987
0.874628657482262
-0.699037795941504
1.49461268506837
0.803011318390511
0.629615073859642
-0.658090321098489
0.801009072863955
-1.48425028630212
1.15123175718503
-1.09308875760011
0.408757131978287
-0.0939837530084665
1.13524302929671
0.868160502411688
2.70281516028775
-2.70434549157948
