-0.0681451721059486
0.121850814634644
-5.10478306742676
-0.00481301452670367
0.00579843595820165
-7.10607902269837
33.6840476485792
-0.157558078119409
-0.00671603241541215
0.0265398025878973
-0.611479997975874
0.389075363882978
-0.00737490178671072
-4.25622515005275e-05
7.89335879375004e-05
0.0225637719020014
36.5106619615457
-0.239852586882475
0.0709970472637265
0.0244717013715284
-13.6180916044113
-26.0640114079754
0.324485248487085
-0.0573728589554484
-0.0760755976579242
-2.41777776355864
-5.26653367035629
0.548733502267079
12.2397111962402
-0.614625791575132
-0.0436852411895115
0.103906909886406
1.02013012265566
-0.000611738333559727
1.87474715841126e-05
4.01499241209204
-23.1722950436387
4.42109696504976
0.031075230508505
-0.0554129689292462
7.77977104816339
-8.33762975238712
-0.0144106883545199
1.89787969618053e-05
-0.0010191335401068
-1.70749697903872
2.56600148044259
2.28721013874265
-0.00700922657357189
0.00723808134907124
-1.23129999512166
-0.000925805547983779
-1.50997900077482
-0.000353259241874822
-0.000213785148829668
0.00500579944598611
1.56361948670324
-0.000162244983523328
-0.0699416612296176
0.000871130553974396
