3.02220067148508e-06
-4.32851823017908e-07
-7.35835926101389e-07
-3.35030296481296e-07
1.38067809136965e-06
-9.75664434193371e-07
-2.39367062834001e-07
-2.89758807341573e-07
7.24966667622266e-07
-6.81575740487677e-07
-1.00231976877599e-06
-5.16016772986915e-06
-4.97069070496714e-06
-3.30786467794673e-06
3.74732384317624e-05
-6.97416774816121e-06
6.98648048042143e-06
2.98076527434352e-06
1.34034940721183e-06
-4.80391429669323e-06
4.13491296605045e-06
-4.491235209572e-06
-2.70999813251039e-08
5.01873725082189e-06
2.33456549842366e-06
2.22454436622156e-06
1.59452284331855e-06
-2.08781140364785e-05
9.89032961371829e-06
7.02162715532268e-06
4.06340553268499e-05
3.94295815506798e-07
1.27316940289676e-05
1.60484218413776e-05
-2.35326787311216e-06
9.93491319540766e-07
1.72840165019539e-05
-1.00850019054784e-05
3.1297543176854e-07
-1.23091142621636e-06
2.5231542053024e-05
-4.38438180229372e-05
-2.15561690613707e-05
2.15357146344359e-06
-1.26503550281768e-05
-2.11371479353388e-05
1.76972940701695e-06
1.25769431844449e-06
4.55361622912122e-06
-1.08282964161274e-05
2.17463628980664e-05
1.16315532715246e-05
-1.32241440149681e-06
-1.22023088879836e-06
3.82089307322085e-06
3.35595534231613e-06
3.50906057828692e-05
-6.45641908317973e-06
4.63237683814076e-05
-4.15266404677129e-07
0.000731389767996694
0.000416502835788406
0.000859230671746754
0.00171038184080202
-0.000134941938089169
0.00479220869173116
-0.00268531087486017
-0.00411767544052972
-0.00141977954013183
-0.000513828474015201
-0.245257168642808
