-0.601343531695603
30.7196653763972
0.0920597038426499
0.664360969916764
-0.146973377198755
-2.16538007814558
-2.94761119818298
0.281644975987074
8.4325065062882
2.64063165026896
6.02944544986457
-14.2510386718378
-0.204917666690402
-0.642194289006476
-1.63674210785983
2.70967996363921
-0.522530713926823
2.99536360204573
-4.50674566023472
0.867932403260365
0.726621158725564
-1.11654346464693
0.0174913171633259
-0.0467502675508787
0.0245624897058817
-2.79778849815006
27.3852670945932
0.211870815923453
0.740274347150885
-1.20546121269035
-2.31218713808693
-6.59966467805929
0.405505025333869
4.96841200006582
-1.39065374991319
0.594867487773945
6.82315083782741
-0.154460794948704
-1.74386310196676
0.596768704083671
-6.0954475845952
-35.6862997023983
1.14283197440522
5.73312685109039
-7.38158128576833
0.342648927847758
0.485297826837786
-0.848958233427382
-0.395730832566993
0.0749154180103686
-3.40791478477183
-2.19723372159488
0.352609444298921
8.94997590016513
-0.681170254404714
0.151438699804368
0.526237632251311
0.0633946339610066
0.3196433954938
-0.134141888114874
0.29312721241081
0.429040430123718
-0.81787797065598
-0.345282900301467
0.0658264436357332
1.01951169998494
-4.23274878271245
2.65710432715556
-1.5556882433086
0.308597399159185
0.989590112112241
26.2470427661177
0.0240930574517943
-1.56899412367652
0.688407406194153
3.04611615740222
1.12106076966281
-0.716874265330549
-0.661467988695831
0.528701670829014
-0.0418701747958816
-1.40507643883531
0.0724791561233741
0.191592285749265
-0.064901069892926
-2.49972769517371
19.3396859264311
-0.190065024482184
1.14002136138366
-0.544910695415758
-0.183618920040026
-3.25208447635658
-9.16784165070836
0.452917810574276
0.00114808332237019
-2.21463098572923
-2.01030302945095
0.278346236452412
28.8751561088342
-0.401134396723391
-0.00456850475788372
-0.140446688280992
0.0110136368813502
-0.00129193975124
1.06240828899854
-0.00979369838696077
0.0108371756191143
-0.0238215877568138
0.000619385804099115
5.29770866680306
0.0415671561157311
0.37428875254949
-15.4294670708856
-0.00292499912430442
-0.00530408643514072
-0.0492051755479545
-0.507021642303132
-0.0137032017317389
-0.00905541007257626
0.0650950667583267
