-0.000271191862967451
0.000421621197105496
-9.20757595422352e-05
-6.08821893455158e-05
7.51017118177429e-05
5.61432085035094e-05
-8.71943722961458e-05
1.8961381793604e-05
1.24796945575855e-05
-1.56226182424662e-05
8.78594038672062e-05
-0.000136479700408858
2.97034978980798e-05
1.95674101400971e-05
-2.4425406229813e-05
3.75340774230997e-05
-5.83148308526855e-05
1.2700297893793e-05
8.37265714296893e-06
-1.04266653109157e-05
-0.00013691687754401
0.00021279544923871
-4.64107887034283e-05
-3.06440704764405e-05
3.79729156515709e-05
0.00012782020647563
-0.000198509208329268
4.31639323747892e-05
2.84059572958554e-05
-3.55714765439015e-05
2.57957640864837e-05
-4.00819560846394e-05
8.73319614216449e-06
5.7601049250895e-06
-7.16231518150395e-06
3.71399028786558e-05
-5.76825193132399e-05
1.25451513662729e-05
8.25779492373492e-06
-1.03333513239217e-05
-8.08735254455295e-05
0.000125650499755506
-2.73665625340471e-05
-1.80423207679155e-05
2.24648214367873e-05
7.36514732785805e-05
-0.000114439985164968
2.49338534770186e-05
1.64449118935169e-05
-2.04504257356143e-05
-1.11875893855234e-05
-1.82392551542946e-06
5.2002779106909e-06
6.85010219130441e-06
-9.36192487021638e-06
8.15358332055473e-07
7.73397997572026e-06
-2.54616655153222e-06
-6.92797639613777e-06
7.63709355329619e-06
-5.75912379480576e-05
-9.37379798584192e-06
2.6764000758139e-05
3.5243080937547e-05
-4.81792964308995e-05
4.21381208653049e-06
3.97880216427525e-05
-1.30919704865631e-05
-3.56503150437263e-05
3.92969536893759e-05
-5.54743892462075e-05
-9.02542533960052e-06
2.57787891149293e-05
3.39427617288907e-05
-4.6404958741343e-05
4.06303203559266e-06
3.83193934536757e-05
-1.26069878937351e-05
-3.43365988437572e-05
3.7848291909905e-05
-3.69177069224477e-05
-6.00862908128647e-06
1.71564208588303e-05
2.25915337818645e-05
-3.08841219142124e-05
2.70144759684384e-06
2.55048894655281e-05
-8.39209672747344e-06
-2.28526882347861e-05
2.51902283052131e-05
0.000418205535187212
6.80216411138233e-05
-0.00019433182473417
-0.000255861032384739
0.000349817037460803
-3.064989207351e-05
-0.000288849035953078
9.50222524512733e-05
0.000258837719475073
-0.000285306760641911
-7.78346605005034e-05
-1.2664418406108e-05
3.61699567983227e-05
4.76255698717631e-05
-6.51105414449776e-05
5.69958592082256e-06
5.37666544273866e-05
-1.76895933688154e-05
-4.81777238778001e-05
5.31051250312031e-05
7.79718286093853e-05
1.26863245823915e-05
-3.62335450357533e-05
-4.77089825119177e-05
6.52249216850967e-05
-5.71006944504251e-06
-5.3860746176992e-05
1.77203679959946e-05
4.82622746239518e-05
-5.31982602552483e-05
3.32676248982933e-05
5.4158286560041e-06
-1.54606433491748e-05
-2.03595301082047e-05
2.78317438413171e-05
-2.43299017736764e-06
-2.29852622912002e-05
7.56362166968419e-06
2.05943366481224e-05
-2.27010827275098e-05
1.49604245942734e-05
2.43864901151359e-06
-6.95385596042155e-06
-9.15970931557282e-06
1.25187558839219e-05
-1.09072230286349e-06
-1.03415445337445e-05
3.40446331833214e-06
9.26400748605641e-06
-1.02121660205569e-05
-5.36108765740527e-05
-8.71465719597407e-06
2.4909907814798e-05
3.27928191640753e-05
-4.4839283584713e-05
3.93469032134743e-06
3.70199109225707e-05
-1.21760082139791e-05
-3.31765590720585e-05
3.65684279632924e-05
4.61538343834106e-05
7.52032976614431e-06
-2.1451891223668e-05
-2.82543729805014e-05
3.86183784997825e-05
-3.3682192023079e-06
-3.18993969078624e-05
1.0499980418619e-05
2.85773719418633e-05
-3.15017897892112e-05
-5.0121259590365e-05
-8.14322100371528e-06
2.32868856534134e-05
3.06528991304491e-05
-4.19168574434417e-05
3.68308435170161e-06
3.4603463326237e-05
-1.13793373348035e-05
-3.10133969006431e-05
3.41834619536014e-05
-3.0271601736756e-07
-5.00046448327984e-08
1.40962124636399e-07
1.86197811801879e-07
-2.53912139472134e-07
2.13703972526153e-08
2.10325829570135e-07
-6.95335030335213e-08
-1.88033380868374e-07
2.07382186297929e-07
5.60099127042066e-05
9.09355343543848e-06
-2.6020360424049e-05
-3.42460434641569e-05
4.68358391291085e-05
-4.12268623501549e-06
-3.86586361383215e-05
1.27099465353841e-05
3.46515310072921e-05
-3.81924865828593e-05
2.60531291959157e-05
4.2348069380136e-06
-1.21053108289135e-05
-1.59359322894534e-05
2.1790201156325e-05
-1.91238604636856e-06
-1.79900775093976e-05
5.91691178855041e-06
1.61225119720475e-05
-1.77707840273641e-05
2.48246880870959e-05
4.03256322808549e-06
-1.15335397399787e-05
-1.51812347503404e-05
2.07604635524548e-05
-1.8249773587962e-06
-1.71376835814458e-05
5.63539253928529e-06
1.5360074927137e-05
-1.69300124789381e-05
1.77971770393033e-05
2.90055509425476e-06
-8.2722212983846e-06
-1.08959015939871e-05
1.48920700627022e-05
-1.29808450265276e-06
-1.23016722281585e-05
4.04950685725756e-06
1.1020175677516e-05
-1.21480057023034e-05
-0.000233014647477926
-3.78855185749882e-05
0.000108271696769829
0.000142541238716467
-0.000194897014866443
1.70931254336879e-05
0.000160916588356473
-5.29298553348312e-05
-0.000144205823144693
0.00015895021478652
0.000110387724353934
1.79343088220793e-05
-5.12871689115103e-05
-6.75098123084695e-05
9.23178590388068e-05
-8.1121129392168e-06
-7.62104452114663e-05
2.50615738642914e-05
6.83039508136405e-05
-7.52856421141904e-05
7.83629725263546e-05
1.27480062358969e-05
-3.64145528158823e-05
-4.7945797940242e-05
6.5550356931016e-05
-5.74081571127984e-06
-5.41277750867614e-05
1.78073283738006e-05
4.85026771060659e-05
-5.34629466378128e-05
0.000453488842469037
7.37652295188985e-05
-0.000210729089033156
-0.000277453667673914
0.000379334793159664
-3.32307395345315e-05
-0.0003132263631507
0.000103043775769747
0.000280679550614765
-0.000309382888102401
4.39839451523176e-06
7.09651347986394e-07
-2.04163034858555e-06
-2.68357699857258e-06
3.67394468267458e-06
-3.28517836720946e-07
-3.02861407398757e-06
9.9369875069318e-07
2.71725492961578e-06
-2.9942386943711e-06
0.000142086508786245
2.31083682647629e-05
-6.60239479002572e-05
-8.69267135456168e-05
0.000118849374161476
-1.04157334678558e-05
-9.81337527435095e-05
3.22819279531216e-05
8.79389534012045e-05
-9.69313493072843e-05
0.000179106440367439
2.91205275944498e-05
-8.32228649129416e-05
-0.000109563990105998
0.000149807244022556
-1.31387322861542e-05
-0.000123688139593206
4.06843403640134e-05
0.000110843522839664
-0.0001221767577835
-2.62624114112379e-05
-4.27096772982734e-06
1.22033764907033e-05
1.60666955155506e-05
-2.19671862307572e-05
1.92544774465119e-06
1.81380541700512e-05
-5.96654810431889e-06
-1.62538888221929e-05
1.79159339727583e-05
1.108613000468e-05
1.79886296208868e-06
-5.14984570173247e-06
-6.77704849621173e-06
9.26936297003945e-06
-8.17117451586287e-07
-7.65009373141661e-06
2.51468220320477e-06
6.85772611745179e-06
-7.55834711953652e-06
0.000192904955862022
3.13869891761114e-05
-8.96432430407075e-05
-0.000118034394667991
0.000161369198963208
-1.41262604351593e-05
-0.000133254282705963
4.38413699603142e-05
0.000119403010550543
-0.000131614963724599
-0.000112548948026836
-1.83016412374796e-05
5.22975070095798e-05
6.88523456211216e-05
-9.41398711928771e-05
8.25352841746403e-06
7.77286856766687e-05
-2.55682092039447e-05
-6.96553365518127e-05
7.6777668318204e-05
3.49133516486353e-06
5.63658960867942e-07
-1.62073371575181e-06
-2.13061657760585e-06
2.91659967450184e-06
-2.60385425002977e-07
-2.40461199015364e-06
7.89130281353368e-07
2.15720326369887e-06
-2.37715155868885e-06
-1.37334041724552e-05
-2.21941886336644e-06
6.37614038052621e-06
8.38379744562108e-06
-1.14747138477565e-05
1.02191385771945e-06
9.46233887936208e-06
-3.10629368147064e-06
-8.4874672925644e-06
9.35318665742468e-06
0.000281617055553659
4.57862405947071e-05
-0.000130854536095523
-0.000172270745032644
0.000235547483008181
-2.06599866612676e-05
-0.000194478354866073
6.39685675237903e-05
0.000174283121938709
-0.000192102556808668
-0.0004894917695189
-7.95826908927167e-05
0.000227444195299373
0.000299431156912175
-0.000409415628560466
3.5910679746713e-05
0.000338031051081496
-0.00011118623955975
-0.000302929192682454
0.00033390186009603
-0.000240620656991526
-3.9111259025624e-05
0.000111801687588914
0.000147180047223375
-0.000201248986457698
1.76627892771704e-05
0.000166151586693182
-5.46468276116717e-05
-0.000148903463374995
0.000164126480857468
2.40311874672335e-05
3.89371476163382e-06
-1.1161066047728e-05
-1.46832196459826e-05
2.00879351127926e-05
-1.77733496711189e-06
-1.65738454665956e-05
5.44544959296439e-06
1.4860450598251e-05
-1.63777913246214e-05
-0.000141179027580345
-2.29568818308537e-05
6.5600770492476e-05
8.63665312039263e-05
-0.00011808680288523
1.03533936936866e-05
9.75007206437769e-05
-3.20719148752324e-05
-8.7373921991819e-05
9.63079367854479e-05
-0.000235934800049957
-3.83511300633464e-05
0.000109625042842611
0.000144315814099746
-0.000197331230851256
1.73171886467746e-05
0.000162918399132112
-5.35841324633157e-05
-0.000146005035553768
0.000160931975349713
1.97510474434e-05
3.21415075253242e-06
-9.17855227362265e-06
-1.20859100594271e-05
1.65226448614138e-05
-1.44579791213132e-06
-1.36443976255483e-05
4.48931992242985e-06
1.22258222178086e-05
-1.34762993913794e-05
1.40333664686606e-05
2.27344909671892e-06
-6.5175435033087e-06
-8.57403675767835e-06
1.1730331052855e-05
-1.03827196918467e-06
-9.67797325639007e-06
3.1796065574055e-06
8.67767948575121e-06
-9.56366565006402e-06
5.08178412253124e-05
8.26215564047537e-06
-2.36127302996194e-05
-3.10863096973842e-05
4.25046041761745e-05
-3.72806706787311e-06
-3.50936863883118e-05
1.15431625067525e-05
3.14494362616608e-05
-3.46649625441525e-05
-0.000120845104268299
-1.96474840855836e-05
5.61512281479863e-05
7.39234614290634e-05
-0.000101076193559118
8.86537386495813e-06
8.34529890698948e-05
-2.74497398019359e-05
-7.47869644918523e-05
8.2433499692063e-05
0.000242707816374753
3.94872622712233e-05
-0.000112785561386485
-0.000148503843104736
0.000203027662854251
-1.77765264705587e-05
-0.000167652068305233
5.51570628784113e-05
0.000150227026018224
-0.000165591034574276
0.000129827487072826
2.10937099558094e-05
-6.03194900272762e-05
-7.93999838195455e-05
0.000108576425593603
-9.53954851364448e-06
-8.96331934236781e-05
2.94760905617546e-05
8.03335175277569e-05
-8.85449837239429e-05
-1.47564938520993e-05
-2.39436976400963e-06
6.85482531438545e-06
9.02069168499058e-06
-1.23381765099212e-05
1.08770654571612e-06
1.01827695393731e-05
-3.34717501048295e-06
-9.12811372000093e-06
1.00606791049664e-05
-1.36167083225848e-05
-2.21115732657235e-06
6.3260219224044e-06
8.32615264637906e-06
-1.13867317989261e-05
1.00183843145018e-06
9.39904404523944e-06
-3.0903491403296e-06
-8.42457011947906e-06
9.28551948235355e-06
4.26401647537948e-05
6.93001039465794e-06
-1.98119448715321e-05
-2.60805398877956e-05
3.5662375163276e-05
-3.13093235301517e-06
-2.94421751684346e-05
9.68306284240074e-06
2.63862914583585e-05
-2.90837411963312e-05
3.74515696422693e-05
6.08721142147131e-06
-1.74013372840735e-05
-2.29075688144351e-05
3.13232829171269e-05
-2.74944454043639e-06
-2.58603252608522e-05
8.5052596123459e-06
2.31759395702862e-05
-2.55452673706402e-05
0.000391640842152412
6.36854142144526e-05
-0.000181981814084244
-0.000239588758448554
0.000327582558088073
-2.87196044900071e-05
-0.000270476224731149
8.89711561331318e-05
0.000242382755828212
-0.000267166694451167
-7.20619671959301e-05
-1.17322633295336e-05
3.34901068173763e-05
4.41025070960464e-05
-6.02879585645229e-05
5.26922333700733e-06
4.97904818496344e-05
-1.63846494311237e-05
-4.46107628053135e-05
4.91744592003597e-05
0.000517209318986134
8.40886648621189e-05
-0.000240323108234573
-0.000316385979120709
0.000432598494899917
-3.79445640442478e-05
-0.000357171466655232
0.000117481781350585
0.000320082252527069
-0.000352808658869274
-4.63327921921327e-06
-7.50487489343588e-07
2.15178877114962e-06
2.83067516410775e-06
-3.87280378023598e-06
3.42917091125552e-07
3.19511468283259e-06
-1.04966962151745e-06
-2.86493700384251e-06
3.157425138763e-06
2.76699761548584e-05
4.32608350871935e-05
1.69735163441734e-05
2.60708859735168e-05
-8.12925880561057e-06
3.06908646115236e-05
-2.81134128762876e-05
-3.17162350680378e-05
-3.46471689390406e-05
-3.2615485201418e-05
-8.72635168364919e-05
-5.76413154134154e-05
4.9340342139575e-06
0.00010578568680271
1.73852347061948e-05
3.31943766029901e-05
-3.7991954388669e-05
-8.98782372068644e-05
0.00012963609152825
-1.55610686211167e-05
-3.92125455496799e-05
3.70630856348796e-05
1.13401514123745e-05
6.9898293001681e-05
-3.69474457611491e-06
2.76028645428046e-05
-7.32980778918156e-05
-2.74327213570586e-05
2.71088735738728e-05
-9.24265222092387e-05
0.000118066834410345
-0.000208691063390935
-0.000163277710108384
9.64384252206042e-05
-3.64524656043055e-05
-0.000150299582207077
-1.07917635467131e-05
5.85929915815707e-05
2.1119293647698e-05
-5.02838252063754e-05
-7.27240506454079e-05
0.000145476669185901
-3.71291022285608e-05
-2.30865426696267e-05
3.4483021225888e-05
2.72492188852582e-05
9.22832008129553e-05
7.441732070904e-05
0.000223183327754332
-2.00691679598015e-05
1.57575708097774e-05
2.46366791324237e-05
9.66659397794008e-06
1.48471728501755e-05
-4.63349306899872e-06
1.74785468196514e-05
-1.60107456479906e-05
-1.80620422633656e-05
-1.97309677681526e-05
-1.8573302545479e-05
-4.96951492444837e-05
-3.28250038431998e-05
2.80982738394179e-06
6.02421305668937e-05
9.90026041851421e-06
1.89032381614397e-05
-2.16357760290185e-05
-5.11814659977554e-05
7.38239062429756e-05
-8.86245894833713e-06
-2.23351058975718e-05
2.11065851672553e-05
6.45659654654101e-06
3.98038444599301e-05
-2.10381596237333e-06
1.5719134574577e-05
-4.17435535100763e-05
-1.56212602326466e-05
1.54378862706904e-05
-5.26347880446802e-05
6.72338012924937e-05
-0.000118840338241208
-9.29808176153375e-05
5.49193782134781e-05
-2.07575233097087e-05
-8.55900950310003e-05
-6.1458727322108e-06
3.33673085087726e-05
1.20264975935028e-05
-2.86343837561489e-05
-4.14171420485901e-05
8.28445742805665e-05
-2.11440852380932e-05
-1.31471604783134e-05
1.96369307996674e-05
1.55174865756195e-05
5.25495030886042e-05
4.2379770755098e-05
0.000127093101646122
-1.14289202476151e-05
3.25065454262354e-05
5.08224228541584e-05
1.99401641305207e-05
3.06278205446926e-05
-9.54826263544232e-06
3.60551629796881e-05
-3.30271781635984e-05
-3.72599738741813e-05
-4.07033145771062e-05
-3.83168214345094e-05
-0.000102516695229088
-6.77170911296356e-05
5.79649088326887e-06
0.000124276980048489
2.04242485974815e-05
3.89967799399294e-05
-4.46327561905966e-05
-0.000105589792922997
0.000152296613495229
-1.828071900211e-05
-4.60646445780031e-05
4.35416270292797e-05
1.33230331701846e-05
8.2117146206669e-05
-4.34070382280424e-06
3.2427807310526e-05
-8.61094513253808e-05
-3.22284086460077e-05
3.18474412792793e-05
-0.000108582461187385
0.000138705885831615
-0.000245171938560661
-0.000191819299355737
0.000113295701044811
-4.28249185192826e-05
-0.000176572614585817
-1.26780287622637e-05
6.88349447463519e-05
2.48111164841154e-05
-5.90738580092395e-05
-8.54348510481964e-05
0.000170906168022619
-4.36192162871541e-05
-2.71220574321171e-05
4.05107424106527e-05
3.20124689277375e-05
0.000108415867110939
8.74249034524321e-05
0.000262197532727389
-2.35772127653605e-05
6.47098476536203e-05
0.000101171485417666
3.96952329218558e-05
6.09704156632425e-05
-1.90152188167497e-05
7.17752045108694e-05
-6.57475065345526e-05
-7.4172742825797e-05
-8.10269368230556e-05
-7.62749427651381e-05
-0.000204077221394009
-0.000134801053820755
1.15388671905456e-05
0.000247392706868684
4.06573261419339e-05
7.76290222550011e-05
-8.8849168401906e-05
-0.000210189466426867
0.000303169399411902
-3.63922574914576e-05
-9.1707756323214e-05
8.66766780558837e-05
2.65190466602596e-05
0.000163464341567924
-8.64038323119837e-06
6.45526903814475e-05
-0.000171418650011508
-6.4153843625289e-05
6.33974973089288e-05
-0.000216150998291198
0.000276111614349631
-0.000488045909359586
-0.000381843359319779
0.000225533259286833
-8.52473902464597e-05
-0.000351492407056784
-2.52380856401091e-05
0.000137027000794639
4.93896668958199e-05
-0.000117593959313126
-0.000170076681880363
0.000340214397437201
-8.68309674649513e-05
-5.39906732362195e-05
8.06425096302428e-05
6.37253976866553e-05
0.000215812286498969
0.000174035010406534
0.000521937641771631
-4.69342489509544e-05
-5.10492487339165e-06
-7.98123509176583e-06
-3.13138165338564e-06
-4.80983700054269e-06
1.49878644383736e-06
-5.66209890311298e-06
5.18657300290793e-06
5.85138275726822e-06
6.39216695399339e-06
6.01749908384702e-06
1.60995081993226e-05
1.06346159109606e-05
-9.10303575099648e-07
-1.95169929978388e-05
-3.20754033182206e-06
-6.12423391377601e-06
7.00925617954869e-06
1.65825857579054e-05
-2.39173890771678e-05
2.87073613641782e-06
7.2333953984793e-06
-6.83793939703997e-06
-2.09253662365085e-06
-1.28962688891375e-05
6.81725891457832e-07
-5.09259796899704e-06
1.35226121037078e-05
5.06145181571842e-06
-5.00144272244326e-06
1.70521991173029e-05
-2.17833400586939e-05
3.85034955181203e-05
3.01243902173457e-05
-1.77923963605228e-05
6.72561275945624e-06
2.77299860687269e-05
1.99096907786141e-06
-1.08101081593523e-05
-3.89650963010641e-06
9.27737301983778e-06
1.34165814212003e-05
-2.68399278058077e-05
6.85014211339923e-06
4.25936689193694e-06
-6.36202116517551e-06
-5.02741553885341e-06
-1.70266697781149e-05
-1.37293958193984e-05
-4.11773046878164e-05
3.70265587745319e-06
0.000181312951631585
0.000283478800139148
0.000111226688854926
0.000170837007352343
-5.33062421554506e-05
0.000201113869357817
-0.000184224711672148
-0.000207828713550746
-0.000227032485053961
-0.000213713317628573
-0.000571812401679503
-0.000377699482363687
3.23310957389568e-05
0.00069317266185093
0.000113917188056637
0.000217509247879667
-0.000248950025242736
-0.000588920479294539
0.00084945133153854
-0.000101973479744494
-0.000256987687205812
0.000242861429417405
7.42952275794628e-05
0.000458003555520876
-2.42080424655709e-05
0.000180871169104759
-0.000480314923995759
-0.000179747108473045
0.000177634933039843
-0.000605638369486548
0.000773626341454385
-0.00136743730240493
-0.00106988159390815
0.000631926148480084
-0.000238847848164541
-0.000984840762932812
-7.07165166679323e-05
0.000383938733127599
0.000138382934098108
-0.000329481881270802
-0.000476558048710427
0.000953247462567404
-0.000243293033460134
-0.00015127701399755
0.000225951633367287
0.000178551464052852
0.000604664938891502
0.000487637997043053
0.0014623976646307
-0.000131506006385594
-0.000101597863243435
-0.000158845127283529
-6.23242513842065e-05
-9.57271277296401e-05
2.98605707744733e-05
-0.000112691747009138
0.000103227959580732
0.00011645539317677
0.000127216577408602
0.000119754771927118
0.000320412219303855
0.000211643871386184
-1.81166453980725e-05
-0.000388418409393821
-6.38337469020387e-05
-0.000121881203549337
0.000139497987742269
0.000330005011477861
-0.000475989893315993
5.71387282064466e-05
0.000143992032485733
-0.000136086763558703
-4.16342715328916e-05
-0.000256644882700409
1.35655179499405e-05
-0.000101350816045915
0.0002691386372516
0.000100723242556505
-9.95372784235594e-05
0.000339367880418394
-0.000433505431841584
0.000766250229803916
0.000599510229743163
-0.000354098400233549
0.000133840829696945
0.000551857759961162
3.96253076576316e-05
-0.000215139203597141
-7.75435616794079e-05
0.000184626883491328
0.000267032338634888
-0.000534152171927006
0.000136328794357542
8.47678786325746e-05
-0.000126612222963828
-0.000100051572032719
-0.000338830920337858
-0.000273244772549772
-0.000819461572243703
7.36890531037496e-05
-0.000155790752846448
-0.000243575255027584
-9.55698844072805e-05
-0.000146789339475916
4.58011663458683e-05
-0.000172804188436178
0.000158292401054345
0.000178573994074963
0.000195074648392704
0.000183630581925431
0.000491322176855144
0.000324533524682692
-2.77800620264312e-05
-0.000595599755706393
-9.78819396986645e-05
-0.000186892064780912
0.000213906989307171
0.000506023082718826
-0.000729880369204158
8.76191040293978e-05
0.000220811659362426
-0.000208675519083968
-6.38377309045945e-05
-0.000393534234731656
2.08005286545678e-05
-0.000155411240297222
0.000412703618556985
0.000154445776046178
-0.000152630502482672
0.000520386903887725
-0.000664729365187243
0.00117495443856251
0.000919282662749876
-0.000542974377714171
0.000205227410103247
0.000846212421330501
6.07621803046974e-05
-0.000329894386556031
-0.000118903919724701
0.000283103435773923
0.000409475398254166
-0.000819065903496435
0.000209046421827355
0.000129982856171528
-0.000194146153199541
-0.000153418161764505
-0.000519551884417767
-0.000418996323951457
-0.00125654799152173
0.000112994842404628
-5.37152083674296e-05
-8.39832365927388e-05
-3.29524853088668e-05
-5.06120848698197e-05
1.57993358413287e-05
-5.95824729565902e-05
5.4578960348817e-05
6.15710333352577e-05
6.72599560067764e-05
6.33129163448698e-05
0.000169403593588011
0.000111894884256821
-9.57830524507195e-06
-0.000205355590201429
-3.37482272026077e-05
-6.44380051762838e-05
7.375324671402e-05
0.00017446726667562
-0.000251653160611721
3.02115496071796e-05
7.61417824458218e-05
-7.19490906079178e-05
-2.20079959364396e-05
-0.000135683254327212
7.17135345322976e-06
-5.35839519012647e-05
0.000142299412723829
5.32492364181997e-05
-5.26253648403923e-05
0.000179423742051382
-0.000229186658536871
0.000405103167233763
0.000316954724678225
-0.00018721147944243
7.07577105140278e-05
0.000291760958594823
2.09505040831881e-05
-0.000113743913291575
-4.09958880691276e-05
9.76089455084358e-05
0.000141187231408555
-0.000282403045981127
7.20767385316647e-05
4.48164631947114e-05
-6.69387742206123e-05
-5.28962794092589e-05
-0.000179128967893995
-0.000144466858945217
-0.000433235273904883
3.89593400821549e-05
-1.94389880725085e-05
-3.03919647493982e-05
-1.19243182760308e-05
-1.83155347098929e-05
5.71033488268964e-06
-2.15611385848355e-05
1.97504018559912e-05
2.22815711135052e-05
2.43406744632373e-05
2.29134718403674e-05
6.1305220571769e-05
4.04948867185022e-05
-3.46631071841812e-06
-7.43177933623154e-05
-1.22137073107925e-05
-2.33201155141664e-05
2.66904865828597e-05
6.31426268707065e-05
-9.10735300599446e-05
1.09319893967873e-05
2.75472352839004e-05
-2.60379656812713e-05
-7.96704548909123e-06
-4.910600743341e-05
2.59571837241484e-06
-1.93918759824814e-05
5.14938208280354e-05
1.92725238729058e-05
-1.90448224595352e-05
6.49324923449286e-05
-8.29460626614425e-05
0.00014661273025035
0.000114708024466248
-6.77510024282963e-05
2.56092235285828e-05
0.000105590481772274
7.58150817568144e-06
-4.11634040187776e-05
-1.48370381585808e-05
3.53261394852427e-05
5.10904626931703e-05
-0.000102202053067712
2.60843586543094e-05
1.62190282260181e-05
-2.42254517775272e-05
-1.91434771702214e-05
-6.48324603272087e-05
-5.2280330987721e-05
-0.000156794035937129
1.4099213712274e-05
-0.00133925995455832
-0.000137991935069571
-0.00187655511543367
-0.00252797271110792
0.000403324974404994
-0.00292055611602663
0.00309227682734024
0.00274515104915284
-0.000221577309634089
0.00105181080703198
