-1.69191277984655
-1.34450856767057
0.229725087432237
6.47293677273945
2.50138617148864
-0.0142367867200582
0.22453889183864
-0.01916742663931
-0.0838044755887855
0.0538169746891395
-0.486745574384782
-0.296365767314607
0.0467513510616674
0.25697586902957
-0.166845087897526
-0.968385963013871
-0.636057479965965
0.125759095656552
12.724277914508
-0.148149919143743
0.966773314393907
0.628699069702438
-0.125649620907706
-12.872164490734
0.146595735263202
0.085370462753474
0.0621497688302243
-1.38922820601628
-0.00114181219876746
0.0407303974230677
2.40147269955792
-2.11274779049764
0.0326620546995052
-0.127119083635626
0.0783203117686629
-1.99439055471075
-0.234675531072698
0.177608233911001
0.977217222226731
-1.10379624630188
-0.826569791929677
-0.9351238760268
4.44241097888429
1.81017962035965
-0.211942509955315
-2.23590376809183
-0.716510311460111
0.19123772194089
1.04903963929146
-0.552269594542652
-0.189319490823096
-4.991991624297
-1.6097138531649
2.86544679501532
2.71750802402665
-4.05319978102077
-0.0884462548497595
-0.089752662514618
0.635077355661138
-0.0706105444543376
