-0.418765102829786
-0.173597902824222
0.0558030877700262
-0.182573707068193
-0.208944607098185
0.307933457161895
-0.115586284425449
0.200578232144893
0.0540318025032527
-0.0983747515868135
0.169675479046609
0.0747418562079001
0.253853389974309
-0.704701105363276
0.102114936792084
0.306788963146278
0.0323549429821681
-0.433045361763743
-0.531800045268437
0.349612585712745
-0.254352662415738
0.550478344100889
0.0413282048940337
-0.176410562187078
-0.144867629231093
-0.635783797286839
-0.786495853419986
0.025597985488118
0.447102680635121
-0.266034395292076
-0.0915990163347744
-0.124814497237512
-0.211690118106837
-0.176085232771987
0.171913456963083
-0.0441528250484454
-0.115679072632311
0.0296535922124339
0.193082898808281
-0.0233160206167865
-0.061485334037688
-0.0200582059427319
-0.0659822483819015
-0.0435303219596318
0.133061437788593
0.309422599151077
0.000188222739581555
-0.189681871815796
-0.209416121748276
0.652465478026535
-0.346080172384456
0.398832221676741
0.406769970567654
0.474694811077638
-0.386299603820956
0.103781163370463
-0.145023384150495
-0.113688030258455
-0.136261275175014
0.0695750134621593
0.0404908146989914
-0.0156229485478998
-0.0169433804329825
0.0284199352451898
0.058493914084699
-0.0784820081619036
0.000382221213701763
-0.0344894019447517
0.0129510290636654
0.100884488860731
-0.475355282017507
0.230283267331465
0.198238814193392
0.371582351416609
-0.495306418810454
0.29437640279823
0.035378672372298
0.217342715894874
-0.063066911489942
-0.126397789480636
-0.0553161513367167
0.0203075952929317
0.0269725827223951
-0.0359632099340272
-0.0768593244480482
0.106110540678474
-0.000467943109079365
0.046142752278027
-0.0178581508492996
-0.137780705985751
0.0584510994893113
-0.0205142617777511
-0.0425668629991883
0.055569279829687
0.0864863072919194
-0.147885840179861
0.00288149280577512
-0.069779303934487
0.01744418125714
0.183671159415039
0.0599596949723357
-0.0231343172210377
-0.0392049905715256
0.0468503234225718
0.0964690810044672
-0.141014826526976
0.0136875842206481
-0.0807564012097739
0.0144044962143743
0.16587836642044
0.0129880746888137
-0.00174616700312986
0.0087156673482906
0.0137462319161574
0.0256227323276898
-0.0245792477259149
-0.00860291329048619
0.000653476237200852
0.0105692496983134
0.0468110311612849
-0.18160090060241
0.0674469330855344
0.0783340244189474
0.0420247384239672
-0.196687019314749
0.103853508115054
-0.00958521308423197
0.0643778116271033
-0.0660601951608797
-0.308216299464823
0.254583445350657
-0.116379780107809
-0.0828882141374934
-0.152230670244457
0.289966090238707
-0.00651313315284809
0.0288474660249905
-0.0730237016587563
0.0966800801532848
0.446855515940575
-0.0429755929362231
0.013489532329442
0.0126741647242931
-0.029194166980036
-0.0585462059305175
0.0822147236784869
-0.000522150358404353
0.0238337465648888
-0.0180874610307925
-0.102989005968614
-0.000356358654250392
-0.00016702477054764
-0.00015592391229867
0.000244674634430695
-0.000176322285099953
0.000268754520735779
-0.000974959479068666
0.000879341921914099
-0.000195084543334165
0.000603878303498649
0.0559751386318237
-0.0792802679202046
0.254290114998027
0.109041063165045
-0.15200476781197
-0.144185111736407
-0.035606019990519
0.204288338454568
-0.247846759343644
0.0824834713317558
-0.000156257299800451
0.0010058643063726
-0.00493247404521774
-0.00116820542499817
0.00278691011210479
0.0051979018989865
-0.00536386089357182
0.00120812366500643
0.00398407021347764
0.00172100346906875
-0.0298572892872021
-0.0519304003088816
0.112865636240673
0.070889216916545
-0.100774581771018
-0.091981785832027
-0.0240480847388852
0.1148097555562
-0.132393975728827
0.053427918557537
0.0082371948033104
0.010015767422899
-0.0185904729761806
-0.0136389458494992
0.0192685301091361
0.017124686774588
0.0055456610457624
-0.0217513301227393
0.0242610968182614
-0.0105818992758013
-0.690214089784615
0.0895562828678958
-0.693085904526982
-0.124419302048371
0.148279705684965
0.151303755061756
0.0408977681727522
-0.393573559601676
0.557493284138624
-0.0949626524000784
-0.00369192179632154
-0.0036810874074855
0.00225360416069988
0.00576970710574907
-0.00674144360051013
-0.00290928828041115
-0.00955677883478016
0.0131894946134875
-0.00826923174133372
0.00769084250142296
-0.146915965426145
0.084772435454511
-0.341121086260526
-0.115921343880653
0.160584962870283
0.154892998663106
0.0321048386314603
-0.246701986323595
0.318103438674634
-0.088872605794347
-0.00180116477540174
-0.00234403197493436
0.00462729380804201
0.00318186943058697
-0.00459829412135406
-0.00435020306993378
-0.000751187360270212
0.00476766585529436
-0.00580468220337213
0.00221140083537848
-0.00194666191468481
-0.00251817495761796
0.0049438527257653
0.00341891571935505
-0.00493073395066151
-0.00464096787436161
-0.000857985573736931
0.0051509263061227
-0.00622320531002265
0.00240027091862513
0.000418642698626548
0.467387123276623
-0.0078561384278213
0.273840728646688
-0.0506091182466412
-0.864737891697207
0.016644939703738
-0.552766601818177
0.0120963177664257
0.0129691829343426
