-0.289599279058389
0.25276237470102
-0.0389843886814047
0.218576619597301
-0.0918255661202618
-0.0637701371985302
-0.0902257194383491
0.0611475841852899
-0.53066667633112
0.222085338965822
-0.467413876244714
-0.625105581199284
0.201309334248423
-1.75882967326116
0.730520151285645
0.0359229377714599
-0.044911058156464
0.779168247728175
0.397336117989906
-0.0517135727791591
1.70708529453519
0.745743646296623
0.486386126238787
-0.739949504809884
-0.150634157977816
-0.618829312983905
0.809037103190334
0.0795469742966167
-1.1552372361428
0.483772181444894
-1.55031915708278
1.50448434195556
1.38163010413995
-1.98560852431665
0.132213864119266
0.581604872279493
0.0194370899490622
-1.21074663512937
-1.82305004796067
0.514725404178786
-2.26107299873983
2.27254413552937
0.0369227864120936
-0.163399414679724
0.0687844117128271
-1.44487025365324
-0.299228789354946
0.837344896541832
-1.20923026585883
-1.21120774968441
2.05203465551724
0.868352043240111
-0.0197758486032513
0.0160662170016404
7.10243435219571e-05
-0.0597948301771314
0.000198658577662951
0.00109561314421458
0.7935743847447
-0.000178399225175205
