-0.722697144536597
-1.03907487511952
-2.06180099143583
1.66146857691883
0.937086907226513
0.568142935715364
0.989739646871308
2.05930337122173
-2.61443861999373
0.523829552325521
1.20219404365725
-0.187919375212299
1.68174988897317
1.56650729689658
-1.20469259886319
-0.304403702071683
-0.0779878359956127
-2.32809008409668
2.76697628012134
1.03120460373301
-0.961039127493782
1.23899369037321
-1.4435400067649
1.37941441532983
-0.867141939003474
-0.117999483308252
-1.30018570236214
2.72239016516692
-1.11933546312117
-0.475806688585351
-0.213099760649616
-1.06685198067597
-2.43054648784531
-2.18378626955206
-0.642204744518134
1.0145092531257
1.28682733052249
0.856734509752383
0.25052799979454
1.14666923580606
-0.49802648845122
0.0156443660298602
-0.713941386301829
-0.783120216645697
0.0508651760170624
0.466869964340129
-0.31238304903804
0.592656376875585
0.994463305564912
-0.513623662242389
-0.332235108695941
-0.905076304877451
-0.0301666476248985
-0.069624012290294
-0.958354042051054
0.145176419993678
