0.769799334991521
0.703847144078733
0.11947980310347
-0.811168586756275
-0.875748799548606
-0.00922827861846831
-0.877783647901753
-0.82595853764781
-0.132555471192419
0.920979246199082
0.975521871307134
0.00940250119631049
0.454487931785496
0.48685001742272
-0.235825994332073
-0.283475853431667
-0.253633566130307
0.0049672763126416
0.610678745220864
0.256919598150499
0.159836504834199
0.159626008262487
-0.154602443183827
0.0106471217295392
-0.0833564708152184
-0.0984496455785475
-0.164075127854664
0.238962479379611
0.231694314463912
0.0122224244758266
0.309049313819726
-0.306824991903334
-0.000103982825293061
0.263734477889659
-0.260745069022767
-9.84548259217728e-05
0.195914345383994
-0.17596998926121
-0.00362053881965912
0.160224005653696
-0.154594056651702
0.000578609921638799
0.159430852106948
-0.0426824017720057
0.0288345336285109
0.0570272570972375
-0.114692099026894
-0.00854207476896243
0.256638983170673
0.292901812242555
-0.235106063439534
-0.0756785725514422
-0.0413051115571586
0.00103526215812761
-0.0067828371375149
-0.0107479824160668
-0.427628545705803
0.0442188370930915
0.0496626064183595
0.00478883566737929
-0.16605248871331
-0.16192400776151
-0.0286261632108247
0.387557778947116
0.398699015321373
0.00498307579416322
0.254415887338782
-0.243468457360006
0.000288705374704775
0.211472109416814
-0.211506394406651
-0.000110354362805699
-0.282071065421058
-0.309202604608231
0.00187134888853914
0.0709745890840742
0.0481032438094562
0.000797523897202277
-0.332107202195753
-0.280664155661402
-0.037932910571042
0.344747623458019
0.393441443371695
0.0061440697223714
-0.314137844395514
-0.246991927891007
-0.0373152479097841
0.327139739836481
0.388323611069198
0.00412912638246102
-0.811117713804153
-0.815607476793867
0.364692372540924
0.641515505139036
0.635695436540889
-0.00559483324210299
0.175798223712878
0.166990248720291
0.0337329001584062
-0.206453906307701
-0.217016689383182
0.00631515649448128
-0.18706157108957
-0.163812673309144
-0.00269531105864973
-0.0157667953810726
0.00720515690378153
7.62159519077496e-05
0.127573695533823
-0.119840621419916
-0.0103112974770392
0.136760193504947
-0.0712353744004476
0.00530604795760748
0.756629162076986
0.819417462652666
0.213665752643938
-0.232875520718953
-0.228050510187371
0.0076494968710036
0.0743794930114271
0.115272726998116
-0.0095680561025671
0.125295606895076
0.160377679661506
0.0107391893668204
0.11761639569405
-0.135797769269861
0.000236105158664656
0.0923391386893616
-0.120196266546815
-0.000591859237126152
-1.25157429420152
-1.21488291595369
-0.129416241074052
0.964791004514356
1.00313389587048
0.00666822256003028
-0.0473540184492891
-0.0274625637411059
-0.168411820746994
0.236156262934186
0.259127046714226
0.0072044186850415
0.172892468930615
0.178079044138382
-0.0079057190268816
-0.32486759898213
-0.325943343025533
-0.00763257388910966
-0.0420428589730946
-0.0343188062944092
-0.0154055103667085
0.0462352134951245
0.0534689927111198
0.039775386408087
-0.894796755294936
-0.896755067866255
-0.0572617841667255
0.717487263532615
0.723341303208939
-0.00421448918765517
0.308805008861364
0.346517183854744
0.00915120072986933
-0.0531517933881173
-0.0224557310921423
0.00186498962371963
0.0221468193000034
-0.0692237157374524
-0.0288834609874481
0.0350155932417747
-0.0405398298172423
-0.0135443382297169
-0.619527240053345
-0.264947872501228
-0.158185221045682
-0.158412979629114
0.156762151471578
-0.0104996766792221
0.449488328776089
0.448074455800021
0.047800293499017
-0.399969430107145
-0.407449811936682
0.00597185881610257
0.111404001771974
0.122526740799745
0.0787229771658593
-0.224857113328659
-0.219090810015036
-0.0018271624174992
0.305183521785087
0.299417473489315
0.137861243703954
-0.529427060011604
-0.546792077419125
-0.00136528153755651
0.448511211185807
0.490825322318813
0.0395186265597077
-0.275944660995748
-0.242977571705294
0.00256137000681047
-0.0168155724942391
0.00803574034755239
0.041728521919532
-0.260339304361889
-0.245652880190292
-0.00334316546984803
0.111487907132746
0.115925672131489
0.417268662984733
-0.277528527530498
-0.287958112701359
-0.00570378533349889
0.225199463433765
0.222351532391323
0.0346542181721746
-0.232312298179634
-0.239282374174008
0.0018552866167369
0.214889621700119
0.159841741369282
0.00152367532013064
0.0130269458797109
-0.0351280318008974
0.000289675337895584
-0.122507592741873
0.134933028212283
-0.00190981147060756
-0.105708536309567
0.10856337486688
-0.000440891514682078
-0.184429751772726
-0.235203665439307
-0.00522726582276068
0.0644185020537396
0.0239333725335196
0.00441239355243438
0.115632724602382
-0.109663746637505
-0.0114939885742699
0.715265505470388
0.00500387061826363
0.573448624531371
0.364055374064859
0.125422356769962
0.0109430879844233
-0.00620054628910362
-0.0510965677494595
0.469776955032676
-0.306832938189231
-0.00196015385025135
0.00109856765310477
0.0219171403860369
-0.0056009017270699
-0.216547823702623
0.230524720294994
-0.661697549160388
-0.0924876562656522
0.281855014208528
-0.0165342989035273
-0.0164391645910295
0.0148873055916783
0.00333547899073373
-0.0454908090203614
-0.289371503606006
0.0258463740733492
-0.728303130492745
0.0897097365960549
-0.0132970348485584
0.0331271543906972
-0.100470711568393
-0.143989287229016
0.00283248237902225
0.0110648456606353
-0.251569668005179
0.33407915161849
-0.307570800551336
1.62593930829435
-1.84545925314361
-0.985283432048628
0.139022397062354
-0.425487736056764
-0.0130605549333179
0.028747720873828
-0.192221311195554
-0.632076322688936
-0.583281686919362
-0.627653992630128
-0.00599359127237176
0.410599546095836
-0.687058563055713
0.65551637138626
-1.75714973561869
-0.38827148838808
0.127875538756862
0.14775602114912
1.72364988813756
0.250302201582864
-0.0139057122522411
2.41497387484257
-0.457131513581362
-0.527912388906755
-0.0987929364942617
1.71819020315489
0.450723896118362
-0.125236376670544
-0.126667070906403
0.866140472849942
-0.366972746534811
0.920985772703169
0.822349159006838
-0.446184943560717
0.800493085889784
0.461294516672855
0.166173021713391
-0.0154440574566674
0.078594003363791
