-0.49376026248194
0.585516421421518
-0.00225336696591358
-0.448598282866526
0.447961617035072
0.0010950033399107
-0.261910830518447
-0.217780952565735
0.261264314481742
-0.131973802843183
-0.0969113328293023
-0.0369524714724889
0.508495747374106
0.514489020588216
0.654191232274035
-0.686187519450011
-0.709145034251812
-0.000966618806681943
0.71023788319511
0.700611168625654
0.0216688850364912
-0.521244988346133
-0.539056602995303
-0.00609005569659687
0.320510417846368
0.312236807245288
0.0250304119488751
-0.644985097102314
-0.66432605444806
-0.0104949207024259
0.355333561949081
0.410834921604329
-0.186399758196496
-0.0755473920596166
-0.0536803189398443
0.00550611868937487
-0.066738025648078
-0.0729297606754396
-0.475052844548198
0.25377600968928
0.259537378959205
-0.000617227385928846
-0.404033600144246
-0.458634080755576
0.00470289249221267
0.0354020599982976
-0.0111080623015784
-0.00254727634424039
0.644430464526356
0.693777460805609
0.119980799337891
-0.462767919083551
-0.426930717396282
0.00410284352586994
-0.49287332466918
-0.456740502096647
-0.00715106722879478
0.000718247160712014
0.0411884203686473
-0.00985256592963782
-0.0762121957321479
-0.0804643208507208
0.785235941654384
-0.0426562537441131
-0.0625560290800515
-0.00603420620875807
0.433158074468001
0.464565668568975
0.00269706695496532
-0.0169828551469462
0.00750861390131858
-0.00100306899298853
-0.545698596972593
0.491138372671465
-0.000668898215695956
-0.443319503264576
0.435211056914561
5.77063125854876e-05
-0.219010299436473
0.224914818622165
-0.0361297948069753
-0.271887437261591
0.102694969436724
-0.000720836725419191
0.609734196817015
-0.573720794310672
-0.00659714340509844
0.486850731133717
-0.516733518469964
-0.000381172386073678
0.10409811414772
0.105140423396978
0.431886848749917
-0.21171185293473
-0.220785787549765
-0.0124141231534996
0.18649901905878
0.17753399762971
-0.497673610717465
-0.29954096051416
-0.30218991294125
-0.00450175279082939
0.10885554497886
0.116568187632352
0.427277762223315
-0.372358944083881
-0.374771867453505
-0.00515850463233903
0.0235810207688757
-0.0105803752590152
-0.000770578253422607
0.00871785267982857
-0.02019613621902
-0.0247925081318829
0.154112702936086
0.161585327147531
0.13103142293942
-0.409625334937322
-0.410735694290419
-0.0042924617506754
0.394189548960245
0.00873868453254512
-0.00823634323129416
-0.000460843623837024
0.0015796972265554
-0.0241533255006975
-0.00612700963295924
0.0435717349683221
0.00960434250091551
-0.0241332731059765
-0.000427620098138283
-0.0220744868488912
-0.172728066639556
0.110751139772797
0.398006592670251
0.010729073725835
0.00149538072231578
-0.00471209094306383
-0.00985346690823889
-0.00403439216625507
0.00427032204875015
-0.0547462313997929
-0.387218587860711
0.0881042653329938
0.288707716792164
0.219027218849088
-0.198792190286404
-0.0779897901089289
0.146168242966017
-0.00184080114062351
0.470370455068818
-0.120040039868405
-0.0279592141941716
0.0336598249896846
0.0103667279701997
-0.343445492992046
0.0554967182777236
0.159715637072359
-0.00203610265139325
0.0334958840097727
0.823470703714319
-0.00968475182078098
-0.00811754607010765
-0.0166670968332266
0.0082054092467155
0.0205375552795845
-0.0166632198888237
0.185996376637423
-0.0656381725907138
0.298859402835856
0.00703450492024044
0.25299582475663
-0.135019454701538
-0.0105362472763791
-0.0514840768541352
0.0044161641658235
0.0043923256240892
0.00915943334936875
0.027465449113617
0.00253548773974815
-0.00954136227269896
0.19715905050686
-0.255853565066223
0.0281538412323798
0.0778213336107196
0.553319270345081
-0.0179373949038714
0.441855105218804
0.375754111041941
-0.236865148511145
0.19199695699434
-0.266124735980198
0.0250518871428737
-0.01306560831527
-0.0141222514662049
0.0835596618926058
0.000501759562069953
0.0386327332636784
0.0857413490997666
0.0748493626788188
0.456401500601406
-0.0124044596177733
-0.0010220556619164
-0.00710437777001613
-0.000109298326850076
-0.075407564886491
0.00573220198045431
0.00238550189925204
0.00012141459506614
0.0069082847764579
-0.00809914315857758
0.00775755919165254
-0.282933777526684
0.0987686124407444
0.489624755716483
-0.00238176768274415
0.00108546324026016
0.00149043164024468
0.0244439290305047
0.00414392936499761
0.307043631990644
-0.00452869475570681
-0.00801449734340567
0.00245146857104275
0.00743065959190898
-0.0687748947780708
-0.000685186177760749
-0.0402763011989459
0.00267730497609004
0.0260776187676355
-0.00851757884252007
0.0291119540302955
-0.0439168783208817
-0.0181580994434862
0.417185729493819
0.00196343934989474
-0.00205962526204192
-0.00209490009080035
-0.0380487068763558
0.0133004081342326
-1.36561019826426e-26
-1.28704265133513e-26
-1.07798537078989e-27
7.29258195056839e-27
-3.76004348183422e-26
-4.34925541669988e-26
8.75637393548813e-27
-5.26746764544326e-26
-5.79483499916741e-27
-2.08333869558503e-26
-1.53296476512221e-26
8.6159865848489e-27
-2.58618830544892e-27
8.69297288403411e-27
1.0161020803882e-26
3.08197655445693e-27
-1.1166475757742e-26
3.40766663240845e-27
1.51030157299794e-26
-3.54128762920723e-26
0.0237147323519296
-0.0760321527817398
0.15538983975021
0.0317636471669712
-0.27515473812209
-0.177535666587861
0.548758456868665
0.0245852108682077
-0.0869950014877555
0.0136689475491187
-0.25534792296976
-0.0123200395414502
-0.0270333545674406
0.0568736196907663
0.0150790071952264
0.201959166028211
0.199927310490052
0.0433309039483658
-0.00614088455047658
-0.24861481834236
-0.00441032389529268
0.00363041347320199
-0.00335960525899261
-0.0727562452873852
-0.297608116646814
-0.0651321080124087
-0.0172076128259966
0.0167919585120936
0.418889281673466
0.00378991531809119
-0.0220267817655666
0.138997393032891
-0.0155398781118566
0.0343458327350734
0.000473406682343906
-0.357322508504276
0.803490143662967
-0.792742951400801
-0.140065450696307
-0.127257262432363
-0.0162274900737944
0.0917588942827672
0.138917727977712
0.446761461937967
-0.0775422678315829
-0.564008895277588
-0.294731568000488
-0.356781549387431
0.196950879087592
-0.0802676444032928
-0.321689799983632
-0.270559263081774
0.0328438077719876
-0.0369808323390455
-0.0168145967323579
0.184903406785455
-0.00407393422652001
-0.0917632975011397
0.171259245661607
-0.0417325498831402
0.950066661804913
-0.548211150708272
1.09711701984519
0.831304082750112
-0.433175821683006
0.101449923999705
-0.313243373904044
-0.186836833762547
0.155763502679397
-9.38027863228848e-14
-0.632619250238998
-0.205983945211768
-0.900028159692125
-0.298505972760392
0.826991408886946
-0.247171366694151
0.0281485859618239
-0.0871242201513609
0.0824807870245156
-0.142558651207392
-2.2293774547953e-27
-7.38838791032747e-28
-2.63409061105325e-26
-3.0678938240944e-27
2.41266178212977e-26
-2.06862407190388e-26
5.20314284794782e-27
-1.18438220725739e-26
-2.9660756118948e-28
1.48889953737012e-27
1.87329012459218e-27
2.06451841101663e-28
7.12957105717718e-27
3.56383371588565e-26
1.42607937295692e-26
-1.06955288742243e-27
9.86155655220197e-27
1.17968423586061e-26
2.30045582009861e-26
6.08568758103162e-27
0.0115145640254993
0.00684791649987346
0.527300819216994
0.268188805520677
-0.283903737025172
-0.197400172972385
0.00986826850372089
-0.00887264992022168
-0.478483271131681
0.203750147720542
-0.381576347306659
-0.00860131085633637
-0.0127672353164946
0.0069869123118845
0.0149021002660456
-0.0828391626598078
0.00161721022647675
0.00184300875201148
-0.15122777457029
-0.308185068268999
-9.07839335160399e-24
4.3484345938359e-29
5.37280415945955e-26
-3.65147711367117e-29
-1.44082836234995e-23
-9.48266731830532e-24
-1.12764717552455e-23
-2.37266935430815e-23
-8.27380821789559e-24
-3.26477855561542e-24
4.54080376989909e-27
7.46726909314241e-27
-7.07943467501303e-27
-8.80529557660493e-25
9.45970640441086e-28
-5.8726659940592e-24
-4.18788435779598e-28
-4.53960227316037e-26
-2.75498827655418e-24
-1.44966396404786e-24
-0.0120307953680368
0.0103462553952114
-0.280492213248728
0.0255237281352
0.247519433240654
0.265587950661224
-0.102972041636828
0.285586450079584
0.339754992236714
-0.291703694660042
0.237247538428635
0.0768873718829882
0.0504536274074003
-0.0412808719038048
-0.0272592325455117
0.0566580103077583
-0.00573411568975921
0.0400538074280343
0.054173707086579
-0.0556292917066547
0.0232770072145799
0.100354488932299
0.67235807842474
0.277126862638584
-0.392588473351804
-0.00503760581501513
0.000986637822551677
0.207282195175846
0.275953646272387
0.0680882755268556
-0.416800147683154
-0.188363281816065
-0.0790968628287817
0.112046417373784
0.0187281676403748
-0.124344191664793
0.0622011271794092
-0.0903291411443417
0.0462386717289366
-0.275638262504311
-2.17083805139108e-26
-2.44263988634547e-28
-1.63599492909842e-26
-6.47859114692245e-28
-4.51959836168379e-27
-9.22779093171229e-27
-1.37211120775053e-26
-3.19536685847179e-26
-3.19116868963506e-27
-4.22463510786222e-27
-4.34909309257619e-27
-1.89293538459508e-28
-3.32762714483114e-27
-2.28399789036246e-26
-9.2973124323591e-28
-1.78129695016016e-26
-3.17719646512928e-28
5.05732768154016e-28
-1.94454142893717e-26
9.97829926314663e-28
-0.0590085654407166
-0.0124131409167536
0.0365868616402565
0.0474286658006061
-0.00461262046550691
-0.153542182111085
0.0489407225702204
0.208644250860046
0.0377517249846467
-0.330364120988352
-0.0463163728678472
0.389261959209406
0.0893610991113649
-0.0696618618198294
-0.0645147537080252
-0.0301639438243868
-0.00566336885201161
-0.0148096835659665
-0.106081078133928
0.0316008779593544
-0.1260661640168
-0.0658790562749036
0.515560360079146
0.786427327763051
-0.6264235158349
-0.326908457117648
-0.217395638579862
0.137635415214689
0.685383036961591
0.273023222574786
-0.344582398293895
-0.311208522771633
0.120816373053491
-0.114424778471763
-0.176982517263954
-0.275943713719276
0.0842359934531911
-0.03839514222494
-0.226318009883805
-0.418196359958264
-0.156469334144502
-0.127941983486429
0.100556049895466
-0.0262274171622582
0.115010160559784
0.185981014027025
-0.0948414390726403
-0.0213856822443911
0.777117056228026
0.0050997703789495
0.0341331933265845
0.0484404380884582
0.288129515317492
-0.306183931440145
-0.171929551700649
-0.0426514368336227
-0.0447643159182503
-0.00808185814261209
-0.220105057635914
-0.126656235730958
0.681232803969624
0.00384844701045725
-0.945032534260043
0.0604596149663318
0.80461419869749
0.558332216725906
1.26470918032135e-26
-0.00906878594254462
-0.0446332878266534
-0.0388316180845838
0.013786074245354
1.29485758620146e-26
0.00485766504342843
1.21126928210391e-24
-0.236453498188074
-0.00702981805520095
-5.96167873926024e-27
-0.53128308895222
0.00881724768774048
-0.0109757620216247
-0.0372279540760288
-0.843156320185258
0.0151420765024913
-1.17225448297271
-0.029342045098509
0.0729045993484892
3.25164250212781e-26
-0.798258666686385
-1.25946215381704
-1.15731912745117
2.69169150956354
2.35069222236698e-27
1.00876672614769
-5.04812355958219e-25
0.797461983689194
1.06275179020268
4.64496986117181e-27
0.322619543806032
1.59426635021928
0.980226802330773
