0.945061650662173
0.937342253060743
0.0309260994347366
-0.136055347203365
-0.166567459794038
0.0400745455992357
0.502108593000809
-0.475052666294475
7.98250248934044e-05
0.430823666007685
-0.418097703346642
-0.0058096301746173
-0.123204736360349
-0.101772957742628
-1.32860903984528
0.320467301042593
0.324190223491939
0.00690054133336484
-0.29345716479966
0.367950392693955
-0.00427192629892768
-0.260516875490665
0.319255426852069
-0.0136678041421006
-0.125390589625626
-0.119172336581734
-0.395296124034514
0.283102060831045
0.289227908451785
0.00817679205049823
-0.461609534798646
0.445968325735312
0.0010589088563276
-0.397010456210291
0.388301959654907
-0.00412591187782254
-0.515951998896701
-0.56818643797503
0.00921241217555618
-0.0595534142508046
-0.0814674216609125
0.0212829711919176
-0.433363895286517
-0.418597603861662
-0.0722162997169989
0.687957321555887
0.716146609844519
0.0118620257494968
1.12078249713178
1.30748678190652
0.0547205371317206
-0.4483620623608
-0.330200280217202
0.0328978293204052
-0.104600508289381
-0.075672627871773
-0.287991218740112
0.506665780066347
0.531502055839426
0.0122793077910284
-0.2128678753609
-0.21914922984956
-0.00218230580298795
-0.00831934873639981
-0.00827501919270383
-0.0317706118201821
0.612185511482481
-0.588672543402833
0.00138376011153084
0.515296777038118
-0.521324797027883
-0.00138471398736655
-0.0641733046349491
0.126321906446651
0.0212778196239861
-0.61352015726399
0.0228142769597672
0.205709228869917
-0.305964079189559
-0.00155736618854391
0.220953454121842
-0.0445416056637893
0.0629144363356645
0.291557078412977
0.234101241056818
0.00863751202914937
-0.393701479271211
0.0439329506500433
0.0251019164657047
-0.0112096111959538
0.132957780447398
-0.214686579793223
0.190665759725792
-0.693535079721069
-0.296602934830941
0.0100678869638756
0.00822367717475277
-1.03093902710896
-0.0029138944856372
0.442586304631971
-0.00137251095618047
-0.820516118009278
0.0430372560293795
0.00997213747873013
0.0156401080344114
0.00422102421583302
-0.0317319732605447
1.1312399089805
-0.0992386506830335
-0.0110985624341318
0.185734271494279
-0.0376851051635425
-0.281539953196552
0.412508201228879
0.0513503409561087
-0.445192824528083
0.0185386113086062
0.463008859024808
-0.00759160722074015
-0.0132452285597884
-0.024350262303993
0.0931540081084023
-0.543389146007381
-0.0733406836174908
-0.389382524713034
-0.116883906386412
0.139172881401183
-0.881547387479048
0.514640766991413
-0.226213962788517
-0.381409435124739
-0.0584338534822908
-1.39292969200078
-0.0717394101681482
-1.8059891963821
-0.477059829712664
-0.362362384638633
-0.00697437275168767
-1.05611253950591
-0.587739741234398
1.74145077222001
-0.11991380190857
-0.501160441191583
-0.0192473887349731
0.0106586236064984
0.0105406717296417
0.0325586016449367
0.133051838382517
0.496952788460991
-0.30644518417513
-0.13089698331611
0.433965280952204
0.0961539565656153
-0.507841174580996
0.366138554138343
-0.00545552987828522
0.0645944378774722
0.0984446212681214
0.020949958407287
0.176154672349321
-0.0462335858221581
-0.135006887725471
-0.205397803586873
-0.00277829365469238
0.600531099196981
0.00821761670547077
0.149069625390392
0.0316283143147882
1.09687951826747
0.0288645837770813
1.80971706350382
-0.0513428832953259
-0.0265867421218189
-0.0188759677263923
-0.0976358088546191
-0.547104821011152
-0.100991394178252
0.834844941914717
0.00530762934555536
-0.579992655440683
1.17073418930035
3.1955977207334
-0.916399057333452
0.159423537403514
