0.233458771691721
-0.224293438784097
-8.71989085486974e-05
0.192435270231613
-0.194271763642309
-0.000400502312962532
0.0307625940546489
0.0313678428111579
-0.47504631383831
0.0476185111650693
0.0582804120172494
0.00238686466744055
0.514692116758755
-0.507325912692074
-0.000666918729470868
0.425240126632754
-0.426586032907278
0.00126017611576166
0.442936969915699
0.517721264230166
0.0336940399246481
-0.160893160357237
-0.103626912027367
-0.0061112228238596
-0.760610745315544
0.692124193240971
0.0162195272192718
-0.588299210475569
0.634422629053831
-0.00331162263173677
0.32449623075297
-0.321241402678965
0.000706515598096952
0.274716957326181
-0.272154164003566
3.59958765460563e-05
0.552340502653301
0.567786089124716
0.0646439581866948
-0.4716873653133
-0.465054419525537
0.00726186793213536
1.2397347306462
0.93757191704148
0.00982877042894459
0.0526031542840782
-0.207796457101402
0.00223876132082389
0.126566188409595
0.193131197624254
0.116187334609228
-0.204815840558095
-0.157385677489244
-0.0246645728893832
0.000946310070365078
0.00160099535777674
0.000810113974949525
-0.000603122545370901
-1.08775037677321e-05
-0.000931114679046532
-0.708311746652138
-0.856882496153546
0.0438085747172847
-0.0866651762970523
-0.208649320718511
-0.00775404396961498
-0.0271875003634754
-0.0377669997661523
-0.665161055888654
0.062420596019127
0.0681427292221111
0.00323279165714572
-0.104060302468782
-0.123363795308343
-0.059298465353149
0.253206902012239
0.241399253509738
0.0148812044333538
0.957707058412402
0.919203993119549
0.111729557001645
-0.891646374669099
-0.934835141816354
0.00301187835873983
-0.662513326807996
-0.690875002491512
0.00826540444354686
-0.0328697934826521
-0.063680308088755
-0.00931320842939381
1.07094727040266
1.11119814512302
0.0147433784002023
-0.0189959166909893
0.0165591044623216
0.00255221913869145
0.0794529456247495
0.0716766510576926
0.00570813499570299
-0.0481137578181779
-0.0559240665548606
0.00395614609057603
-0.144444164105706
-0.164659460098385
0.00873168533444449
0.29212368272279
0.280211193856849
0.0114896550597055
0.765290515751473
-0.684314148528833
-0.0142965258383956
0.579032238918811
-0.641186547268311
0.00248046771908636
-0.0349141737699628
-0.042574760372815
-0.269610479631325
0.122566346151847
0.122434912415
0.00653939445045867
-0.042026634768208
-0.0382488362855459
-0.122740787615303
0.0987235895322928
0.104610591434825
0.00459163432528994
-0.198941945811866
-0.213263700578104
-0.0583299257243245
0.392024296208193
0.385392769030523
0.00623272149963246
0.0313226906365695
-0.0136840863626057
-0.00703430184081205
0.0101454424538595
-0.0276951645390167
-0.0387933318255483
0.181063276154514
0.192485156539369
0.21573429578173
-0.317027989212011
-0.317271951482963
0.00117217207516942
-0.0842407195394319
-0.127241323540551
0.148935354146899
0.0394484151231467
0.000679670618538665
-0.00119501388546174
-0.227165725978675
-0.202044735701623
-0.0735931355951998
0.448678600916693
0.47778374134876
-0.00204636479770473
-7.38608114354968e-07
8.80159135807531e-07
2.41721746431013e-06
-4.75347206539874e-07
4.07190298828919e-07
-1.65847002725549e-06
0.123180522537497
0.133903473994647
0.106515413420334
-0.42419946659273
-0.4246304721736
-0.00792488384437767
-0.591395415343224
0.686793375958922
0.00498709798057994
-0.515135267822224
0.541518526809243
-0.00283946044285644
0.633710307924316
0.632985832996802
0.000490225090915306
-0.0860725610179488
-0.101966135567244
0.00516446242936999
0.136115946281406
-0.00205719108937174
0.00606171347723799
0.0517123792916752
0.0540871759869604
-0.0430883487321528
-0.00807429910426522
0.0643953543046757
0.11459592216613
-1.71991749482562e-06
0.000777914904641716
-0.00078032332139265
-0.0747022580637834
0.0293155926153101
-0.0265022524503961
0.0730262519648351
-0.0193376830702122
-0.0187410852402488
0.0142269666668235
0.00467379038328028
-0.256172141342254
-0.00194786603929859
0.0539779181663484
0.0289173204553533
0.016272007858943
-0.00530254622788519
1.77916606466549e-07
0.217980004741823
0.065573110185101
0.0259629861984936
-0.0928475012808234
-0.0839269523983921
0.354578397048475
0.106160935049385
-0.413885498271774
0.600841313873034
-0.0330513419401934
-0.0335827290613906
-0.0626758410871637
0.000166178512224815
0.0399553615667933
0.0240889217003862
-0.0551276178760842
0.0740112044453021
0.00289804348219333
-0.0292180907223214
-0.0481385943342375
0.0888935176404252
0.404673842480256
-0.00627484521120723
0.00900042428044807
0.00899644515623263
0.0386477999424869
0.0048303381653993
0.0589169015537685
0.00284059009605366
-9.72806882050534e-07
-0.00209996887403849
0.635662080058055
0.00920640711506865
-0.166371680033803
-0.187017536230591
-0.000310367211041854
0.168585469660056
0.534476153087362
-0.00974766012914039
-0.309556148241248
0.537851338886643
-0.371121392219142
-0.000360993109636346
-0.371155071375559
-1.02138325318848
-0.290494759983682
0.451388641489436
0.25691185646361
-0.101023052039084
0.624573742563762
-0.485341382562732
-0.548422536313185
-0.411762004903299
-0.358157396251712
-0.748825318918388
-0.1814423574958
0.285974863228828
-0.0950105731472796
-0.439381552290336
1.82198186813425e-06
-0.500167256807033
-0.494969507853307
-0.16727414013239
-0.01773112360433
-0.119164037135742
0.0155455056369278
-0.988028873637993
1.26332599601071
-0.00447431162006806
0.0610609989711385
0.0185009550920669
0.359157016758419
-0.00229327454357157
0.0547856549615614
-0.384437854766569
-0.0709482371189204
0.216781514319827
0.0061134315711938
0.00323339835812851
0.125578128655132
-0.0794151610386079
-1.26509118450187
-0.0139568167487906
-0.143238886590885
-0.145589550756384
-0.0259490940051442
-0.0284059717875147
-0.104102818544483
-0.101426965901647
-1.62338890342883e-06
-0.0683226785751192
-1.40150706815233
0.907841519067089
-0.623393145678864
0.0317371757459058
0.209756678225364
0.109821050666664
-0.188027398454619
-0.626240796357244
0.0326462245736556
0.0380479074882153
-0.102323879562539
-0.00233488358905969
0.0714114716308478
0.00710514748007732
-0.0574521116126835
0.0788366082205162
0.0641788977918853
0.131579638422573
-0.115600496095558
0.0353352148205228
0.093928487502184
0.0112097716334768
0.0184855146899942
-0.0121452238074696
0.004211085826721
-0.0486156631021449
0.0951060487256916
0.0765417299400341
2.18895348235424e-06
0.0389759888703264
0.406033849562805
0.0354441011112029
-0.00567125682382137
-0.320106901121053
0.000119881493779923
0.148725953298253
0.00338675735985514
0.00216522189054805
0.870884033053443
0.0072520406148492
-0.520960929987179
0.00101295096721805
-0.0503491490976455
-0.20313823139338
-0.504829382030374
1.08776175325013
0.031645029721435
0.00402714404858115
0.612004877089753
-0.344413716889102
-0.00322763966767068
-0.286665811564599
-0.0561921875161525
-0.286304085119172
-0.0924517915011671
0.20441196544125
0.0494774725949448
0.304731062199524
-9.59915782104771e-07
-0.0124948895872233
-0.00464231194105431
0.0379002749330488
0.0688131977588938
0.492368084438403
0.592953987889486
0.037752957571669
-0.159142728305277
0.0224836787799891
0.403804046463142
0.0248842289362537
-0.257796412535572
0.00172465294208982
-0.0263924435943467
0.129658923813944
-0.268728891120022
1.2379296645904
-0.0859331690747474
-0.156015443471063
0.103164515932221
0.0462213886200037
0.180021835672352
0.179902458857084
0.11336487877457
-0.0991261887828092
0.0253419309802055
-0.42479388775148
0.5215525257137
0.596677457282255
2.49480112765377e-06
0.458811094901188
0.217325532491764
0.0170086700128691
0.176644113104841
-0.0110350825308989
-0.051619423763168
0.466506839981698
0.0953352999164263
0.0089500728233081
-0.0893557350393506
0.111695461148108
-0.113718289797583
0.00286044741827365
0.248623663022504
0.0918422756927542
0.024266015364552
0.0992530805942727
0.0384120260181873
-0.492632335168278
-0.0402323357548002
0.0736066002594217
-0.12192878126247
-0.0134185073907269
-0.0186114800780079
0.0897071297079894
0.0325378352061229
-0.00219460143892352
0.0195624133149615
-0.00415709820395595
7.03839918197749e-07
-0.00259334924253074
-0.0492393007936183
0.0500917425417823
0.0130158756847329
0.60506923593705
0.81881257155026
0.0413384281395341
-0.361819710717542
-0.00238318695158236
-0.389778637997569
0.0125694413226792
-0.206450455418127
0.0016937683864942
-0.0172770299754315
0.0623450590110698
-0.116502196275192
0.331682597218768
-0.0893689027712877
-0.170981114635147
-0.0121495773873285
0.183002250021623
0.387156415899451
0.0732703556029461
0.0609227922675396
0.0515185926695241
0.022535193632567
-0.421824184344569
0.502720243680641
0.419402723383443
-3.79040991568467e-07
0.430202758599035
0.43768119879853
-0.00467555370615784
-0.00504151199029811
-0.0217206252231747
-0.54499181058487
-0.464274726838943
-0.413780523710717
-0.0618198933309102
-0.231423658566722
-1.83902281222688
0.252790412956053
-0.000102123933452759
1.3010800663478
-0.0614842935387272
-0.0161825020772749
0.982082064717068
-1.52045062398998
1.95387020296979
-0.0790787673623064
0.0421008531610134
0.327104349456475
0.0996082430188099
-0.113063115407793
-0.018313799232937
-0.000934761667361184
-0.141149859955986
-0.0424605854169247
-0.255742164232825
2.34527809430739e-06
-0.305027565234215
0.00279855704184722
0.000971271951666271
-0.0201166754255398
0.590848439051558
-0.0266557277491078
-0.0313759993403519
-0.865602330728509
0.0023954653592686
0.0616262383152839
-0.229859657872659
0.0231246453859029
0.0487988728410268
0.420090204666442
-0.406878076393068
1.94857094052552
2.44209157379702
-0.0873448024077439
1.32742397950269
-1.77971329216358
0.112305844025331
1.49169449482092
3.54218494401954
