0.308771385863474
-0.253737304842052
-0.00239670495553014
0.266932475178482
-0.218640551622745
-0.0191112335700493
0.68548702984947
0.721198196491261
0.0206798298575977
-0.152978293872264
-0.147781667143453
0.017275233229359
-0.679177830274203
0.0962802567491161
-0.00774229518668855
-0.28463608957995
0.414293246173073
-0.0672448482086244
-0.281490390499509
0.179321900262534
0.00438357323457816
-0.241015256414131
0.160151817672251
0.0361454279326725
-0.0113382421819245
0.017521358497828
-0.853879688731961
0.147266527877471
0.163045403646966
-0.00263832489688429
-0.49319890077782
-0.526751192577747
-0.184376844467477
0.960746014036664
0.947700172135484
0.0236364803223884
0.391381059220941
-0.560306690323847
-0.0106625538329946
0.467479595499082
-0.35839576410103
-0.00975242830303242
0.147401684481465
-0.255877885645882
0.181147532317364
-0.254405394298309
0.398537431569112
0.363241611720224
0.00258846846003395
-1.02026582051726
0.348264338184222
0.367806085649374
0.535610310669413
0.0775022684758
0.127301548561562
-0.188589439766784
-0.176222374263135
1.09457795130119
-0.0517461832311981
0.223364962904952
-0.613953374848022
-1.03308803230316
0.391732933147742
0.225602741130508
-1.09993696280621
-0.0291729700760268
-0.591034028301042
0.0433513573848276
1.51723418255576
