-0.0161210596354774
-0.0527583110098521
0.00542815305695657
-0.33038360046535
0.145885334424036
-0.406113503677904
-0.519700636652196
0.0478821228752729
-5.35538692832577
-0.070689005662825
-0.0520504663547638
-0.0256889228632182
0.00330566318672317
0.271024279401039
0.0815241163416227
0.471795261791921
0.281814618053953
-0.0144586560068746
-0.0707754481543134
0.0524416158437338
1.59856882013981
-1.66535082242532
-0.00451407056940113
0.000956830242879839
-0.000896185134914052
1.45748679997813
-1.60781802852038
0.00113518711628371
0.0119967407580963
-0.00726684758539322
0.0833949394727235
0.10511863916792
-0.00115376034163673
-0.0673426595827743
1.53478614924317
-0.636255382629486
-1.05558761417787
0.0850024769506544
0.197223947832915
-0.122881320829379
-0.258960335457625
0.313694863822664
0.0120342115375089
0.0145815027665723
-0.00666465009468565
-0.0337016371682335
0.0216721340699577
0.000398029942926893
0.468635438049873
-0.0315495933278187
-0.0521527406624384
0.14036645679565
0.771928498959898
-0.0172194570082354
0.00701007674279569
-0.396855116116095
0.425714834923705
0.0245883187237086
0.0379195488521258
-0.017354588527153
-0.0115892448292813
-0.00292730057503896
-0.0766828930992265
1.58700345354984
-6.44161399355443
7.40101024268415
0.0291474842161039
0.181590769902005
4.11609201225191
0.029576104798038
-0.155970928676563
-2.21381152741548
1.64168889973355
2.22888762122973
0.961135857613661
1.58856587182066
-3.53325150479207
3.38017417732415
-18.2831626636041
-4.60103842893644
-3.83261160487949
-0.197289330465277
-0.658976213884812
3.15420098160779
-0.00583949213829296
0.000825314423410851
0.00240007225152346
0.0851791503236491
-1.1978913238477
0.758160321234661
-0.00218815213132231
0.0257192752928254
-2.77054117950631
-0.00166174242326341
-0.122119541046893
0.690590163972534
6.38161804461681
3.66970700427209
-9.85546133669785
-0.0130516574875037
-1.74682411246685
1.7669507962247
1.15478384600978
-2.71996301647565
-4.57041640317619
7.15873414902618
-0.250337704046614
2.7165738111056
3.72357062911788
13.2141306416713
-6.96151219322045
4.39490148248819
-10.114817179913
10.3373199592562
1.36860030720158
-4.42291777995612
4.09785112396243
5.21809224552075
-0.155371148864518
-1.10346228659101
-5.74778829254272
-3.65155557205191
9.06177437769432
0.0068952630613541
1.75958758735663
-1.76735082290929
-1.1538198922318
2.71603767562528
4.90398825138266
-5.89410917315906
0.252957758746595
-2.90506147817552
3.19502853043414
4.21208406859209
-4.55656690469246
2.3143765227753
-4.20395213569154
4.74583268534348
5.13777000487258
-2.71647479914684
4.66842420175534
3.91258501430498
-2.16289706141576
0.115409920821225
0.211131037139843
0.262590595426058
-0.127360352616093
0.579528171480925
-0.698403015160948
0.562978050501729
0.426314887404701
-0.23601206530944
-2.10176471218436
0.0297653018748732
-9.60454962436544
1.98332143309929
-0.192558950603175
-1.11785546675045
0.201202990787925
-0.0173452450908931
1.33387421616052
-1.76012988901055
-0.987989618076971
1.04330099376726
-2.71113963938651
-0.0570540437195128
12.9277775448218
-0.819047888355539
1.86792161298258
10.8291629734674
-2.98476734724754
1.72916080113227
-2.87844849942196
3.6209949357252
1.29797998472514
-4.99666252708023
6.62132524688889
2.4542651035887
-0.594348363322361
-1.98906963676319
-0.174857984862306
0.373230194739108
-9.29056666907363
8.57690896132178
0.186474803045229
7.48107320151608
-0.149268528044661
-6.61282731420361
-0.0272690289112819
-0.594844291165795
