1.33585414661998
-1.43592448146712
-0.991613899636891
-1.17961755376048
-0.169631257157263
0.383549844093519
-1.43447918185054
-0.755885112833201
1.24248794350122
0.819200336178124
-0.124761942997102
-1.38256961087413
-1.87077960107369
1.51890363183679
-0.0134157340965622
0.128794909699846
1.2510773924761
0.873751197220779
-0.145515723859908
-1.73264985680265
0.494937503261016
-0.37314037010189
-0.0197996893450534
0.0796860780026113
-0.117761388179799
-1.46035678136877
0.0745113519749976
-0.0503901716523921
-0.366902681110662
1.05323028120245
1.70030429913895
1.84217606096169
-1.0453253498794
0.178103095264819
0.0487151370532988
-0.364043919360943
-0.155916912595081
-0.154990998282282
1.6742448707012
0.0759865630807818
-0.744564961771017
-1.3491151428735
0.187096222331992
1.42009572099146
-0.425843016972907
0.743115291120915
-0.0554437804710298
-3.2065586631139
-0.011666842816603
0.0414826423203856
-0.58017614075439
-0.649823174403821
0.408661151058
-2.02122082860095
-0.131184610337706
0.00113379484354785
-0.386967583697337
0.341342352072464
0.00302951271873552
-0.757509305724743
