21.1287964988797
-14.2890606023883
0.755466523925018
0.600880175893591
17.2999905754408
8.91496527388806
-1.84332284188245
-1.23765818304855
-8.48469384766748
-15.9818911387842
-0.275782312936505
-2.84756296445991
8.7172737884454
-19.1121754561634
2.29312130005336
-0.154908797000421
2.53331977486637
-25.523499396212
-1.18580744263776
-1.97570205983848
1.21083776865421
-22.3946414009787
0.778819649823909
0.373603634089762
14.7241206332706
8.67051328553413
-2.46784046945423
0.922247440118952
-15.9912511723487
-17.9344407471302
1.39857549404851
-1.00193958169215
-7.30101755146251
-13.2646274284032
-2.04833379580731
-1.60596540983741
18.3389188130974
-2.20806657513142
1.74961356138159
-0.0244421182362018
13.3350840211542
-0.760396772575854
0.452656555043529
2.58054622316166
-0.638032879477025
0.898244844002851
-2.46461131502633
-0.0130945424945504
-1.43949461965886
-3.76673123937648
0.147766888885789
1.82432945644214
18.1465994377804
20.7620779003613
-0.81102203411098
-0.584775008434321
13.4754808164544
11.5685126102066
1.87087274556697
-1.82116290137172
17.8424496252877
-13.0683343954044
-0.393663246960999
-0.586207238102421
17.7379014280762
21.4705746319869
0.466516148740782
1.54991587821558
7.71961781385092
19.0869840322601
-0.876237613161652
-1.98648376941476
-7.43174972810922
13.9552330503992
1.84319330218146
-1.97639910406842
7.95169495213681
-8.62417059156771
2.02944989466135
-0.147849937039546
12.0012045952338
-14.7861840129055
2.54441127956519
-0.777367948548676
-15.0683086955773
-14.2196085059509
-0.202991466555365
1.37634311765973
-19.612983136445
11.4830399617266
-1.88221656531366
-1.63932932702227
-12.9491585945445
17.2265971839004
1.80393897356667
1.32614143554745
6.21850865793688
17.7089186702697
-0.556167647281305
-1.40565351949485
-0.395516793037844
16.5454616223071
0.393868178605069
-2.36216502456026
18.4863673046577
-1.16885653753296
-0.00266903375804226
2.63616519355837
-14.026065330472
-20.2242082637727
1.90030515996979
-0.436457916914811
-9.09511298803466
-16.997109749053
2.18406622961815
-2.24063472276795
-17.5083632664905
-4.70218554152658
2.7774072840157
0.202068826573897
-1.58711214119919
14.2835429327727
-2.90198663337656
2.30625995216466
-13.3380836858898
-22.026315100774
0.0246002234493437
-1.10763711927282
19.4401863248509
-7.37644405744602
-0.924744649626178
-1.3764718369666
-19.3874780006769
3.57359448367129
0.634217477613694
2.12295828750912
7.11595292610713
21.6400581121614
0.489637775714661
2.80352377855258
2.36405579561823
-22.07969766517
-0.0578978294995408
2.4081883529831
-15.048500110561
-9.82946636709481
1.61265991000026
0.30014070681953
3.46197817995433
15.3057021932445
0.1349995037469
2.80120815381353
-3.06342647996453
9.79515309150753
2.43637617971843
2.27192851281184
14.426657239433
17.3001718703668
-0.731168054553288
-2.13157945153625
0.0104863242519642
-0.00377462460411753
-0.00146509053442124
0.00631325538285406
-0.00154368748944204
0.0190750991512369
-0.00145382141469263
0.00117604560734552
-0.00196202992265793
0.00423504373660527
0.00257942858446037
-0.599774935904947
0.0492668152932298
0.000523459081911054
0.000331857435584322
-0.01451229182853
0.00340732177361797
-0.0098017444394017
0.00154917268392272
0.0222086151846751
-0.00279148201442461
-0.00239201400493633
-0.00200110036768554
-0.00299525239254522
-0.0186570778616822
-0.00437765368651584
0.0015021782101785
-0.00169823806091909
0.000821314467715388
-0.00359508826568653
0.000307313011467808
-0.00308635502290164
-0.0042908536339537
-0.0100375315213332
0.00646379412861513
-0.0108239853361749
-0.010611734054388
0.0366105659455556
0.000598933972441148
-0.00898382381694618
