0.588786992772225
1.08511780631404
-1.89878113552597
-2.15964242512667
-3.37576246476545
-1.69621995067572
-2.59232945403948
1.11500184421687
-2.58510321514588
1.92342838942289
-0.525737369122682
-0.361890294610996
-0.782482331345034
4.44990873333415
-0.603526472490345
1.35017127340154
0.858653762764285
-4.25260793794029
-0.552064363192887
0.499017648417565
-1.76013885089727
-2.51960259459361
-3.24208325289886
0.716581094450066
0.867415438422479
-2.62266280282757
2.49843443109191
1.06503215019253
0.0695972281935298
2.64409262872622
0.10041785234483
3.0696563178236
2.96596607628203
-1.71353160791406
-0.208273511304656
-3.33681870494576
-0.965546815786201
-0.128414484319217
0.565918304435605
-2.97723811781374
1.85468773714664
2.57924993827123
-2.7437513681509
-0.478238279409135
1.83782331803548
-2.01275451769745
3.02341622006115
2.61987555000328
0.632946786365202
-0.88404603145556
2.79667747234692
0.854647231763133
1.39452030904201
3.14929419666232
0.909831828245239
-0.0598826829990411
-2.53513755241984
-2.18715306873297
3.10198352480897
-0.603809922575295
-1.54681251635245
0.464248492984975
2.00923145955152
3.45809042329724
1.10806128510835
0.573714341068586
-0.954224968284611
3.04102248536688
0.466838553432279
1.94449344578184
0.0737099551592071
-3.42160246709947
-2.49181006770188
0.519302469832249
2.75057532765098
-2.31327558669948
1.22293517912778
2.83113533254821
-0.658677703025135
-2.12113159392356
-1.73318530268201
-0.716380256357914
-2.86939783430704
0.662352749621413
2.25258222220334
1.68874420079104
1.87964748742966
2.94695191267488
3.03631193188023
-2.32614050248486
0.53493869238888
-1.65991264282957
1.63829513721197
1.47884583956119
1.82560403447992
0.105134610547491
-1.09269059356922
3.03762842052509
-2.87653948487804
-2.22581416269294
-1.42509369912332
-0.0173328216542891
1.01294356973991
0.584438934486071
2.03129128491304
-1.45372339247882
2.56278518779508
-2.48502395403186
2.3894141827791
-1.93423485531992
0.202898219888528
-0.163445813114939
2.87652120792402
1.93035823282431
2.84558262873973
1.6800792652895
2.78408034959775
1.93840418411511
-1.44179324678816
0.0545006134429207
-0.99643284430384
-3.22468593734664
0.368057869235803
3.19146325583334
1.96548795026371
-0.372906175617811
-1.07865380336361
3.71460175889288
-0.258738626430241
1.35110605402043
-1.61703418219052
-0.922051406849492
0.927604019197159
-3.34572715576211
-3.52019324654464
-0.0671263573935324
3.46725150950223
-1.12237731958254
-0.305852739661387
-2.41812570426508
0.514048125825879
1.41962293109694
0.0882346898465179
-0.258872650660926
0.906417585723134
2.41321397767993
-0.649402110235722
-1.75278541046275
0.383292644210427
2.25810823161606
0.234308529668131
3.02262132241212
-3.83473828637177
-0.576018918716071
-2.53126854718263
-0.0859368905545406
0.957863978200867
0.36864179581233
-2.81856628384402
-3.5177827897166
-1.82200210656528
-1.33895452589967
-1.4473183390452
-0.148311489109525
-1.35238447381247
0.435730099491862
-2.38160250254551
-3.12018123907233
-0.866169724307532
2.70836571082846
3.11016610169801
-2.16008221754014
-1.32907765882747
-0.541173077128071
-0.28763673901445
2.54811915664006
-1.06406383213955
0.595676918650392
2.87017433164496
-2.2899374254765
-0.13483286034634
-1.98559047470606
3.21125049455219
-1.62149950766251
-0.0141712396884719
-0.465091486173113
2.23211738598121
-1.32024014858973
1.21886868893799
2.45813010410909
