0.556015018839578
0.436790145233345
-0.0358085574054097
-1.55820074749896
0.0973638803255975
0.173514515586882
0.324451211245955
0.0839959642181442
0.157803079089744
-0.121371384115505
-0.154693341479285
0.322118539610446
0.0305152725805461
-0.0890950735654451
-0.618550174972558
-1.09837134995107
-0.557255576860655
0.0993453913658442
0.1038839435528
-0.0570855385200793
0.183866385608157
-0.484746400252294
0.0306498903659097
-0.0525374989749308
0.152944345574946
-0.315032092825867
-0.39970824973092
0.0386032088706822
-0.283507511612616
-0.110096314746234
0.282963212701664
0.111460532090372
0.0320237521858014
0.773292457281474
-0.0934129599097234
-1.09272173480494
-1.19292993959167
0.115053905344416
0.459764314721171
-0.249132239445048
-0.0569899824584962
-0.116809923613997
1.03023684477422
0.042995749489831
-9.86367691181201e-05
-1.08870973623468
0.893131820090125
0.0071260476716046
0.0631792976811137
0.0471146490147243
0.457974519139708
0.452953710891983
-0.0386622537445689
-1.91822644913501
0.101696038659658
0.388059751803626
0.869791986614877
-0.0447407874749516
-0.17629947088907
-0.271569745313257
0.0802469212601779
0.469980168247139
-0.00630235343761159
-0.112921283233051
-1.05861450798801
1.91266851742288
-1.74063364011655
0.0166095185381804
-0.0411800122720822
0.0123074533324063
-0.140885367926623
0.542397301366063
-0.0432225303467646
0.0850588288863301
-0.0805462344314783
0.0520100038526886
0.07525426363538
-0.644487474361917
-0.0185747260091636
0.0213572771314987
-0.535889694017876
0.179371291867961
0.066314053336674
-0.587865908087404
-0.498488222234805
-0.274299385997841
-0.348578150048945
0.0260172527169667
0.194729213712574
-0.206575847295533
0.390919022611899
-0.317403071020297
-0.780240650157908
0.587887422008237
-0.0394993352550176
-0.26190905463478
1.01581087689295
-0.0285035293252723
-0.187539629709452
0.00500588055946551
-0.809215413348604
0.447523037893321
-0.699972689414165
-0.268277732925266
-1.25172505533897
0.952901083400456
-0.262379508324451
0.217077664694278
-0.283661724631727
-1.84861663802348
0.527804562651649
-0.356259677932416
-0.24265407516468
-0.361503318585448
1.24741119168317
-1.4068576695541
0.0605021089827474
0.763745009143143
-0.00617441511524263
0.679393753777097
