-0.0366023710243988
0.0413038898566038
0.114340774962901
-0.0432037191013212
-0.0445891087583515
-0.126847852751288
-0.0950243990752038
0.260324774182449
-0.0484991438387283
0.0979237361796916
0.140289911011164
-0.0247584734787148
0.0653896837222583
-0.0535113182827523
-0.109835407958624
0.0212700770600338
-0.0109530473918506
-0.213938384700186
0.0175158363940343
0.0531999645191728
-0.0716422726704113
0.0446449882548058
0.0124736373588335
0.00662726614244345
0.0166403111628024
-0.0421946664571468
0.0180926142530606
0.0146308190573901
0.0105898734946159
-0.00765838991012954
-0.0597120165726377
0.0568015323632684
0.0359492581847025
-0.0445798207568464
-0.0227877667224587
-0.0628964892475454
0.0374162289437352
0.018664282665368
0.00807184580412261
0.00462581969880601
-0.040191510218562
0.0434617355351488
0.0962994144603402
-0.0526204760683356
-0.0495898042319641
-0.861544407264671
-1.09401483236546
0.0877869298795194
0.331677096220929
-0.198454271798982
-0.146051320177944
0.0171123380881663
-0.0777740152473186
0.0515744068551255
0.110548831478434
0.0212103966245651
-0.142782269599896
0.0255626066116698
0.0326382451707391
-0.409019479277602
-0.0598147236417438
0.0605184843976933
0.0356664755271072
-0.0360836931685694
-0.0154114850856306
0.0636892996642359
-0.0798219296265564
-0.0462172355069289
-0.00707650482203023
-0.0213533662892422
-0.125967022060288
0.0302973034803299
-0.0607928781214068
0.0370306096313743
0.0840989348280405
0.122055795435971
-0.032040224328906
0.0573226384128499
-0.0329857835532801
-0.0781948345347081
-0.0244413359705202
0.0124643068433867
0.117518276706898
-0.0718554042468985
-0.116895563609934
0.066434757699953
-0.0443495724343851
-0.0237033625794318
0.0566028371842563
0.0294560736433252
0.00996553070410977
-0.00401896806914134
-0.00290853257970917
-0.00275786950598334
0.00233938435385997
0.0380363898912765
-0.0155794358710654
-0.0131185524236683
-0.00997368204488945
0.00772183627941471
0.0177394816361125
0.0622587007736694
-0.407845694639996
-0.0244145133768799
-0.0175168716086325
-0.142036018223993
-0.18322718510978
0.0125882548852044
0.0372642949091809
0.657201907802775
-0.0975528224753618
0.119381234798059
0.0753551468649879
0.0824267784809576
0.0975143721769096
-0.0652011998024036
0.0832540362501239
0.0915508457168852
0.0285880698427913
0.0420898501435368
-0.197920881464981
-0.239452471641703
-0.00937838329945322
0.0589246351373843
0.958188181171207
-0.17678254768968
-0.000168590125625428
-0.0958685639720797
0.0741473315507554
0.153802593810922
-0.0586336692270398
0.0588056323318227
0.0387051866027037
-0.0409461365888653
-0.0203435721223322
-0.0825321153086295
0.222517125215899
-0.0194144201236156
-1.17485227075488
0.0366788952096418
-0.156510633950956
0.283905880295384
-0.0173096781546194
-1.35142871741411
0.0378915811140449
-0.0551633980281419
0.0493483198809285
0.0512751923990118
-0.0632274709959799
-0.0436572258273556
0.124181428662992
-0.588840917046042
0.0208659724242458
0.0738546838787161
-0.0596571563790454
-0.0699784313553914
0.0446090357569649
0.0130125064494645
0.0078023329030792
0.0144049526133779
-0.0828460077919992
-0.0527564510593884
0.45944345966279
0.00166698910074992
-0.00631867186957118
0.167335124526189
-0.00638695122606517
0.0922568333709038
-0.0686477625343967
-0.140631325219445
0.0888950505353635
-0.0514087326980982
0.0194501208225232
-0.00092606586348941
-0.0312631932035089
-2.42913957742326
2.34193388651986
0.0134366541373772
0.052617434108367
0.0126919606567806
0.629894199219177
0.362284136809805
-0.0649906735326159
0.679816035175964
0.0556550257309136
0.0742866862185052
-0.0463431294137999
-0.00934994250278271
-0.00739175207462742
-0.020493579402035
-0.0196576352018086
0.0161296773067337
0.189241660428376
-0.0257547697156922
-0.0620675281676507
0.0534484416253318
-0.0543268231596661
-0.0540298382881695
0.0515781910970314
0.0336555279234249
0.290396319779119
0.383363216825196
-0.235483300316984
-0.318714238689402
0.141771437792334
0.0570918774370216
0.276508068801908
0.113781678887467
0.287517948209589
0.374682864016228
0.268035933611991
0.391183067183298
0.278559189504357
-0.293816282699157
0.266918032952257
-0.265301366985849
0.296756009763782
-0.256581248799825
-0.0117247083082225
-0.0498123955107542
-0.670641107628148
-1.24630716348726
0.330477717997266
0.303923666707874
0.438307043220357
0.270033831293553
0.278305261421153
-1.31627805863527
0.595680832261355
0.279175783306987
-1.05164201940656
0.134282036555177
-1.01606194156671
-0.281777501516403
-0.267255163998251
-1.17050223647902
0.112015987636247
-0.147996636338498
0.309169068366923
-0.280527660336723
