-0.20745925197318
-0.303174168536135
0.0213685864661371
0.0641091414822399
1.27677655181764
0.974133489325238
0.514396194273628
-0.0721716297229147
-3.10310845792107
0.18616719318994
-0.412077800235613
-0.386304911248897
0.0315101155159239
0.118938652684151
1.08710114489261
1.64635124675482
1.6448365053848
-0.232758197739883
-0.626960197408398
0.505469172073976
0.648400081892045
-0.300788405198081
1.09500031564743
0.86717755537662
0.103309222272828
-3.20165806109998
3.00116565672211
-0.00281721136998018
0.0394996401260764
-0.0103115783527369
-0.00394209989653458
-0.803945058466222
0.775918642840368
-1.13597013211341
0.530234360014284
-0.0857759516482568
-0.122437738523491
1.49761359763923
0.0182583994610377
-0.0196108082760204
0.0557026680139472
0.104174421260783
-1.28922723055242
-0.0159521593686286
0.0142896281906746
0.613890968725599
0.698542516567105
-0.0833412584669684
-0.161536114775038
1.02095347619351
2.15798124226797
0.460808814024334
-0.0411430738880244
-1.20740982504672
0.2190516006438
0.81063980797911
0.711147109249725
-0.788026312734105
-0.204865288451374
0.2099277594583
-0.936768432511717
-0.460501989413148
0.0702240655155703
3.19393261864252
-0.182657574663546
-0.247725061397441
-0.258137236171014
-0.119258944650136
-1.11456358564539
0.0219663900144873
-0.420405240293109
-0.470169952111765
0.0367074734765366
0.0504146056702461
-0.0923098803773706
-0.0071546545375873
0.510015996999087
-0.0059487544780469
-0.0433364596370618
0.0623183044304285
0.369900548211633
-0.359141065985438
-6.08254738555961e-05
3.36622969450595
-0.0323775139577797
-1.17172912401283
-0.426609287572347
0.0432112123094248
-0.158084952555337
-0.161004315198591
0.845321576615574
0.3271913776693
-0.0336996780660238
0.282662968667135
0.128200353476869
0.0310776769548078
-0.18980296578312
0.0109134630572187
0.0115858953752139
1.35666016601615
1.24002826897625
-0.745691489695453
-0.944144592824862
-0.0784343801011088
-0.00877012983004498
-1.28113647598638
0.00307351143748326
-0.429798201022015
-0.971433748827961
-0.06355115749024
-0.0614859261151569
0.0394675556144342
-0.700583978177331
0.0511000263056347
1.84633265911733
2.80128145235304
0.864133466525993
0.702613822303144
0.78590736718627
-0.679260509576989
