-0.476308515986373
-0.540448764023904
0.084992537428378
-0.609676076013211
-0.0607219409842103
0.846888249014958
0.689095607803946
-0.0720030503298631
-0.375357280653133
0.154087649275398
0.0733556815635596
0.121277552910455
-0.0345943438150335
-0.356103679627149
0.00406566040682783
-0.00183089432347482
-0.0558367060467335
0.104562330227619
-0.0139179008681531
-0.353678348787228
-0.844492505445457
0.312224354962937
0.0302267241224002
0.0274838074401215
-0.0994986174687353
-0.682885943601551
0.877482785278237
-0.00557342825967774
0.00251009412662394
0.0387243177067412
-0.0583856812564023
-0.061536084424406
-0.165546366527844
0.00665769935258352
0.0999829158612845
0.105276051039443
0.0684243936282034
0.105726249285819
-0.0447302014194436
-0.0692177631840011
-0.0429540693376585
-0.0467504148707305
0.516487272694219
0.0225633288295661
-0.0433582451502036
0.0732344667989621
0.0268203767451905
0.0797263648089645
0.00983454410492617
-0.0423881874253377
0.114814778239581
0.055805457899927
0.0899955096679012
-0.0203142712674874
-0.0740564192847855
-0.402804471959505
-0.410848730717105
0.0658422440608113
-0.751839494284283
-0.00359040869446059
0.0752482252770421
0.0688093724809646
0.137059475677829
-0.055275511667678
-0.0649761739555008
0.301921927743968
0.435734143908561
0.054356838136418
-0.0701175936802439
-1.179278551418
0.0415834694746514
0.0495857161551306
0.197083133717645
0.0872980760625161
-0.145281695841431
-0.444245809766869
-0.549460633925209
0.0799193264239481
0.68671497434111
-0.114019412038241
-0.224417267847126
-0.103267690410576
0.0191182142756365
-0.295086724368633
0.251420911958559
-0.237794339658533
-0.207061599068635
-0.0580540850294459
-0.00184811603460634
0.643940373375512
0.202505975415729
0.0235022922701999
0.00403138085016498
-0.047967204609972
-0.12348539895645
0.110799753846957
0.0643702973622293
0.0946712599165394
-0.0596464368309975
-0.0653573472834735
0.999086814971411
-0.990901948258425
0.00140480718946784
0.0269437813419604
-0.0110644365923603
-0.041377230807428
-0.469732596035394
-0.0408932221430733
0.0475151284543512
-0.00860446216115914
-0.678353940945715
-0.743285805924239
-0.559174592479905
0.586245643442537
1.07407861045769
-1.05897588591153
-0.461575665904448
0.403739393066329
-0.703719345105309
0.120584410748335
0.232466300910013
0.642618457413206
0.445485771012174
-0.249207835787925
0.45881524923502
-0.436352520101681
-0.510276683966835
0.898115866038662
0.44009778092914
0.423402552607592
-0.876969975387088
-0.737975470057298
