-0.279655155134524
-0.0365337817778903
-0.0292922443586481
-0.105688658979884
-0.0397717127105148
-0.0221355654570305
0.189161609185149
0.0439788447440575
0.0807894361334528
0.0603842727083841
-1.87367129557885
1.39721298359094
0.00348205216674637
-0.0652559043362398
-0.0649037871378471
0.725420101127533
0.614368039503137
-0.0405225512945489
-0.484285668075909
0.0559183161719752
0.287929213528824
0.0262299149022793
0.0339718710550935
-0.138605936848975
0.12810090495259
0.0337340818029701
0.0542114264849926
-0.870950327810053
0.00243651439155582
0.00947252323596925
0.197696722812032
0.191566223529733
0.0373166050260523
0.0959887370406898
-0.0320470700321599
-0.277875737781638
-0.241806520655166
0.0062587268005584
-0.594094435216121
-0.00546998410155152
0.121665589806074
0.30178719801358
0.0193344452375813
-0.433376862832112
0.0311292383343355
0.00791509474455029
0.0560161402026663
-0.604387568415037
-0.0253540043618211
0.0077586616958387
-0.872423711157135
-0.56320111652825
0.0484521137926748
0.745246902879619
-0.0812485121136306
0.521800366472836
0.0368353338420898
-0.00366974932904028
-0.0462780009542149
0.0226433945411749
0.062186823694388
0.125210554837877
-0.00880649348119308
-0.00272609704093063
-1.0132141202184
-0.164973192721047
-0.134764624467151
0.137137955005564
0.0112267686005381
-0.0381930903014636
0.928540451508759
0.772061307001428
-0.0677589394582882
0.134806842279997
0.116249796446694
-0.0887608203665943
-0.151156095349894
0.0126740350779456
-0.00317188349274565
1.16827375744645
0.0637302563128675
-0.192316663802175
0.00717944818733368
0.489322646204436
-0.00957570397647279
-0.528084596699017
0.0289671842016283
0.0885782812104575
0.25958624098723
0.0548051455077199
0.175523207127536
0.179747045484128
-0.000259968121932858
0.99964895712681
-0.00243023328951035
-0.00918760321484722
0.216593138558417
0.0172931914951766
0.106995224214998
-0.0174279819498909
-0.0665364586319705
0.0143018375326221
-0.468791365841346
-0.276081150352134
-0.0123508425138298
0.208086628098703
0.0492530612211419
0.251259438203632
0.0775407426008014
-0.350891843945806
0.500632763296229
0.140523508077264
0.0205872940581173
0.00764478738900684
0.0219911266749994
0.0578727714683965
0.0149258755198531
-0.186758145583088
0.829196704384381
0.097855987534623
0.195914763725528
-0.425352274815203
-0.672152706643832
0.393695888674109
0.197293376760716
-0.212360335129311
-0.484981850636868
0.522460326524311
0.562981460532952
0.420164015950314
0.490143256029758
0.868611051356332
-0.766745833079397
0.446332782951004
-0.166367909808335
-0.452644135720315
0.772675280908461
-0.347763554238006
0.189046726113027
-0.480982070863521
0.176497327454759
0.0525285803006324
0.0501664232398169
0.872446971625969
-0.0194135201112556
-0.0994584668273826
-0.028386222677395
0.353453039280092
0.240448424138732
0.464639899382692
-0.0544704123377292
-0.187399645799096
-0.535147836287671
0.0612813628150896
0.360937858332053
0.203104210997877
0.444541543484922
0.389332618309544
-0.00115887445571313
0.128498394864499
-0.0682443027800526
-0.0891426715711252
-0.67024043972752
-0.0771945007241656
0.18880065196354
0.0406842057203705
0.0546552764969923
-0.178854006089638
-0.214195083031551
-0.333375613333805
0.248788726552035
-0.353757742506004
0.0692802800764185
-0.181049232443597
0.035570141019928
0.0657232013984203
-0.350892504809682
-0.305754951091154
-0.0181136585391198
-0.13514651283425
-0.192045786764112
0.170281946515943
-0.0227153658604088
-0.239974312943125
-0.0899639676362403
0.225336207158777
0.274937427154802
-0.40000124028544
-0.784612223607654
-0.455871122999253
-0.752952049780459
-0.695444711319957
0.807700909919967
-0.162386554281171
0.264873101551821
0.453787892010358
-0.444444980354791
0.221929722187987
-0.851928977875162
0.380490188757728
0.474187373574104
-1.67834106328287
-0.816081679369263
1.06823903438404
1.45314019212231
