-1.79456786043752
0.231156449527897
-0.456705481803612
0.618145644447475
-0.0224303637436064
1.23225558894829
0.362934758839839
0.209782688910874
-0.44933131462109
0.231349159807251
-1.02822125040626
-0.501287643714167
0.0732090603526167
0.211312971937923
1.57079874864204
-0.880094198296867
-0.761271352575264
0.0366884378563082
0.088881597278569
-0.125375714749786
1.40675309704229
0.456692749277787
-0.156475274622056
-0.200491349924291
0.110141858463063
0.994452752180882
0.287224949330584
-0.126054760677102
-3.74559052093127
0.189868608822808
-1.08246412494602
-2.02061976180868
0.101097304895256
0.4152503927079
-0.396679049027837
1.15827510019516
-0.45427534061789
-0.0231892452795624
-0.0258178375702752
0.039453187688955
0.329763995250539
0.196101294235667
-1.75595025883606
-0.09044458005339
0.0585282753647393
-1.3905501392125
1.30642479447196
0.0513738432518211
0.0101091505008613
-0.0267360393995012
-0.372871831117806
-0.275927547341006
0.81375467264245
0.253325742007612
1.28873470963995
0.643793247265915
-0.0768818366219473
0.320097566120612
0.256796108822089
-0.256096376077171
-0.215501182898037
-0.395074198086275
-0.153007548650511
0.0270041413968853
0.0941788008117246
0.00152080639191996
0.0457368920641104
0.789529480527609
-0.237951080440298
1.0517218478848
2.07395608762896
0.57133015226442
0.693896403085193
-2.07004268724291
-1.29319064818489
-1.68925830273258
