0.17259069599263
0.226607710919894
-0.0179883173664643
-0.0544422189727908
-0.84220217002866
-0.195037714638105
0.246316556740097
-0.154373451812807
-0.241735283606913
0.0527818386107517
-0.535603279681017
-0.342961481525631
0.0543395865097127
-0.14307928318206
-0.211889538886924
1.05212386498431
-0.821473391445192
-0.0379790263088776
-0.122484248776522
0.0184292058074009
-0.164933106141914
0.256257341671056
0.0859796459542367
-0.538150375345289
0.0633736594237817
1.10301915366621
0.807486167893991
-0.0899719442699328
-0.345028495553049
0.264187107858225
-0.220271055580266
0.359965777253026
0.145114439144147
0.0821317987975123
-0.00977403073059479
-0.0983385950129838
0.0761185020120233
0.560229311126467
-0.0164813504508838
-0.00761931995857114
0.571580962001698
0.488035217309809
-0.151458316881764
0.142403090776429
0.156068903761055
0.410217797227296
0.679296419329528
0.0860738030689954
0.0734830970229653
0.108789692918426
-0.0868375636835741
0.0156472748155089
0.889889107473085
-0.0214008907786083
-0.012053702757222
-0.204714209006341
0.149153371640336
0.0330748687840369
1.27389076180644
-0.0897224948942293
-0.197869294067905
0.201322111406727
-0.096042083537891
-0.0112009949301523
0.129729615999341
0.206856655939148
0.286312167654254
-0.127331915100985
-0.262335433595488
0.102144758074289
-0.751319409308937
1.08699897413593
-0.01677426723844
-0.123560914800263
0.0163129153133186
0.29916464951545
-0.0558037346963927
0.0233691366829676
-1.45115174109655
-0.0121939541935315
0.163352568712683
0.129298757356954
-0.0234100639960721
-0.192809783360699
-0.206699507306939
-0.145316504239659
-0.641163786837403
0.0272661584950936
-0.0452600359729106
0.140277876247772
0.0814525324825719
0.0721669802524497
0.00255296591991398
-0.00384343010669936
-0.575655794343568
0.172453017969313
-0.217276698302541
0.148202298598037
-0.16256801718033
0.0300802084293996
0.0770331679343803
-0.182166991422672
-0.199435170571995
-0.259857089123705
-0.160028056028809
-0.166676613502307
-0.178686809018335
-0.149874656727663
0.365928537759039
0.333476000440763
0.0463503502496898
0.27313543226306
-0.217296096899089
-0.061228700854228
-0.369119499554665
-0.325259008284417
-0.0995474411383349
0.00587187804112146
0.0528387937942915
0.050962088325761
-0.371696370331962
0.0628616449533871
-0.00625119038625641
0.235549412615777
-0.162294386559181
0.84173051472312
0.262560798427426
0.227283822258089
0.0558877780881537
0.110001921917176
-0.105934313372343
-0.11132002260578
0.311377593501528
0.308614010752156
0.0989223111170597
0.0232213922013198
-0.617262702484403
0.0465563539564895
-0.0941251337357138
0.0962688652122509
-0.192346115146956
0.0593495008678058
-0.0732176031489504
-0.42890958578208
0.0533174390131865
-0.353454269332767
0.313513848862162
0.0589813910810326
0.0463853844200174
-0.0937986485575216
-0.0143614137290377
-0.224667283094117
0.47373867209113
-0.525141503074572
1.11323912024576
-0.219061023390088
-0.0534379613102451
0.128328223656244
0.472552904461672
-0.199250104124367
-0.226239122476259
-0.0733619185335136
0.103511904482148
0.750044067488131
-0.218341717806747
-0.0563103099507858
0.219950472750779
0.297163357722224
-0.00519276924999377
-0.0140593136341961
-0.112071485185216
0.042134608118023
-0.00779367146545577
-0.28239142848969
0.0653394927995839
0.382389261757888
0.0912570486593868
0.0641181643048619
0.235521175650386
-0.0300255547428753
0.0213741816020635
-0.0905315538719267
-0.0334969264351767
-0.0214090074833275
0.201872087629298
-0.253296812953192
-0.0151142316180856
0.481204143359732
0.290611401906455
-0.1083384506441
-0.162228516976949
0.00752569824148039
-0.337233381645893
-0.190397922495223
-0.162110491175848
-1.21609162025158
-0.384426266382464
0.0129340819630757
0.408629888022965
-0.186304376248455
-0.280767304536318
-0.0648670070091732
0.509668274357433
0.263514463616147
0.00343292584672788
-0.251653632269824
-0.26316208261416
0.422765885141737
0.0855357395378078
0.0508749810214217
-0.137911275239497
0.0693748230357804
0.00368944820422086
-0.46328545755674
0.0419489401883989
-0.366753396726556
-0.268807971391435
0.351512065067327
0.770940051191825
-0.369557969594784
-0.150219435032947
0.0423180230022204
-0.276189837787934
0.435944463487957
0.298794202490606
-0.487276087080071
0.336053653112731
-0.132729377324268
0.320506647040501
0.356249862203498
-0.0659740929704385
-0.286117865298914
0.211040121257708
0.21921543368977
0.518811735272769
0.191970672712975
0.311161424394037
-0.325529411431042
-0.175939764013355
0.0786241085033212
0.172469250867501
-0.166542350020425
-0.270690393053411
-0.497063456994827
-0.352083553769951
0.190509066716075
-0.127415934260135
0.151339147104746
-0.0607869549227479
-0.231017421906325
-0.0417208844034416
0.947677246951277
0.122571674013899
0.0546189702760698
-0.550043783922404
-0.579608262188572
-0.167507999823981
0.141495447241901
-0.127686065645106
0.282207286286358
0.0268326890444681
0.345090804847067
0.0357222640614759
0.637580393214184
0.203471225327767
0.469318967414062
0.311910412614427
0.298170750978054
0.0021272322863422
0.175919547107071
-0.116822706946332
0.112693935177942
0.243887024465499
-0.268289894282605
0.20528621317121
0.0689073887030581
-0.153745912421726
0.0212859657486393
0.532014122732275
-0.550017731819355
0.0473486335788775
0.0312153443604606
-0.0178548596944756
-0.454153906932197
-0.0294981416290426
-0.437162920998003
-0.0310999914478158
-0.209820530844416
-0.279528995260625
-0.113499872431265
0.0783224080319832
-0.320055675426726
-0.00445871439345987
0.252847753329138
-0.0592611502828112
0.243061405602435
0.0115695395675339
0.2542385645964
0.0936488108178738
0.0904919478964001
-0.546959960013044
0.314246117890218
0.589476526079148
0.898473844819215
1.20918498504312
1.54864266304672
0.432830367514412
-0.756455982217294
1.17077525924089
-0.718148784302769
