2.30484881812378
-2.70529415975051
-0.145727797531701
2.19383171917912
-0.720547440029381
0.794926194265416
-1.38740782075446
0.446216177932471
2.2947016807206
-0.844176731901348
-0.23460470281644
-1.66628479431702
-2.11022777014251
1.45445209442431
-0.0998728336032777
0.755582172315785
-1.51349712407851
-0.538062964038142
2.34521809283158
-0.722839850788142
0.646227561041301
0.690325467816277
-1.01525303640196
3.13550583299944
-0.944371391689045
0.880415514982673
-0.0992164531157038
-0.0293187983739011
0.203921237468945
-0.0709569524272714
-0.398741539187822
0.300138234920945
0.174372767076202
-2.67253794683274
0.881646152360042
0.321147742217318
-0.30062913970404
1.73889505923752
3.82272008952037
0.276713084053316
0.677595409793562
-0.560322277174568
0.0918798058561826
-1.18375532753095
0.390291738419724
-0.227655778455649
-2.01079032080929
-1.08164249062158
2.90755229407033
-0.832234901083873
0.148717689736926
-0.00436564421289979
0.0181968708142596
0.204860073330089
-0.291420492373222
-0.972106485495884
-0.73182330503423
0.0540105245184739
-0.668589058524818
-0.00773676766514834
-0.187156565038423
-0.0116015507819396
3.6387009991624e-05
-0.0364284187779536
0.0194832755324756
-0.103127433609288
-0.200796600735486
0.00239921875366861
0.422547827641888
-0.00795700357353717
-0.681960828932833
-0.916065249444127
-0.316682304068363
-0.773422476042017
-0.238735094857036
0.0368119530404401
0.100491280166446
0.0281121250616705
-1.10290312222516
-0.62977401201787
-1.0518714988164
0.0128056803179857
0.0114478206869661
-0.189084013180744
0.0719904178192433
-0.400362307006007
0.364427333391164
0.0502635521279393
-2.28098940709341
0.00446034705746192
0.228240107076263
2.65477975913151
0.000706338911901726
-0.220665652261069
