0.855413703596981
-0.828415236243388
-0.00594972234860971
0.706885855607882
-0.695160910735459
0.0175410920606696
-0.948153980496537
-0.873018795690097
2.71425124195262
-0.776150604968352
-0.638351912935256
-0.0849261692146009
-4.39429168626437
-4.66180366783679
-1.26990244579538
3.93660027783957
3.9491882513562
0.0727324731951361
1.26550428522501
1.40816094417406
0.0124330785305511
-0.0305958619208873
0.0318202517037436
-0.00726590900258427
0.0375797555372296
-0.0213133468135044
-0.000832458406699323
0.0314060847784237
-0.0310264265782129
0.00243316768669497
0.901996710162431
0.824324020190784
-2.72296143856513
0.816723106362304
0.680619992151988
0.0855322431471268
-0.276376796150094
0.198128969406296
0.0288340471964247
-0.205897399918744
0.207723063135933
-0.0854500610624392
4.5167331158583
4.78230559327896
1.35347200224538
-4.08240326661137
-4.09527760309786
-0.0833344066594059
-19.5623991971441
0.0510217689131873
0.0159194734864849
-0.303757950895772
23.7031308211398
0.0494127278905942
0.644064227108908
0.0157058545881662
0.477324009270002
-4.50184103127486
-23.1274769298922
0.0139297870430852
-1.71306257958622
-4.56339495623662
-0.228742222071801
-21.1594068629164
