0.0633723192914174
-0.0684229059010286
0.000239209033574543
0.0603080649379652
-0.0539059108289221
0.00117599449645617
-0.518726767991711
-0.513707266227941
-0.0839089326582103
0.527007353748189
0.556802882436624
-0.000413577449838994
0.189423609332425
0.194326586065774
0.00116136593963285
-0.00737963474793838
-0.00907786642108283
0.000934582397630686
-0.396001576526014
-0.382226469424206
-0.0299792488534287
0.23492844536054
0.262829545137271
-0.0238292355706181
-0.220923380086192
-0.230580842886202
-0.101105442791496
0.385709151177604
0.390340306704278
0.00447292647524363
0.0228438669510596
0.0226308591425318
0.340699477160583
-0.0904272453274789
-0.0897502628428917
-0.00211854140107548
1.02818167352036
1.05629379706087
0.114649549937323
-0.861097497393462
-0.888545040534733
-0.00178545415824115
-0.116087546212091
-0.109979076915554
0.00553938279761707
-0.0143676640140723
-0.00508392724284253
0.000873449608819303
-0.116497850487352
0.186149995330365
0.005769868754268
-0.106835501882694
0.157149038912817
-0.00300658833022388
-0.162923901037864
-0.176120523303536
-0.585216052020772
0.155152408807108
0.158509569735882
-0.00590704795735174
0.00160978781640372
0.0016232220248949
0.341322943143749
-0.062663280682712
-0.0597930328639982
-0.00582156254318961
-0.234930311912192
-0.23981668242361
-0.00355313181967942
0.025536660561388
0.0275302999919328
0.0019334505918325
-0.193571503090578
-0.204575481431318
-0.00257441198033235
0.443301639242053
0.445637999145821
0.0121930416412335
0.830869976963767
-0.776620510807932
-0.00497652497899417
0.676864309513857
-0.706692423103126
-0.00420577484602758
-0.102091083643394
-0.106808737345352
-0.10514053479183
0.243027685434944
0.244936544257226
0.0050563494840009
0.389922592565238
0.430126655593522
0.045192411617664
-0.175256395009576
-0.156383211620421
0.000465330055638689
0.719099560007542
-0.738019207444318
0.00406067816147286
0.658964670982208
-0.59499484864389
0.0029202730231309
0.428337814906627
0.0354028673138153
0.0529064096329809
-0.173776147208008
0.056946379731268
0.0122416883821375
0.483560079196079
-0.197282355663551
0.284287197094075
0.0705717116251698
0.110858972950146
0.288106437280552
-0.0321173714781358
0.673047579660008
0.028331350118083
0.215536393040308
0.0963613691725216
-0.030559031063687
-0.111498289701764
-0.0721177088929613
0.239137747385585
0.112398438288065
-0.0897450699555404
-1.71842429449204
0.158592995583778
-0.0132819374671851
-0.583403356166648
-0.244247977257771
0.034275310443216
-0.0105330606936068
0.00720041873363161
0.451970681538909
-0.280222844409774
-0.00516686879423194
0.427297429595429
0.0280982839551738
-0.861306116352913
-0.00882851525740029
-0.00299113834831454
0.0689527361220332
-0.021791893072753
-0.885215758327315
0.121643999622046
0.261031699963254
0.170077344483301
-0.397002814742346
0.0617384031099136
0.584078605155744
0.0748685652678186
-0.369389353624872
0.132911321615874
-0.497933165049249
0.0522326097888392
-0.643972175255808
0.159796777508993
-0.193406066243916
-0.349489075069958
0.0632778266319484
-0.259026626550097
-0.356513365848343
-0.605037057223869
-0.770858568787491
-0.319426604963122
-0.587567800738314
-0.0198783475775324
-0.82729583641251
1.27933626430352
-0.0573787663843694
-0.024845198973723
-0.0617034401842639
-0.572428751013224
0.159014360432986
-0.00968091254708583
-0.0689763171749857
-0.380484300723249
0.20518819735536
-0.182400029047722
0.0305763907774069
0.108170562414269
-0.303961179534602
0.0272490396887997
-0.66785373095343
-0.180460027260981
-0.202240765826093
-0.000325868537196644
0.143723185476053
-0.0384732891439251
0.0839820593877017
-0.226807467031325
0.0532747047713545
0.0873029638928104
0.822379207584681
0.208317096468674
0.057689227646616
0.296061742646691
0.355352900404659
-0.0358204202535692
-0.463336258225456
-1.24153538994666
0.138437523282271
0.0939150321106829
1.35887287559026
-0.131385546707655
0.015282449072169
-0.0998622162760452
0.0304352570298085
0.0107124379342676
0.150259371204053
0.483522055586615
-0.424091073325405
-0.017234392498963
0.808902287417177
0.682064824466227
5.35839573006565e-05
0.370046211012585
0.467962714177237
0.527865915120256
0.170133756654464
-0.749292352852515
0.09638998391586
0.0305115293581271
-0.0143775355641746
0.033304236266597
-0.0120650270505504
0.00229656059032633
0.303641583127131
-0.623058483755504
-0.900829434466788
-0.0120059150186524
0.0157327023379112
0.0572509556771531
0.0553113924064784
0.0276080659594861
0.0377966912537496
0.205309802209619
-0.275117799256174
0.355529127278441
-0.0104104522169812
-0.537732742001584
-0.17388719236036
-0.374695985662594
-0.289204409202784
0.306180033065168
-0.74745613982066
0.0920295214174362
-0.274964932138323
-0.252903799019745
-0.225333883890574
0.287708427432256
0.0456296605290644
0.131964222617109
0.608821648984366
-0.0447356044461566
0.469269383872246
1.49746586302006
0.0486966791031428
-0.97040769153681
-0.945736267160829
-0.913535325487958
0.915677173335004
0.170151715816972
-0.0638767337816802
-0.701145702831378
-0.446382484122878
-0.688502359868733
-0.341586983717262
0.0301432329823223
-0.561864928073918
0.970919192046985
-0.0503100401896717
0.170157210721862
0.112838922076474
0.0462607437925444
-0.0409381600311101
0.250752280654574
0.24964314424757
-0.172148806916049
-0.00120789870853618
0.0137665523026012
-0.199912729190134
-0.548998416859548
0.00625302879747724
-0.0119072722968255
0.00901655473829936
-1.06757602050407
-0.0457960333368814
-0.0107829133529791
0.257168553979169
-0.157863393400893
-0.0244264818034419
0.375130783283714
-0.051945834098133
-0.133530292192549
-0.58321484925729
-0.014139782283547
-0.0201253918914341
-0.677319182864095
-1.02668873278362
0.0886751344506027
-0.542583551801738
0.0066696518391792
-0.605083063677581
0.179707298411085
-0.0159415409522176
-0.0490516716700273
-0.0885323127269046
-0.368080249746251
0.0219272087750912
0.953293860827203
0.0765687446680454
0.234573248318105
-0.662315398702239
0.0960985482611849
0.517867828451446
0.695891769755222
0.0897870342564146
0.366077618744338
0.0068272716967838
-0.637891041540347
0.089293150238526
0.00334697078207196
0.120036064822162
0.0148367538139819
0.748110287662758
-0.0125639336450202
0.0944755021149236
0.0558626246219377
-0.27946730814927
0.886229633114825
-0.095203922764992
-0.0527659598801008
-0.0670837247207323
0.054827375623992
0.026635967325958
0.000341935647488096
-1.10575857635973
-0.347547376548595
1.68142904089818
0.00391124836643465
-0.601645966966123
-1.14521475097692
-0.02838985927568
0.94390554890319
2.69147454977882
-0.792367789661667
1.08756201969011
0.953367869392224
