0.208098607130705
-0.684118598741988
0.34663759919807
0.200752662082656
-1.21929821586006e-06
-0.285276061721473
-0.158197915785892
0.0368516450197687
0.159977063761726
-0.0654759589574813
0.0556125523275662
-0.761995081939272
0.406790467994662
-0.412640179409955
-0.108845194860865
0.234142438081163
-0.112455610171481
1.86982826406759
-0.466138706790291
0.0955109880615302
-0.0515736623503036
-0.0184154559789918
0.0833775460398757
-0.834246938435893
-0.00047820413401398
-0.173661808335913
0.671474046507218
-0.865325892736423
0.0395777269809846
-0.237233295264306
0.198867137823949
-0.15627881520182
0.474529143312613
0.174041506299578
0.322854087728188
-0.392310583456223
-0.0235817865561476
0.354675740989014
-0.0549208133558699
0.532844316145286
-0.000257856363777796
-0.00203176856298688
0.0188731847138849
-0.471988345811607
-0.105683804618545
-0.0911347374667341
-0.320660203576501
-2.19328205034931e-05
-0.0171074001549963
-0.000216693216230398
-0.466024206967327
-0.125646657452763
-0.000168698151178196
0.425599282368559
-0.0908186729818558
-0.00101784876372324
-8.07309375327505e-08
-0.725796812664613
-0.453305686773612
-1.03137663929686e-05
-0.753741381662552
-0.859994465623386
