0.490502826483278
0.54170965265269
-0.245254838354758
-0.304893812671966
-0.284203384644838
0.00568133050860105
0.150153488855387
0.152693652599888
0.00427534550180273
-0.0303203808776991
-0.0318701466373332
-0.00050830626846737
1.12197336131016
1.14885086196692
0.127800303609611
-0.833232292374332
-0.860131073284878
0.000910556025471476
-0.192785655016208
-0.188790233771
0.00130204928817367
0.00164595286355918
0.00999495164996548
-0.000577332389420249
-0.0483138369972265
-0.0487484388304688
-0.267362232663712
0.109618006137964
0.109985164255576
0.00632033259915833
0.170349592035003
0.206836744508348
-0.227676180127842
0.0672792454013164
0.0917090108684657
0.00362263535403283
-0.280931977478268
-0.279794513896292
-0.127921558444224
0.478591280264135
0.492407528716131
-0.000335291061478445
0.491403566467328
0.53393203072115
0.0296687996510228
-0.289182116078056
-0.273066279893416
0.000958248676904485
0.0905712076769123
-0.119696843105832
0.00197099416436767
0.0844477992005096
-0.0981088907242132
-0.000562698309519323
0.243695035684888
0.258618203373062
0.00554812091457558
-0.0186267786728842
-0.0129930742365121
0.000621521667577273
0.274700749741461
0.254231621073609
0.0939610932084623
-0.330248670826813
-0.358405761697132
-0.00153051701490093
0
0
0
0
0
0
0.35386926257015
0.379424105759203
0.0245767191325121
-0.321165535600044
-0.314518412221836
0.0122830337226717
-0.316096322143472
0.285887019297292
0.0115739682174962
-0.278299955109862
0.240864346623719
0.00227360887711233
-0.753476595788178
-0.78527628173137
-0.0446172256924715
0.566870743982183
0.572228534163229
-0.00453559547409202
0.227695093680348
0.219278151308358
0.278751005571804
-0.441579686937454
-0.457623290574593
-0.00452773936977397
0.285631661064997
0.324175322691465
-0.00114686122194909
-0.0270088703703854
-0.00327134760666855
0.00327699028043486
0.0983608243306584
0.105367727810836
0.439733123173268
-0.273394886022425
-0.268555966780633
-0.00792688937595113
0.480274227435442
0.712193981947151
-0.539198950546235
-0.414926439590013
-0.235259242200862
0.00594949176177687
0.249659485927299
-0.242035392871003
-0.000397253192893482
0.21507377657568
-0.208085884682271
0.000582811247110012
-0.191605334572992
-0.192454953734434
-0.0317392868587295
0.389273491116238
0.398710797934067
0.00788100027680977
0.357290009082079
-0.311795962776956
-0.00805973038793915
0.303725355435597
-0.273512792462441
-0.00369454986867867
0.301588163648053
0.335502100865712
0.00936037789591966
-0.0562547145333673
-0.0378606417508893
0.00121846882728658
0.19609276607565
0.183131579927301
0.0459216001943835
-0.465666783745549
-0.487134900315508
-0.00608394877799399
-0.35115519421251
-0.411870280401221
-0.00326801176817517
0.12934472613268
0.0911062230158008
-0.00320196954144449
0.152095016642387
-0.0875522302736696
-0.00282459631265936
0.110396978452536
-0.0974781387642787
0.00263123276303345
-0.314963230826991
-0.375535028575721
0.243398890000852
0.106580641056983
0.0692438771480966
-0.00613772682399633
-0.0016462124685299
0.000187755753722716
-0.439228000948257
0.0374038833838637
0.0353486092230508
0.00408220882703398
0.0536981834408535
0.143070545462884
0.070870873597282
-0.181954901342991
-0.108301198678534
-0.0104431321197263
0.0490110692409882
0.066901381909982
0.0205005235036551
-0.388000063237339
-0.377077885533729
-0.00653663062217008
-0.881777435421903
-0.913920123849251
0.384469327709222
0.656946733223282
0.6719331385725
-0.00657293966762376
0.10183821705079
0.10988116890776
0.0488165485056515
-0.22148636139526
-0.220610305720677
-0.00740842406935257
0.814367245295429
0.830989067847874
0.0284572782426003
-0.646381677607548
-0.668080003090928
0.00383973923026352
0.327330179651308
0.309666542871821
-0.000595470310994595
-0.454038395506959
-0.48330556200313
0.000627450486355323
0.0849275961559834
0.0781689130489122
0.165774841949083
-0.265460334473834
-0.276099875155691
-0.00851879681908324
-0.0747847316597668
0.116770702055797
-0.000627735177486346
-0.0790860680157404
0.0859905939954636
-7.5807250588371e-05
-0.480715323638926
-0.713379722266187
0.535247266297615
0.416758408400368
0.236470712113693
-0.00593884648274217
0.033516995102878
-0.0425870510471978
-0.015110472721903
0.0656434105974849
0.000588340045999378
-0.0590435528557667
0.0915426577734472
-0.144060690209166
0.000508499901777991
0.102559601933062
-0.100950543940934
-0.00354417936999017
0.315099040575443
-0.313564573830503
4.55529271895591e-05
0.273580733356933
-0.26664336192359
-0.000808051291465579
0.00299520156304208
-0.174081022414672
-0.012600764159207
-0.202726763562784
0.00455213806159512
-0.0126521578077428
0.00388206082364446
-0.126452704306102
0.28859498227599
-0.285736039986062
0.0273979184654292
0
0.150674658664966
-0.409627555245074
-0.0258297699577047
0.00110787816118646
-0.248123567874465
-0.00736922708313758
-0.025215304925869
0.466855260563224
-0.0259327135033848
0.542596403248993
-0.265192541245568
-0.0091041821181102
-0.184500395368223
0.268198430448966
-0.00127092490370795
0.000287023769388757
0.0295114763661531
-0.108436784535021
-0.0192478159580949
-0.0322580799133817
-0.0261604636224988
0.0170092156782055
0.000741432198857282
0.203994552501857
0.0244628853825515
-0.0200439616230156
0.280876360000479
0.587239886456735
-1.07384349513237
0.133800462971516
2.19689250405631
0.18668332979456
-0.389835705518389
-0.546700808239875
0.832988014348359
0.899506957317968
0.0282318973413286
0.247385579259805
-0.640159294026475
0
0.682483793262988
0.442160429937013
1.44257282742944
0.872960165626568
0.419152874375406
0.838667635709355
-1.12083429361417
0.00509715565759393
-0.633148775858887
-0.391065979993598
0.45894136209713
-0.769095912160378
0.626233158268512
0.0322557981498709
-0.766780689165246
-0.607984751194464
-0.317974862098305
-0.653464927883397
-1.91510948002604
-0.350499281349031
1.58636405366116
0.815709779424787
-0.471848207863389
-0.016912771084374
1.12077351622473
-0.110066992805653
-0.0275818964052508
-0.0156638124816335
