0.051918037924519
0.0103439617355836
-0.000583372205230331
-0.00820251314526511
-0.0455406664873477
-0.0510045222292827
0.795848036164027
0.802542703263771
0.13566572669719
-0.874156666888703
-0.909532755222584
-0.016261806340358
-0.55447511456046
-0.540414023970869
-0.17447419018697
0.793646659575635
0.830638788452823
-0.00234668479122027
-0.54357710107115
-0.599606730171817
-0.139043043499818
0.517192503055477
0.49270178803332
0.00544592327244619
-0.357847545078322
-0.365841760780057
-0.15691413795955
0.884863903961839
0.904619524849403
-0.00893730390383235
0.613577220861176
-0.596695081968459
0.00104909125356762
0.523556126295088
-0.519308107430964
0.000687487554961619
0.532073497728584
0.531120442982957
0.00959898250094498
-0.0415188780033986
-0.0591111757000435
0.00474208247385565
-0.27987929853868
-0.294953048763969
-0.0764398849418912
0.605927012608721
0.60853136848255
0.0145393367266369
-0.243429451672899
0.188299796090941
-0.00125579499025499
-0.183690931993771
0.190901119190003
-0.000742274356961032
0.0649456453167878
-0.0890005212574367
3.25749079640191e-05
0.0705098088580566
-0.0635265063078031
-0.000945336954060235
-0.250953341818939
-0.25339862114552
-0.757051928717678
0.624062680247641
0.630552197532641
0.00294632609155649
0.227302355959079
0.2272152602788
0.0771024583674256
-0.325829586017595
-0.335422898335876
0.00231292835974933
-0.669887927287161
-0.678282237045555
0.0137247934644954
0.016325583008301
0.0336303581052238
0.00520316933874852
0.562406757790866
0.571219015320041
0.0812285318688393
-0.483028616670926
-0.501944355459862
0.00274686326807864
0.785754579186682
-0.707793903828789
0.000342788332784407
0.643353093470391
-0.648475190960116
0.00209352809475611
0.101525655387867
0.0671067560441397
0.0133362000939414
-0.0494505148988508
-0.0831368121180958
0.00655977375697626
0.32289825855243
0.344044785528716
-0.660337011994724
-0.145780618934628
-0.152385053997615
0.00520635156919005
0.762383566317524
-1.40978943000686
-0.00536089334032744
1.00537954701094
-0.870677857588963
-0.0101238055222311
-6.58436828889922e-13
5.02231122867432e-14
5.21085700232909e-13
-1.59610760298351e-13
7.1771361181462e-13
-4.86974946727217e-13
0.176211765183437
0.184649979765685
0.325663431823053
-0.416273953620998
-0.418064664964654
-0.0100240030937868
0.489405707542781
0.540721751928107
0.0238295105026542
-0.110543950179502
-0.0875933758619426
0.00086275642041949
0.153375582913342
0.183058310567601
0.0725298178188647
-0.534724084707547
-0.517879734837507
-0.0155023403459748
-0.0388132754044375
0.0992275917969795
0.125682409991901
-0.00584057880229785
-0.0403328672285217
0.00635601476895439
0.212803918627082
-0.0525987365898594
0.0155896245741178
0.305424303077301
-0.0370386829688861
-0.107012994435055
0.00336002790860967
-0.289779637821551
-0.0193797917172067
0.757928014795957
0.222856674865207
-0.0108613360970277
-6.66686083829059e-13
0.0122387624246235
-0.44457118861794
0.0443784347518088
-0.0235339265785838
0.290491127009504
0.439990488533305
0.161774950867519
-0.043275102471502
0.304558391231543
-0.280291350625768
-0.058746260954433
-0.401030012120039
1.45172212649697
0.0398770983423734
0.0820937653972185
-0.251016177869153
-0.0119177622570092
0.837087787319721
0.179442007012889
0.0229018082029999
-0.00426063179422446
6.92685657128429e-13
0.0243503234269609
-0.696224542528777
-0.0600793843723045
0.164223785979654
0.627248254309149
0.0320279569753699
0.157913677891515
0.0320976076942764
-0.0168083547018221
-0.0272609978448297
0.282504038787645
-0.0212512956014949
-0.183927984251617
-0.244389464219492
0.203144280888468
-0.046864637010089
0.00494468971408235
0.0125948695254683
-0.103663002697924
1.1838665244828
-0.00257419860830074
-4.99887854980813e-13
0.63201518150165
-0.301229978249694
-0.040111915550126
-0.186185728889907
0.893051264334426
-0.254496864451866
-0.949782075170611
0.00301157274040837
0.0318985603238768
-0.472983475545117
-0.518822830917729
-0.0599420314181902
-0.635947964693878
-0.0541097176843755
0.411820223887411
0.642282116209046
1.09016684486533
0.0337997997980837
-0.19661980879544
-0.0840388750066597
0.0128179655834579
-3.57336101025713e-13
-0.334794268082047
0.831999990962357
-0.875652387878313
0.0636764928795033
0.208601133896026
0.040503001153369
0.0968297807809852
-0.168893171831305
-0.012587806383629
0.0131929118315625
-0.0118722275477808
0.0130290075593171
-0.103280238343897
0.0873843548619515
0.240695906606308
0.0221995579702844
0.0825428994287204
-0.000708910507352035
-0.320259569991808
0.726618260865499
0.00299763296597368
3.14051091607651e-13
-0.271977341309147
-0.321786633154575
-0.357903063302069
0.031433582033616
0.170120535109299
-0.066821484672548
0.0470762606398234
-0.0157864527844082
-0.0137253302587292
-0.0143272421783366
0.132717666747191
-0.0144128408388796
-0.30494586439073
0.000350658137630234
-0.0171365361445346
0.171576047615082
0.204958013707619
0.0184661290147445
0.0127094014044529
-0.00194868229145459
0.00308875462018304
4.84375590309106e-13
0.000187824706755795
-0.00127946472723952
-0.0103106947572069
0.0813346221630529
-1.14020929756216
-0.303290788357516
0.108804288393232
-0.850290540242476
-0.0097010825858757
0.186373095002311
-0.684046555798124
0.0193171830564847
0.127651103407336
1.59624177706272
0.470561216159434
-0.00936342563096978
0.500465347823018
-0.00550521707367144
-0.00168980962093761
0.429522908182756
0.00166489239810405
-6.35417725303136e-13
-0.662789995327415
0.833914905747351
0.14339663914381
0.0158162959833937
-0.0517576239347614
0.00092393597816161
0.00599212023997509
0.00522401487480666
-0.262123649384737
0.0295574172841685
0.00770676923851794
-0.413098041225206
0.511834289450826
0.00205283926488153
0.0272454255313572
0.0266326403718269
0.0801493297881976
0.29977653818322
-0.125852466880886
0.0179671085590948
-0.0598985535379043
-1.64861019399831e-13
-0.00132577007979984
-0.0518402576977796
-0.013235706650227
-0.0644976754619641
0.0140972430510578
0.100318181912229
-0.0806387258949302
0.0195025700896199
0.000298462650856478
0.141589836593897
-0.228009138517393
-0.00173650914573282
0.0934298739508582
-0.0247938596969628
0.289635710687739
-0.717961529142881
0.15949481287745
-0.00833409967976543
-0.379718940183369
-0.360181061508623
1.76979993133308
-2.8759966783051e-13
-0.0783801842045604
0.0555881689461752
-0.0502614169030493
-0.032196453748883
0.84663403765953
1.13556971339211
-0.0521437412116637
-0.724461615424248
0.0504587544471059
0.409411885916852
-0.489621840875569
-0.134105796049615
0.968813501948128
-0.00547370104133886
0.276568831846669
0.0262975416279655
-0.0390552757716016
0.899366676664616
0.136578802003314
0.000329509626076774
0.0112672231818908
1.46991166406752e-13
0.0397493510098634
-0.00890983474485311
-0.373272835552617
0.0979065049490151
0.83369934770767
0.167218592685124
0.102229665691343
-0.0884507337832682
-0.0017793603987728
-0.0346278947634927
-0.0101732572902075
0.0111934535800172
-0.106833251452772
0.00760070423836039
0.0335848470504281
-0.0561563041426483
0.555360764158957
0.00443971826952766
0.299137622121692
-0.394839072179343
-0.002536638564017
4.94030478081429e-13
-0.0040949589431286
-0.397306593647125
0.0665913694833686
-0.0209978321271831
-0.0206412063551564
0.0219350932475367
0.693551903564293
0.929494605471744
-0.0117352879686401
-0.854667311518771
0.516168524295034
0.043848072215296
-0.0517781712530871
0.0661572869569438
0.494813910440334
-0.329472034151301
0.581048215565564
0.00294811402061021
0.0722325894426079
0.376939549000775
-0.00671471683692996
1.64048632029221e-14
0.146589093890881
-0.717208629228379
0.223472938400521
4.82411573578048e-14
-1.66734552597721e-11
-1.68483240578755e-11
3.3036058460091e-11
2.97063940737402e-11
2.63693471031342e-11
8.73307752846379e-12
6.1239349017544e-12
-1.45589730096786e-11
-3.43620494528646e-11
-1.05571484605496e-11
-7.38064940127909e-12
2.3721017896838e-11
9.40138390934326e-12
-2.91330452937319e-11
1.49816773810713e-11
-1.1677395535042e-11
2.44077287289633e-12
-1.96402139164583e-13
2.48294455218835e-11
-4.22000901900281e-12
-2.69285538514284e-11
-0.0994933354845409
-0.066590124120218
1.17213359597784
0.297118474249563
0.013506752693668
-0.360537948842272
0.0184770342197192
-0.0448868912742788
0.416456055135296
0.0477754231823533
0.193263141557197
0.0851504666341637
0.0422790968516899
0.0185289643838777
0.277669379440277
-0.326735061439814
0.0141104727241536
0.0147976925412525
-6.46151156718495e-13
-0.0663341421420248
-0.114217768630487
0.0238144463261835
-0.00610622503854311
-0.00498110349449947
0.00309119709196852
3.8372337416979e-05
-0.00063274943135663
0.479080547847632
0.0138435416770325
0.00452543144810068
0.647983283094776
-0.791203893846046
-0.00191920099948825
-0.00808712679426851
-0.0235609004042787
-0.00142899270235072
-0.380581537064353
0.0447542759920552
0.00551869077699542
0.0214869738050393
-2.20953798345012e-13
0.00169431425887558
0.0129688555153904
0.00488611954453003
5.34282574655705e-12
-1.72101943728001e-11
-3.84910007242402e-11
1.80375572744992e-11
5.13035898066284e-12
-3.03729365127755e-12
1.19930328668241e-11
-4.12947188972441e-14
1.32578003567374e-11
2.08463300356321e-11
-4.07334137378427e-11
-2.00223429566444e-11
-7.86908077589963e-12
-3.19480322254794e-11
-1.92846375345516e-11
-1.61214422142232e-11
8.1510637092551e-12
-2.38915848255767e-12
7.05221595730154e-13
6.18355247713025e-12
6.74071529234813e-13
-4.0897428924882e-12
2.87486476402779e-11
1.46722719159232e-09
-7.1573071995014e-10
-8.67179008679779e-10
-4.84937684731182e-11
6.00316408425716e-10
2.88451398192794e-10
-3.56906142335829e-10
-1.42155516272946e-09
3.1381098024552e-11
-9.68761557142966e-10
9.14975115922616e-10
1.23356323132313e-09
5.17585984525269e-10
-1.38616991380046e-11
1.82420663545408e-11
2.32234887136709e-11
2.42993017487985e-11
7.28298611943201e-13
1.61882352886068e-09
1.25792931876243e-09
4.14578981554785e-10
-0.0636109785665905
0.0271624485435867
0.0708440172203725
-0.0590574589444824
0.0162376700576943
1.14513790568976
0.137040706440288
-0.196129806459911
-0.382311020694547
-0.120447913825863
-0.0196797096229376
0.269817084049273
-0.673022426410848
0.0353995866082596
-0.893453067437484
-0.418822298289076
-0.0929970316528138
1.55985068698392
-1.46913199476291e-13
-0.0722465224111634
-0.0818012632096556
-0.0332898979060937
-0.340535447093775
0.581877914660995
-0.0117121962536626
-0.0372681217153346
0.0477716853361707
-0.32988626068065
0.00808982209015313
0.642072541090295
0.0976397434706118
-0.047003012914895
-0.0785487016198305
-0.0288199673066883
2.33768521631039e-10
-0.167624531698327
0.814238129602305
-1.30965860998767e-10
3.90830296541535e-10
-0.0832418203996367
0.741019615180688
-1.75221452491482
-0.661991489845944
2.15906462558166
-0.869507302067252
0.222128580387359
-0.310321797368613
0.141206812136005
1.83619544884578
1.99874535249871
-1.0738395084637
1.39044392999683
5.02947782318381e-11
-1.19199314187489
-0.0466454384965896
-5.32912205804651e-11
-6.33267090775415e-10
-2.04798523330057
