-0.223311179127437
0.142998603864877
-2.74808267415872e-05
-0.151390220926597
0.152702672652531
4.24712543927024e-06
-4.03451584060337
-4.07954849909702
-0.213311325378892
3.16619248753945
3.12184920271351
-0.0259213723630887
-1.15212139333384
-1.28254968437031
-0.00332914578102627
0.0362617421689106
-0.0994570461382496
-0.00281321204384744
1.40591749028318
1.16709634040399
-2.07789907434765
-1.72112290201006
-1.88805446527837
0.0131329193744396
0.936614377793387
-0.97394142218254
0.00298764726499694
0.809070997463243
-0.824158387260674
-0.00184957249908361
-3.59547287596282
-3.68185768802851
1.34208250931015
2.86122183889524
2.74786382765229
-0.0123611195671779
-0.518831003862104
-0.198906488571399
-0.530008832350314
1.62716058587516
1.93269794941864
0.0597311553086297
-0.995796397033886
1.87817439034456
0.163628203221003
-1.714560463259
0.737316802687955
-0.0724110701835234
1.38183897223151
1.1429574691389
-2.32450809096579
-1.64452460759737
-1.81651506978123
0.0155768951940867
-2.08809663634199
-1.81839033180786
-0.618785619466721
3.07523001246653
3.36422726276205
0.0165018559012984
0.264666507885835
0.0593412340902038
-0.882417997613713
-0.625155184365318
-0.836704230927357
0.0136078757330107
0.246107642483241
0.0472421324293791
-0.935370369971673
-0.566677264588434
-0.780453627442056
0.0180520440236201
-1.38776375011886
-1.19702049279382
-0.752506857162638
2.07819823212116
2.29643836660904
0.0252423008573457
-0.572637035412257
-0.513862135175244
0.294958220883872
0.792607762601453
0.839575774037045
0.0306027939807295
-0.665177288867263
-0.356833821247264
-0.569792588417521
1.78803614699461
2.08761891989835
0.0596079558875897
0.786185368827692
0.591913127385424
-0.195927993645449
-2.43278721586908
-2.66420627143499
-0.0331858186832698
1.39245757268001
1.14982646919566
-2.20087199003064
-1.68042746199908
-1.84463134119303
0.0145475868808738
-2.37495228257489
-2.04198992089445
0.48754749612439
3.37142073320888
3.68946464050102
0.0196242644905836
-0.372477675500468
-0.0457810760425244
-0.488108146597328
1.46527409026778
1.78491835795654
0.0596514648475999
-0.545340555736532
0.559110898563683
-0.000653984581563737
-0.496192211771469
0.498925325339235
0.000530137079895577
-3.96311123436264
0.00729587227864587
0.329339432519677
-0.307211158908274
1.09840844612786
0.00543677802778862
-1.52813388664162
-0.00848569033948628
-0.281685533666036
0.0044726238802254
0.0592613127381367
-0.058373058703547
-0.00909133575182649
-0.00872586384306289
0.731009913132384
-0.00606747349633939
0.586516668427534
0.00222348569516983
0.813480343463326
20.0450529699628
0.00072344489693299
-2.02232704759931
-0.187384677097329
17.4583682009812
0.194180226610192
1.65445090966371
38.6061552429999
0.0562089224788829
15.0175064938032
-0.348367935223301
-4.91321388164143
4.52761440093659
0.715844674869188
0.628593136732465
-21.0650599404961
0.259733045454531
-32.2838049961297
-0.110442085756476
-17.8972798960261
1.05947267609095
