-0.88379565147127
-0.256199742586678
-0.13860822834414
0.0906367831530581
-0.0501964514894889
-0.0790137602973217
-0.371839435201187
-0.489279533688597
-0.0462461755487018
-0.114906577546041
-0.808391215115312
0.576624667413221
-0.184942033349309
-0.228431245626908
0.0191631190063018
0.569291177384273
0.433657560764443
0.425047706038524
0.113980318325642
0.0325672873762028
0.098576202154068
0.190176024531771
-0.046514333062419
0.0676024828544248
0.589990559285593
-0.0393246866074478
0.204693466632524
-0.04520921033428
-0.295876983420458
-0.0966927139004187
-0.0156556120013086
-0.132293208511477
0.033785205778935
-1.3753812427758
0.00408890331443442
-0.0507816767996585
0.660592562202777
-0.0295349539612399
-0.0741243520819911
-0.0278771309564304
-0.25784161061469
-0.154330232987602
0.533324757968988
-0.0440865132751469
-0.052914489856439
0.267271735049624
-0.131619624202319
0.0647408717917162
0.0849992515380057
0.339270679506475
0.141096069341886
0.107005699647892
-0.0911250278885924
-0.117729682900116
0.13371658664406
0.578919448164668
-0.110495082371533
-0.193900129603733
-0.116439146451896
-0.0769265480640328
-0.0272992248801585
-0.198779726245944
0.15496903798115
-0.213798671620063
-0.391706914301358
-0.151816428938813
0.157386540047863
0.0215054305973778
0.282323165761705
0.104424499899862
0.299041108677751
-0.231756608568719
0.166552518506606
-0.349555312288651
-0.0376286737426577
0.381863343319879
-0.244199163363365
-0.0059393669690228
0.183803527643806
-0.134372577075721
0.102977821730562
-0.032386175695848
-0.315047079102923
-0.505658684899102
-0.902622336419038
-0.732055666012296
-0.0191523878812521
0.179295265391757
-0.105810583969275
-0.0776030310303004
0.0927868412455512
0.2351351777538
-0.219757322628407
0.134124659770381
0.13089411470913
-0.17850718157654
-0.0520944220504143
-0.0506570979202037
-0.0746446667926842
-0.00439897903243601
-0.02012944014087
-0.085614308413881
0.339949606197409
-0.0249541048968639
-0.573605349802471
-0.338959059907945
-0.252728409525939
-0.0117557465261139
0.181233321915095
0.192449401758422
0.0605678457188147
-0.414898060100276
0.258880707738123
-0.0124263537523668
0.37255817407993
0.0607564483628858
0.321954416387751
0.0430524072263723
-0.00942026208293301
-0.239271698863902
-0.167322097095856
-0.550701613034719
-0.380297640609279
-0.112328517444968
-0.221381313912466
0.0172676781261189
-0.214168032052645
0.0043184597275315
0.541820002395193
0.359665117234248
0.1161118438846
0.125561913230072
0.140478939644961
-0.154655786564899
0.190489682074428
-0.489096823993062
0.448980369259871
-0.109754337923258
-0.201547481505423
-0.0818337751941399
0.0719724484594927
0.512572808861226
-0.277726770073526
-0.164170198171651
0.411059700178959
-0.332384686038474
0.252868217236349
-0.194528205528054
-0.275098474515157
-0.070059145088862
-0.215840145214134
-0.0597177628974651
0.000462726700898355
0.28521255519832
-0.309760745193741
-0.154281819534122
-0.0114438336235759
0.00187779386868367
-0.00907622766369069
0.0800319077901565
-0.41266854067312
-0.0261123218485465
0.0995124822892436
0.437731653812324
0.165541263026086
0.0950297478503244
-0.134697685287898
0.00384112387515593
0.451081364654916
-0.182520520424091
0.0701617438045913
-0.00338230813975519
0.0236368507677838
-0.191312389538974
0.116421797873251
0.0217948386219199
-0.0886911779044964
0.00895278368296931
-0.116726874531375
-0.0638858964917292
0.167016974353562
0.0581106387752268
-0.000742346887032689
-0.0990489190005192
-0.025960005544624
0.0232561035319393
0.273428354420283
-0.0338096899679339
-0.144193617832515
0.0746824572447161
-0.196955524988747
0.029679422284471
0.0348399548636635
0.137461143279172
0.00181696149588315
0.0907669299679045
0.0326443158238458
0.0299832935876264
0.730777421030415
-0.15115802807253
0.424166214312959
0.101902031417231
-0.0447411765479705
-0.401772967682055
-0.104833189278112
0.0314901665147483
0.555210608717267
0.000308751831924906
0.0569459560986239
0.413743793692439
-0.26063429833149
0.0291020375073654
0.050279322834653
0.256418737710239
0.316860815359504
0.0708386594513838
-0.218544681044477
0.06559408601494
0.41584231843041
-0.193910740931835
0.213117481651086
-0.0129044239815461
-0.0208395715650139
-0.218006217838934
0.0652876783196342
0.0765099016246011
0.0751475995774837
0.00454809225266818
-0.0720470608376022
0.0960107902277735
0.0713450703885136
0.071475924244004
0.0301919435901055
-0.594070360934358
0.0196060834765067
0.0833690683235833
0.120306166597661
0.00656324960422396
-0.331263133316119
0.001935345028787
0.0840181094097009
-0.0677631156572899
-0.0628356879582927
-0.36747482418572
-0.130687083669841
0.0322199258330008
-0.188438123284827
-0.00772578196500208
-0.102295515892099
-0.145693136100532
0.717872943861777
0.0901995853713949
-0.0864913042541798
-0.736694060622097
-0.347241024043161
-0.0505131515123194
0.731697834425622
-0.0592555043399405
-0.859934546955695
0.466801258157084
