0.0981330013407883
-0.0419999635445458
0.850017049116921
0.0539612583130106
0.0273971277146744
-0.328985529581284
-0.014601196588881
-0.600289563729495
-0.559306941732971
-0.179310958763216
0.101839684487451
0.0738153938419061
0.673741442652514
0.0389188579496275
-0.19741991880815
0.281361820861688
-0.0444870911849557
0.535692692508394
-0.123165659243018
-0.0221859390036355
-0.0382897068795861
-0.000702389698911654
-0.0573300010908461
-0.455095515572464
0.0573940252194215
-0.0759051867325738
-0.0167968814966913
0.028306876660214
0.046478252461387
0.782670461935529
-0.358593197917493
-0.329375911458222
-0.364037598597452
0.00190951715883931
0.060529551829968
0.257392375401939
-0.717835081973628
0.0310150344061795
0.0131596890912563
0.052374154486012
0.133449808254141
-0.0117843393134299
0.0820624678991129
0.012390189398551
-1.03319147452915
0.0934184234237531
0.0180585485629334
-0.0162006497534259
-0.0754693052543323
-0.000151740664628953
-0.123547968887575
0.101981006933428
0.0268643618503613
-0.168383908727803
0.0296177316619886
0.229223369942808
0.348997687338241
-0.373151008050022
-0.0195402414205672
0.0974521333752903
0.548081549607527
0.0515243706942065
-0.0196733641650728
-0.0882310388136167
0.541218443145126
-0.320719588684182
-0.0805344529105358
-0.0258359184721156
-0.0182577353959082
-0.0054161447632136
-0.239847027828375
-0.202265082364376
-0.00408064001815147
-0.0390633407339407
-0.635110461937386
-0.0764147724857174
-0.155373554936286
-0.637839408341087
-0.059936566207873
0.609133318296971
0.230190895314295
-0.0725141578466507
-0.00976902881062814
-0.167723919211637
-0.362009698200489
0.328116667881139
0.537358877696975
0.506940349762618
-0.0032873546299809
0.260093429685315
-0.552142237058718
-0.381263543129905
-0.0348586357120484
0.218916979271321
0.0748674946729755
0.010181046768565
-0.00764434974808706
0.115608210606855
0.0192501142612291
-0.467809011095044
0.182190276060931
-0.251656424829324
-0.000780110465130791
-0.0301299062470726
-0.378118645661678
-0.244338006634882
-0.222991748824374
0.358589213086946
0.0850467738927334
-0.131275487055663
-0.299651115317376
0.0762045303759187
0.113598908501171
-0.0114818251941486
0.507912861900744
-0.331696268598889
-0.084992524704853
-0.699854549644374
-0.0508474154119804
0.127005653086645
-0.190212452659493
-0.448412150541018
-0.0264362703396329
-0.132208416733166
-0.0303540546984423
-0.50778742906875
-0.67202496039768
-0.0957295378288799
0.0654297407213373
0.0479044796604093
0.00671374217695172
0.099885496321618
-0.0483843915739193
-0.209501420981888
0.403972642818491
0.295615825512648
0.639510673261767
0.273992978783418
0.0103243845552566
0.197367938644299
0.184138124140756
-0.0553011900209635
-0.0153708748755343
-0.0468283769401642
-0.102632460101865
0.226667682563216
0.116413820140828
0.169861791710122
-0.0583876716918559
0.0771081551050065
0.0696286849165424
0.333403633321808
0.0104830781894382
-0.931256838953975
0.018022534394407
-0.0930190222656418
-0.109286679012821
0.158555948796021
0.083246750693818
-0.0425797945339992
-0.0521854434153152
-0.498095311289584
0.0397576555901123
0.525832617241335
0.0208185723756438
-0.0147900237430583
0.0665032145989444
-0.195017011733004
-0.076972068970954
0.0157421380346255
-0.0433891172015945
0.003912672037916
-0.0239134499717847
0.0648821936483015
-0.000772951521042063
0.0217254551014767
0.0196937948632802
0.013508655090417
0.00900448323687958
0.00488196131450495
0.229056156563471
0.260565586497851
-0.103073244709882
-0.17269282968767
-0.0130976489758442
-0.026332157480246
-0.00218825491870785
0.238278521775424
0.183151270034902
-0.0440475489384068
0.139084134838794
0.125863744907198
-0.100716007557619
-0.191965282530966
-0.0509086135802886
0.0837357446526974
-0.104158254241407
0.234332159811488
0.144404821750067
-0.0250353913285415
0.0819179501271287
-0.358950185383185
-0.0670891631260078
0.661406399440365
0.0152538494186058
0.0183012118934401
-0.0517195400982935
0.00978845101326119
0.0621130954926793
0.00808038211589547
-0.0677291918472623
-0.509560488324146
0.044041802327717
0.686279263393635
0.0122105145437473
-0.0971682539795041
0.0519488217518999
-0.154235336103088
-0.0808700540286076
0.012642881880602
0.0763498163608481
-0.0420409132965295
-0.0260850870791699
0.572498094225138
0.0193087305694669
-0.0640381200443359
-0.0274273289554075
0.127187862215137
0.0712063251706514
-0.0171983337271896
-0.0447436824093582
0.0216950519051338
-0.0210842899656313
-0.129265703715238
-0.0129395187778081
0.0299775880609755
-0.0185394929449966
-0.025682764194255
-0.0268133156907298
0.0147685694680995
-0.134296741431498
-0.485693371435516
0.0281470942781072
0.540722758803936
-0.00542688432335303
0.0986857350990436
0.0755202620480888
-0.220373267751994
-0.137658334684992
0.0372237865338003
0.349035088330713
0.877859515038935
-0.17159881148206
-1.33629675078319
-0.0457146582938813
0.0786730358150525
-0.155261901844942
0.447334180402213
0.307980061828425
-0.0648444112121248
