-0.595101157346795
0.254487740283528
0.00398617311000552
-0.375538846032661
0.362872868120845
-0.00228231929283232
0.784116680960307
0.940911556217006
0.00221051687420848
-0.00161705497068442
0.104940140075177
0.0183464950271296
-0.408001459701689
-0.480919783745621
-0.00970761477023409
0.0458537228555727
-0.00162695867125063
-0.00147598614690418
0.801405300596254
0.778393480036452
0.0636425367171443
-0.588307662817293
-0.631971449570063
0.0062728365584017
-1.22062489000962e-07
2.56326547395488e-07
-5.11739385318873e-07
-5.95105787246786e-07
7.77064159188468e-07
-1.54556855456889e-08
0.293594542487272
-0.239145269785028
-0.00103795485800658
0.238123123264198
-0.225358796391089
7.73703811265453e-06
-0.00331857410739408
-0.00857098523432271
-0.263537676604521
0.15293033384353
0.148488487036383
0.00294218263473945
-0.588648620846101
-0.215843853130452
-0.00734851104707584
-0.152043197883745
0.178722420213079
-0.0141124938387857
-0.122408216446604
-0.218719440575374
-0.00454748780398108
0.0467361110574279
-0.0299314955445105
-0.046082356336592
0.546890492020599
-0.519073552689679
-0.00106125079337474
0.465089508105813
-0.454102628313307
0.00602757680366766
-0.1661691550007
-0.12882409079259
0.00141626666274655
-0.0225647386180212
0.0136316625946185
0.00130021495501495
0.32756687709311
0.413433220841349
-0.59164699950986
-0.0900037231183781
-0.0364277026701137
0.00778081113700826
-0.278946293477717
0.455630250710991
-0.989957219364528
-0.963667804688377
1.03478181592775e-06
0.13864301984491
-0.0445928540564444
1.12331607539446
-0.281631821065343
0.0758848990732177
0.502195064465679
0.634878966791079
0.494173796267936
1.28721116189059
0.0330186024023193
-0.0214747859962049
1.14679279422229e-07
0.319969465120231
0.0841830408572397
-0.0923148932293761
-0.947775951673236
-0.077007213295592
-0.193057866564517
-0.21756350487255
-0.07869186104275
-0.356975265418525
-0.0161197747531896
0.659022487699374
-6.42830245884334e-07
0.000685654703411274
-0.0213799079649239
-0.248049143133489
-0.987396245722256
0.0067133835625174
0.740827997885302
0.173494331148021
-0.570969986304293
-0.335535284577382
0.00285660686775479
0.14775235376262
7.13676196985093e-07
-0.321125487381041
-0.822458642361571
-0.376871327777222
0.255653738496418
0.0687082546456061
-0.641341595723717
0.0867869107291666
0.479686357479087
0.0576696137678484
0.83564941985956
0.976901665897521
-3.73888671472084e-07
-0.182926854308672
-1.34233197281622
1.10083986748502
-0.15772175316827
-0.00580456760954537
0.0495092783281775
-0.399923497165476
-0.776011623869337
0.498941508373035
-0.519144326272566
0.0262370800371054
8.14031162592496e-07
1.75168617605353
-0.0275896365541085
-0.411644809817235
0.190201922927382
1.96759737171686
-0.690589960509929
-1.50844900348921
0.0442219366063376
-0.376799882261911
0.684885161555952
0.468552179115959
1.7613121921796e-07
0.0182376560828137
1.66593261050775
0.250976253516057
0.164438527220233
-0.0876738875690557
-0.252386137009979
0.0150425688912246
0.93944543922392
-0.335964792584887
-0.149733293656786
-0.185770349292666
9.47636636282057e-07
0.0504545342838858
-0.0526005362429023
0.140278980085524
-0.0261241634619886
0.000678889375059399
-0.608863603897746
0.199799826226763
0.125207158931034
0.0330143736802208
-0.286736032349681
-0.0643625089903497
1.66954089126947e-08
-0.0887900157651904
-0.0457279844196956
0.0198720540054941
1.25135745353745
-0.0211891935128409
-0.726480462944176
0.296795690579629
-0.859693174036815
0.192350165217253
-0.0947576046257785
-0.0189960766885373
-1.71195442781288e-07
-2.02384926438491
-0.0027106616285825
0.637467908919774
0.0466415901512803
0.489440536231197
-0.193364774997047
2.70616164331875
-0.355703492436355
1.1154746973552
-0.539569116615992
-0.0261797942566063
-4.1234597149207e-07
0.270035906945573
0.00827957149653773
0.106829749074805
0.0327094699719651
-0.038843915441413
-0.10946596668922
-0.144617929723901
-0.475122534187682
0.428719159291792
-0.13128769813239
1.20805882062748
1.00100327325078e-06
-0.0560375215251549
-0.132490874085487
1.16207079251776
-1.13368813502388
-0.0812875797644783
-0.0891323808866469
0.224130993559814
-0.376968443488441
-0.291780675155949
-0.0343194994666731
-0.308708818179002
0.169731154187754
-0.0208117157653818
-0.350943962495123
-0.493758208928707
0.051772980794798
0.0594128278374113
0.374813356217355
-1.00199547794312
1.20270287523624
0.253858220017811
0.562551952021405
0.189154146272615
0.646910023732152
0.0583089725898292
0.243409971667366
0.62664580743973
0.919750285611273
-0.282652623075786
-0.146809604887799
-0.48978495441234
-0.353836193777737
-0.152489242306604
-0.0298890434894253
-0.0284659326097405
-0.156345085719646
-0.439324510992778
0.151207455966833
-0.126071353701746
-0.0442912162044043
-0.251822951419935
-0.00144369159900209
0.021932084038174
-0.0781448361210196
-0.265977921341228
-0.0329856430857965
0.0526666635024313
0.0571302285672699
0.975198826020618
0.0400593420936881
0.0679337593132281
0.216922220904249
0.464514736959526
-0.839271039385671
-0.208288618213422
1.03613022346781
-0.226020750234873
0.154892627534918
-0.128582093576347
0.0556954734171683
-0.0110532233069941
0.154620509763784
0.877966361062761
0.131752218972421
-0.0405859409637004
0.215328922557858
-0.57449117097907
0.257793818248754
-0.299158224106942
0.751776142109142
0.321442011161536
-0.755348898665426
-0.0604892089301662
0.872527215518315
1.81942194856705
-0.189035644229187
0.179809101430598
0.493981630829263
-0.208486394921982
-0.298374164540797
-0.642484989444985
0.313523910979639
0.0791040308437466
-1.13980383401167
-0.804394050604312
0.451447079091401
2.51488460148226
-0.435677371985287
-0.0207401471213182
-5.80748006715776e-07
-0.717114253604036
0.218437520643037
0.443179287661452
0.647344658761703
-0.494113650837909
0.278898539984871
-0.0108848484200107
-0.257610455768274
0.0844441774657321
-0.192922607817035
-0.127260455734473
0.336711007304782
-0.138660065045542
0.0349153141539275
0.287627192123535
-0.237144082426756
-0.946585739016002
-0.726821535697712
0.00640373252001677
1.11960137556455
-0.171306968185103
-0.452164057889323
0.196893629097994
0.0277207569828624
-0.171868152087755
-0.313896094638954
0.723824286456433
-0.593269589283416
0.472316636614358
-0.251651681374717
0.0158331469915923
0.16691526726462
-0.251693062261737
0.246554611125387
0.13059777782534
-0.387383213987762
-0.200615241820881
-0.129000299778733
0.227170158365916
0.102223411303439
0.884392681882432
0.44616456066024
0.0256680104793042
0.341702014130126
-0.227904525137351
0.937307595418569
-0.200662652062703
-0.584489837751729
0.718421431216514
-0.440278330817182
-0.511492647787583
0.219898635864939
-0.635929820252632
0.181851529066021
-0.0282262407061903
-0.388915465831682
0.839306045495616
-0.193249050696946
0.297097698225489
0.103709173408489
1.14631976959015
-0.00313771672686679
-0.0138104710785421
1.34256211728137e-05
-0.020824521943325
-0.0328492488721421
-0.00431469395144351
0.000513614512600133
0.00123929297156234
-0.0109696257269958
-0.00791307872048183
-0.00145833358485171
0.00104070468680228
0.226898621060745
0.549735417628452
0.58026289218068
-0.0259481016499709
-0.363883855198201
0.583400759776204
-0.618570230514552
0.0208702594054851
-0.477661989093951
0.594724625803138
-0.703773926841397
0.205783159655099
-0.247034025534694
0.0178319203304709
-0.180160551086537
-0.0137670573503596
-0.416546142286639
-0.204623487078239
0.068420382514926
-0.162429187134025
0.379584229488746
-0.181069139274557
-0.0656457475360682
0.907358852648712
-0.399009934444616
0.790876103604921
0.564659256801105
0.0449364060065826
-0.548802401594856
0.717797194729304
-0.367852472248416
-0.198274374787286
0.59424750026357
0.686770030040669
-0.424467026920497
-0.611377281728321
-5.15283789344256e-05
-0.000204580336413855
2.10238843114765e-05
-0.000222603232278557
0.00014711164124938
-8.46592056968611e-05
0.000197242560084822
-2.97251326598505e-05
-3.92145516174922e-05
-1.2215806525484e-05
-0.000114489572071232
0.000102904318115551
-0.000471835827371603
-0.000946607745800106
7.94967827507683e-05
-0.000499716652533007
-0.000969854310019593
0.000437762347733675
0.000201320457677262
-0.000156545106304643
-0.000321649914806483
-0.000152375151695985
-0.00157414879424478
0.000289365411165675
0.012051465245039
-0.31545100001332
-0.838429510422909
0.0966006352008029
-0.201521168849759
-0.0510921206129793
0.337469481859944
0.0676149367522113
-0.42720811654256
-0.363817922128659
-0.538762424961849
0.0701636178952737
-0.731030495301979
-0.390467756753195
-0.83425572876688
0.0239105087111011
-0.617329011764242
-0.58198612587631
0.551150333580553
-0.118789973880027
-0.325858808334581
-0.449145551782091
0.0884647382089755
0.444267250849184
0.148377244330063
-0.215503366991747
0.482409494657357
0.0248780533956147
0.293072589310038
0.145981980123121
0.668244124718712
0.791157008816242
0.00726819381626522
-0.100892573864469
0.188273769892175
0.963940409125267
0.0171431422918971
-0.139727453035796
4.88611897623196e-05
-0.0373770431654452
-0.203988559054798
-0.0120587917132366
0.00038987223124963
-0.0196334622840853
-0.071471394328689
0.0451029919093249
-0.140324710294851
-0.0410135723849222
-0.394066604450756
0.218653328546798
-0.0314364801425129
0.944521117245057
0.0912054430844333
0.670434158211607
0.326678113866133
0.782735264345365
0.450438793292621
0.297346066321488
-0.101480701530891
0.446056754446957
2.60770589813742e-07
-4.40441762660654e-05
9.33837750507811e-07
-2.41819235441659e-05
-6.79543868634517e-07
9.49418358393454e-06
-4.81167079520331e-08
-5.9905156071664e-06
1.30740242839865e-06
-9.55541916386524e-06
-4.13822851732576e-05
2.17923635162619e-06
0.00665533346710509
0.041381617825991
0.000894143007903829
-0.00885567571827482
2.5560684540788e-05
4.6974809655615e-05
-0.105358100113501
0.00293510682289483
-0.100151157542119
-0.0423435437306998
-0.00376535407941132
-8.8617354718662e-07
1.48769857929272e-05
2.55754542147922e-05
9.6903451653038e-06
5.91852265272453e-05
0.000152953025361008
8.44926857158474e-05
-0.000175126188061688
-0.000113855378458697
-9.98969654002305e-05
-5.71031282257834e-05
-8.06945959693469e-05
-5.06155936213144e-07
0.000568644283665507
0.810143668043909
-0.539262803877157
0.881260586371903
-0.000234126130210302
2.36589558015399e-06
-0.17737073815437
0.65353877705456
0.862212624014299
-0.0254721481259748
-0.0395310681351686
-2.59076883482236e-06
0.0537728638517462
0.352281561899271
-0.0464225641497569
0.0835096459870411
4.11401978118367e-05
0.000574715651360311
-0.719255087694069
-0.071423196707923
-0.200919435385233
0.143174153487477
0.377286557549642
1.17570391638162e-05
0.000113016902486016
0.000190478845035481
0.000114985461944507
-8.00135339857244e-05
-7.85152287043594e-05
0.000268010429462958
0.000118000010066476
-1.26944189908984e-05
-3.88956734614187e-05
-0.000122481830719036
-2.88692101441228e-05
-2.08273918892632e-07
-0.00017749774471433
-0.786038299623398
-0.734455982947137
-0.807702435819602
0.000115496449248253
0.000477306952015668
-0.878339797423501
-0.276482466877208
0.760402486250526
-0.00216167192472612
0.0807416262433078
2.88152618734912e-06
-0.0032749392210282
0.23701119846329
-1.00492119147644
0.14361382172837
2.95015473160059e-05
0.000943456530556375
-0.00468029818116129
-0.216219326316701
0.980519735746857
0.0382868712670108
-0.0291188906417413
-1.69407952596758e-05
8.81675917064437e-05
-0.000136188242317895
1.42081297812472e-05
-0.000323489715001795
5.25459163760296e-05
-0.000197280460443391
-1.11739355366468e-06
1.20528825826872e-06
-6.1853748165437e-06
-9.71606774839701e-05
-0.000887235162991998
4.48589601347501e-07
-2.64062263243999e-07
4.58549546572027e-08
-9.65405070005091e-07
-1.16344403724379e-06
-1.12255461407518e-06
-9.68908909046557e-07
-9.93643276010069e-07
-7.35186254006496e-07
-3.65324671101258e-07
1.00588738449279e-06
-1.19127050655614e-06
1.01504462657474e-07
-0.0298526945523558
0.100869728622861
0.163567536644683
-0.902073988435896
0.000157401615028648
-0.000140827285848688
-0.193041513844364
0.0736771219528259
-0.0594957057986181
-0.0324758287612511
1.36740577621243
7.20662208943366e-07
-0.000667812322818955
-0.0107132671910371
0.280730637385348
-0.118510945167247
-0.000211078589549121
-0.000129200240563259
-0.158593683210629
-0.311479574553313
-0.118647382875777
-8.08335476729293e-05
-0.373207724623982
-1.40138896946617e-07
-3.49410892007277e-05
-2.68424601426413e-05
-5.58400243035112e-06
-2.77223637844429e-06
5.66464506915102e-05
5.15947536897566e-05
-9.26847798282414e-06
-3.31519256011027e-07
-0.000237930812693532
-3.70881782988767e-05
-0.000127145671440282
2.26278990936776e-07
-0.989961288133004
-0.00063159164344413
-0.321324030816839
0.726637679973129
-5.52158293459061e-05
0.0162693780333908
0.0214325037444785
0.000299128338113832
3.87415873569156e-09
0.109729122234476
-0.809120025924016
0.000252385452001786
-0.149924492207787
-0.000137203953477119
-0.844313593144095
0.133994547058761
0.000573287494279005
0.747472568968031
1.58991334402445
-0.000177024778283922
-3.94606254444531e-07
0.00341022476193976
-0.423567320864901
-0.000341143229040019
