0.683947703706851
0.751236466354445
0.0586173081289307
-0.559227168115033
-0.529462375191061
-1.05431961898437e-05
-0.584227321822418
-0.646147312331225
0.452832398132738
0.456254459654262
0.430591807420611
-0.00327920154085667
0.370106464402196
-0.34658284152416
0.00223609647573026
0.326200239734041
-0.290257621656068
-0.000347378179723216
-2.13699935938095e-29
-9.45035533487232e-29
1.43711129576897e-28
4.29618135608145e-29
7.20496848335955e-29
-7.47592026553007e-29
0.418031782526364
-0.282548598186665
0.00788987501987058
0.363573106791419
-0.241002980317216
-0.000331778799852811
0.140152633275425
-0.221439237840064
-0.000235612099993015
0.179117863550231
-0.132685268753267
-0.000295922610231993
-0.896669423125442
-0.916907679540119
-0.51832174123033
0.783784605943439
0.809455218997602
0.00847984553731399
0.412573518177418
0.430383839954701
0.00758232453339172
-0.0460849145986368
-0.0430049657797159
-0.00212809847666897
0.265539138652817
0.279242907683664
0.206911360516902
-0.483772716579299
-0.485132210536096
-0.00763893181081616
0.279395158891451
0.290087359624933
0.10389605032209
-0.392368601028422
-0.395481218568916
0.00631619300735946
-0.379649242304127
0.212645488731479
-0.0128940480361241
-0.340280451338842
0.170630609475265
0.000398159350837663
-1.14873377673428
-1.21699884112948
-0.15373188059247
0.942801206408373
0.933181726068436
0.00783580945991119
-0.0719710956517362
-0.0335302190047631
0.674113936537917
7.70079200023622e-29
0.717884546224336
0.453248699500871
-0.0202135421288485
-0.607171373544747
-0.0839964748291403
0.0595034531500327
-0.609078778459772
-0.0432384826628136
1.30440271612654
-1.3712731592151
-0.0115012377312724
-2.2267000137735e-29
-0.0361312662098877
-0.0454745583912274
-2.07005035320887
0.234149536861783
-0.834849272544102
0.707303743820963
0.0619283637253709
2.2568792220521
