1.64003986835477
-1.6372330789416
0.00168484442853591
0.00106472821945962
0.000297834490136337
-2.35551644896978
2.35409057881119
0.01915195919584
-0.00662981691808408
-0.000178924831430076
-4.16438258683308
0.151058388264974
0.0259377842652788
0.862987829808828
-0.014492688661123
-1.92741325523193
1.94377272332978
-0.000500811077920705
0.0019972312101804
-0.0017106579773454
-1.14598952790255
-1.36090814015399
0.109681377385539
0.36870748185954
-0.168239354764301
-0.147855291275206
-0.15856675205895
0.0167818461431631
0.0534923174679513
2.48772865717191
-0.128000326618404
-0.0902146166415732
0.0123292992111892
4.40508529172775
-0.0091991589551267
0.216139789447966
-1.15921141160957
0.0685695368815332
0.690148264469243
-0.134149447511942
0.349423728731643
-0.191411730502004
-0.0236687124212242
-0.037611553388103
0.0212622904194561
0.607232826002056
0.760400911178442
-0.0758380461374146
-0.227158583325524
2.80959923744861
0.698580436044254
0.878637872131846
-0.0594267887091061
1.73782453126632
0.0866270564579681
-0.00560153245360636
-0.0101154122043122
2.1271034844101
-0.00143299521249796
-0.00298283689795741
-0.350116475562916
0.385635300628581
0.0162083845651919
0.0101402137892209
-0.00584255466146237
-0.534644303619968
-0.559660280849697
0.0580322492445957
0.144456763153756
-0.0678559736529275
0.00431104159568644
0.00821982277790062
-1.98473390143293
0.00111738626942374
0.00218204424878516
0.692780519460232
0.843208593143186
-0.0665193181557422
0.661902560903568
0.0956799662199572
0.0308109244901058
0.0554505739921562
-0.00465038608705593
-0.0189817070236952
0.939841196484131
0.0880560700116376
0.032091478342879
1.33185542242878
0.00955298576446256
0.00710672115218659
-2.74797718271328
-0.0171796531314666
0.0129808666088491
1.2742599707133
-0.0190591621239435
-0.358944694628101
-0.754698475481453
0.0458204964515966
0.414139247275355
-0.0858188745668567
-0.462689986228275
-0.221839631313462
0.536448996866806
0.0948819700393831
0.16216962809515
0.162033328697083
-0.427014325009092
0.227188680595034
-0.645344830027925
-0.00188840296394921
-0.0318972265172905
-2.13514689159377
-0.133359832011242
-0.926036933951266
-6.53516727481279
-0.193602106388374
0.00964570977101318
0.0072500267597025
-0.670739849561942
0.0979042602058094
-3.22707129061333
0.805381186887247
-0.0201681985219855
-1.96394778985423
-0.180373548479803
-8.65103368882074
2.52909558258688
-0.0269585417704247
2.73925232114817
0.428550580746465
0.202184803870103
-1.23119783168801
0.0720894111156426
6.21075132085769
-5.9900520229534
0.366832384395962
-0.356023014347146
-0.0470016716921815
-0.00036932293120358
-1.40556749014296
4.73603260910233
-0.505247026630812
-0.00549978088512096
2.48432313431473
-1.18923980971259
-7.77502544041707
0.298343067338361
-0.152125191109198
5.1453929460749
0.959629749230226
-0.225489222179484
-1.06193287357301
3.90312450616647
1.75223964954785
-3.20536769780276
0.226706192999518
-6.790589865329
0.00248285904431187
-0.0253418692858982
-0.100000992949356
-0.731886090931574
0.356548324490916
-1.02854129446578
-0.442074825372487
-0.00537761378016831
0.151971170934038
0.010961544454576
-0.0160147431198884
0.0910152100001323
-0.0101364658533959
0.0146761974293763
-0.148054050286075
-1.55149093871148
0.230211528173164
-0.36288311747662
0.0281672147854402
0.000522281963127005
0.00762541736099836
0.659645801406167
-0.0678926649350476
-0.146927118983682
0.0482202264444023
-0.00515899797381429
-0.0778860175190203
-0.0454264904316248
0.164711829471325
0.0202991895050892
-0.031737667823697
-0.0196697849164471
-0.00345095534498993
0.00194335954510665
0.244426991108439
-0.354838135798767
0.0755045624433365
0.849466935187891
0.0297504012953265
0.00603282458965024
0.00230423789769051
0.0625862122673376
-0.00756674751645395
0.46607537971483
0.0165089407740949
0.549193011297816
0.163557085076904
-0.121539198050403
-0.35924039186255
0.152397900098577
0.000319044183668739
0.124553518514695
0.0464734782080404
0.012338542886754
-1.01021788210483
-0.0654245944805271
0.501592017463111
-3.18249786382776
0.0580060785349463
-0.0136850209299024
0.00347882134869138
-0.285924083931093
-0.150537079277503
-0.0546273295926882
0.00690900006666749
-0.296322554365611
-0.00418867907934644
-1.27626378738511
-0.547004532529462
0.163450966524628
0.0138689510227
0.750623810771922
0.649147975687628
-0.0868929601475596
0.976377552382291
0.608150432326019
-0.162169036485582
3.01406498264327
-0.0368383178794486
0.0119633722397645
-0.00691409118968503
0.138714785813362
0.0650974512343828
0.109087163681829
0.0252359652461351
0.232861828455822
-0.0133343991546076
1.17865356021892
-0.82701199222409
0.148069219585696
-0.00749253711544965
-1.12490931298392
-0.557612465384295
0.0932437700455653
-0.466669771466775
-1.04813178462951
0.851507208304233
-1.55663994190445
0.068831918123173
-0.0239788028330749
0.00226539113300935
-0.08923189796867
-0.190120752095579
4.47096044623175
-0.140638741216806
-0.190457491460022
1.74197057625407
-0.303393395626427
1.43332932850224
9.02036396651387
-0.167467648798922
-5.17135995028298
-0.427379076190076
-0.343982292487697
-0.0866287661755321
-3.61446385199953
-4.35407125294921
-0.69015906121004
-1.14213616269086
0.061060479527968
0.00388456038324531
-0.668530538469471
2.344145420985
5.66212679677143
-0.206474012382482
-0.403452613547006
2.21625564413774
-0.330893944632706
1.59124035962479
9.39800294919247
-0.197474362306335
-6.07032954453342
-0.445246627175644
-0.347626781343294
0.328192944025933
-4.32043131730755
-4.6971505857153
0.528186896420575
-1.18593773508841
0.0689317571705421
0.00307286702839551
-0.438620212318452
2.42981886324735
-1.41530477011588
-0.293991132436482
3.95511520559197
0.738225148072083
-10.1547859209327
2.56694197222929
-2.08044061835228
-1.41460587177319
6.98380616161825
-2.76944421544116
